<?xml version="1.0"?>
<opencv_storage>
<my_nn type_id="opencv-ml-ann-mlp">
  <layer_sizes type_id="opencv-matrix">
    <rows>1</rows>
    <cols>3</cols>
    <dt>i</dt>
    <data>
      560 117 24</data></layer_sizes>
  <activation_function>SIGMOID_SYM</activation_function>
  <f_param1>6.6666666666666663e-001</f_param1>
  <f_param2>1.7159000000000000e+000</f_param2>
  <min_val>-9.4999999999999996e-001</min_val>
  <max_val>9.4999999999999996e-001</max_val>
  <min_val1>-9.7999999999999998e-001</min_val1>
  <max_val1>9.7999999999999998e-001</max_val1>
  <training_params>
    <train_method>BACKPROP</train_method>
    <dw_scale>1.0000000000000001e-001</dw_scale>
    <moment_scale>1.0000000000000001e-001</moment_scale>
    <term_criteria><epsilon>9.9999997473787516e-005</epsilon>
      <iterations>30000</iterations></term_criteria></training_params>
  <input_scale>
    3.0928117725548430e+000 -8.8066580715147635e-001
    2.9651893645226224e+000 -1.3522828935003024e+000
    3.4465061939192863e+000 -2.1866749976572271e+000
    3.5545659428073435e+000 -2.3419621232140342e+000
    4.3585208908097863e+000 -2.2689852513407271e+000
    4.8979167349229016e+000 -2.3053512247291863e+000
    4.8269066589246234e+000 -2.2298397898762845e+000
    4.5205587967589640e+000 -2.0934770363281245e+000
    4.2788317630527963e+000 -1.9737961395659294e+000
    4.2660547778186926e+000 -1.9655371640787278e+000
    4.3673025702298309e+000 -2.0165204972380404e+000
    4.6698927091928422e+000 -2.1408589829875107e+000
    4.8518095528897041e+000 -2.2372984330355172e+000
    4.3686928728252363e+000 -2.2883282240179841e+000
    3.9543426796299452e+000 -2.3121849943588049e+000
    3.6689556363766060e+000 -2.2775418001424943e+000
    3.8534050943785858e+000 -2.2791539641316145e+000
    4.3334560669721398e+000 -2.2166695463757313e+000
    4.7883168193899719e+000 -2.2363179221052643e+000
    4.7263251987924271e+000 -2.1201954549658053e+000
    4.3903936848462983e+000 -1.9995050249063941e+000
    4.3261524382149794e+000 -1.9840539456010566e+000
    4.5067910280846313e+000 -2.0615348759516823e+000
    4.5543533860908552e+000 -2.1094314776397303e+000
    4.4274132366362560e+000 -2.1099957387142014e+000
    4.4377716797791553e+000 -2.1285231863900900e+000
    4.6962301240070516e+000 -2.2040559584714385e+000
    4.0840991670775058e+000 -2.0381288894593790e+000
    3.2938847912202687e+000 -2.0173194112388622e+000
    3.3544762816109608e+000 -1.9218422748700428e+000
    3.0678195418100276e+000 -1.1777078149734401e+000
    3.4839851883502333e+000 -7.5791252833925349e-001
    4.8190112971708263e-002 -8.1923192051904042e-002
    1.0543807993608156e-002 -4.4587128052970493e-001
    8.7662158725502447e-003 -6.1845652980841970e-001
    8.6571328248766736e-003 -6.3651569094905747e-001
    9.2834445748489879e-003 -5.5039222023135936e-001
    9.2604086074130568e-003 -5.5296214897015217e-001
    8.8417861711796320e-003 -6.0687809832434203e-001
    8.7826276228369308e-003 -6.1588176205143974e-001
    9.0564748108176597e-003 -5.7735026918962584e-001
    9.6705490842762826e-003 -5.1169292842176883e-001
    1.0189067510131431e-002 -4.6984337556093558e-001
    9.4667558742209321e-003 -5.3108500454379426e-001
    9.2041767763878356e-003 -5.5938384358497073e-001
    1.1084975903594252e-002 -4.1457809879442503e-001
    1.7325527114530042e-002 -2.3930884326944621e-001
    7.8529595972040608e-002 -5.0062617432175882e-002
    4.3138752801327590e-002 -9.1669849702821132e-002
    9.7584751364854783e-003 -5.0390325986026896e-001
    7.9002251375037275e-003 -8.8640526042791823e-001
    7.8452732033732243e-003 -9.7693264565005078e-001
    8.0463714497671680e-003 -7.9679193281319383e-001
    8.0309486289166267e-003 -8.0379757089669290e-001
    7.9589877849409549e-003 -8.4225988234137661e-001
    7.9390853087151613e-003 -8.5533720344769970e-001
    8.0161956084075867e-003 -8.1083818579042743e-001
    8.1300895295167517e-003 -7.6361865905986093e-001
    8.4918273810009604e-003 -6.6766992783120049e-001
    8.2495378984812767e-003 -7.2575309661889031e-001
    8.0591993210079784e-003 -7.9121189333995823e-001
    9.3911269033607782e-003 -5.3881590608032470e-001
    1.5286011045466464e-002 -2.7610357450873801e-001
    7.8529595972040608e-002 -5.0062617432175882e-002
    3.5296875323169379e-002 -1.1250879009260240e-001
    8.3507490689672757e-003 -6.9916646579928510e-001
    8.0657784728360108e-003 -1.2683436648534627e+000
    8.4791911777335402e-003 -1.4919136877222163e+000
    7.9390853087151613e-003 -1.1691295502746664e+000
    7.8431372549019607e-003 -1. 7.8432352959559200e-003
    -1.0050125627355515e+000 7.8433115526509046e-003
    -1.0066890377827435e+000 7.8444556700504268e-003
    -9.8183168280268651e-001 7.8550269816277142e-003
    -9.4643256344886917e-001 7.8494193041709383e-003
    -9.6076892283052284e-001 7.8624238484207229e-003
    -1.0726311735207972e+000 7.8484149082870963e-003
    -1.0373642405028471e+000 8.4010176375212270e-003
    -6.8730825546970542e-001 1.3703069761070826e-002
    -3.1448545101657543e-001 6.8037050819557673e-002
    -5.7831493196624020e-002 4.8190112971708263e-002
    -8.1923192051904042e-002 8.3616570605881436e-003
    -6.9652603314699235e-001 8.1824852384636323e-003
    -1.3405979252567854e+000 9.2718871322247133e-003
    -1.8126539343499315e+000 8.1782705808820088e-003
    -1.3381695237968187e+000 7.8452732033732243e-003
    -9.7693264565005078e-001 7.9288803826057658e-003
    -8.6266218562750729e-001 7.9433367468797773e-003
    -8.5241932464953607e-001 7.9636817804982704e-003
    -8.3937205966451778e-001 7.8652895774729437e-003
    -9.2761258954321535e-001 7.9369960147776496e-003
    -1.1671352639730534e+000 8.3293736645720061e-003
    -1.4195335067846842e+000 7.9192753272876240e-003
    -1.1493838228142075e+000 8.4302866341178662e-003
    -6.8074564570501772e-001 1.3999713223186770e-002
    -3.0641872317250041e-001 4.3138752801327590e-002
    -9.1669849702821132e-002 6.8037050819557673e-002
    -5.7831493196624020e-002 8.8768272832504096e-003
    -6.0173792946333704e-001 8.0432327830710498e-003
    -1.2528340463731042e+000 8.9404069134814326e-003
    -1.6870547845739463e+000 7.8750962432236563e-003
    -1.0944415004020076e+000 8.5712370545239242e-003
    -6.5205685892290755e-001 1.0359852259946277e-002
    -4.5790546988962549e-001 1.0908249034353132e-002
    -4.2419453432340742e-001 1.0932801994818483e-002
    -4.2282611714960483e-001 9.1931580891596917e-003
    -5.6066772896262662e-001 7.8557602560369606e-003
    -9.4485156479484544e-001 8.1824852384636323e-003
    -1.3405979252567854e+000 7.9543929856801549e-003
    -1.1832159566199230e+000 8.7261106828609141e-003
    -6.2489860127637720e-001 1.6845550880676033e-002
    -2.4699788978791232e-001 3.9413247657224003e-002
    -1.0050378152592120e-001 6.0879644927355384e-002
    -6.4684622735315098e-002 9.0869673120911217e-003
    -5.7350122448435092e-001 8.0048684404679018e-003
    -1.2247448713915889e+000 8.7992549528691892e-003
    -1.6305019427666609e+000 7.8895703299222599e-003
    -8.9694552688303697e-001 9.5456555986286277e-003
    -5.2334056819481456e-001 1.2140988830627655e-002
    -3.6635433796418948e-001 1.3071895424836602e-002
    -3.3333333333333337e-001 1.3646316552327920e-002
    -3.1608280714329545e-001 1.1692760959901648e-002
    -3.8513031411676052e-001 8.1658130988741806e-003
    -7.5135687776016058e-001 8.0048684404679018e-003
    -1.2247448713915889e+000 8.0309486289166249e-003
    -1.2440943294770466e+000 8.4243543653571059e-003
    -6.8205679030522470e-001 1.6200714650802268e-002
    -2.5819888974716115e-001 3.9413247657224003e-002
    -1.0050378152592120e-001 6.0879644927355384e-002
    -6.4684622735315098e-002 9.0665711903318413e-003
    -5.7606726700570943e-001 7.9860462327675207e-003
    -1.2099858298421888e+000 8.6645988496644299e-003
    -1.5742493034984062e+000 8.0932144688217952e-003
    -7.7735324973033337e-001 9.5591363768727667e-003
    -5.2204833538196393e-001 1.1629179798688789e-002
    -3.8797851103375469e-001 1.2837540507679501e-002
    -3.4099716973523675e-001 1.2883210041339261e-002
    -3.3947258458928953e-001 1.1033304816142725e-002
    -4.1733475467059861e-001 8.6277505602655180e-003
    -6.4168894791974795e-001 7.8543157922048735e-003
    -1.0548346108931146e+000 8.0792710140228340e-003
    -1.2773327473170100e+000 8.1417258964538823e-003
    -7.5952125456544151e-001 1.4253772038904964e-002
    -2.9986372926846322e-001 3.4190481983476254e-002
    -1.1624763874381926e-001 6.0879644927355384e-002
    -6.4684622735315098e-002 8.9037179036159410e-003
    -5.9788465722781048e-001 7.9912952280878028e-003
    -1.2141774187175904e+000 8.4184615433647685e-003
    -1.4633390777753807e+000 8.0827143533052787e-003
    -7.8149744403520416e-001 9.2264399342756806e-003
    -5.5681565003353739e-001 1.0399543197618169e-002
    -4.5524000347573534e-001 1.1660804577452012e-002
    -3.8655567174253419e-001 1.1416665162382387e-002
    -3.9787078090902617e-001 1.0013172936421247e-002
    -4.8301042952061984e-001 8.8076503893298793e-003
    -6.1202160642855996e-001 7.9192753272876257e-003
    -8.7003138564413673e-001 7.9085321931157866e-003
    -1.1377412126321200e+000 8.0758558555343186e-003
    -7.8426655177057647e-001 1.3170019911850883e-002
    -3.3023824928966089e-001 3.3183656001021224e-002
    -1.1987595730368916e-001 7.8529595972040608e-002
    -5.0062617432175882e-002 9.0167549924259679e-003
    -5.8248237251071744e-001 7.9783640886981737e-003
    -1.2037356818823370e+000 8.3895817507349726e-003
    -1.4494051172113507e+000 8.1039719026721364e-003
    -7.7322021916370520e-001 9.2152705168007318e-003
    -5.5809982067374431e-001 9.6994283371548851e-003
    -5.0909874484641704e-001 1.0543807993608156e-002
    -4.4587128052970493e-001 9.9465664219404813e-003
    -4.8825207923700337e-001 9.2152705168007318e-003
    -5.5809982067374431e-001 9.0564748108176597e-003
    -5.7735026918962584e-001 8.2263756481319797e-003
    -7.3245592177055108e-001 7.8431372549019607e-003 -1.
    8.0896859783564385e-003 -7.7873339649153672e-001
    1.2617621651099262e-002 -3.4856179811161714e-001
    3.1415162920591315e-002 -1.2683872029188742e-001
    9.6138570170051410e-002 -4.0858892322271849e-002
    9.2376856606106242e-003 -5.5553132141497141e-001
    7.9613223517127213e-003 -1.1893220428164841e+000
    8.3782986660102966e-003 -1.4438950463535496e+000
    8.1456646144326267e-003 -7.5815773398831676e-001
    9.1713434176134492e-003 -5.6323512763418593e-001
    9.3067989156062191e-003 -5.4782145116987102e-001
    9.6994283371548851e-003 -5.0909874484641704e-001
    9.1931580891596917e-003 -5.6066772896262662e-001
    8.9037179036159410e-003 -5.9788465722781048e-001
    9.1498216649245779e-003 -5.6580209720477359e-001
    8.5643783199879833e-003 -6.5335501108608318e-001
    7.8881403841891146e-003 -8.9845918975914019e-001
    8.1576622351740187e-003 -7.5407390286389830e-001
    1.2067793233267914e-002 -3.6927447293799820e-001
    2.8601506978828621e-002 -1.3978986535902488e-001
    7.8529595972040608e-002 -5.0062617432175882e-002
    9.5322708053058574e-003 -5.2463235444702117e-001
    7.9349309297942310e-003 -1.1651454204036604e+000
    8.3839212086167583e-003 -1.4466456045468217e+000
    8.2263756481319797e-003 -7.3245592177055108e-001
    9.2950816086250915e-003 -5.4910694602952725e-001
    9.2041767763878356e-003 -5.5938384358497073e-001
    9.0265861170222544e-003 -5.8119931360977040e-001
    8.6872909850313866e-003 -6.3134887233715598e-001
    8.8076503893298793e-003 -6.1202160642855996e-001
    9.3666140485070895e-003 -5.4139029200370969e-001
    8.9591171475898058e-003 -5.9018184209747848e-001
    7.8939981127027232e-003 -8.9241648664104278e-001
    8.1658130988741806e-003 -7.5135687776016058e-001
    1.2178211977271879e-002 -3.6488967636900865e-001
    2.8601506978828621e-002 -1.3978986535902488e-001
    7.8529595972040608e-002 -5.0062617432175882e-002
    9.6562668431543919e-003 -5.1298917604257710e-001
    7.8986336213011030e-003 -1.1262464214772712e+000
    8.4010176375212270e-003 -1.4549512420982076e+000
    8.2309421286536951e-003 -7.3111343457766453e-001
    9.7435497349014251e-003 -5.0520305375463892e-001
    9.3544848296424673e-003 -5.4267705117963361e-001
    8.7500167865473301e-003 -6.2103244142519676e-001
    8.4067933893386682e-003 -6.8599434057003528e-001
    8.7992549528691875e-003 -6.1330807021498235e-001
    9.3304771218185364e-003 -5.4524975680627075e-001
    9.1498216649245779e-003 -5.6580209720477359e-001
    7.8970653054494452e-003 -8.8940698002624374e-001
    8.1996581998876640e-003 -7.4053163117735465e-001
    1.2067793233267914e-002 -3.6927447293799820e-001
    2.9231902399754119e-002 -1.3665914371885049e-001
    9.6138570170051410e-002 -4.0858892322271849e-002
    1.0134835111857601e-002 -4.7380354147934284e-001
    7.8800409709650718e-003 -1.1018267287651911e+000
    8.3616570605881419e-003 -1.4356965173029839e+000
    8.1262702776354490e-003 -7.6498676826090706e-001
    9.5456555986286277e-003 -5.2334056819481456e-001
    9.2264399342756806e-003 -5.5681565003353739e-001
    8.6062113607119628e-003 -6.4557342969540610e-001
    8.3782986660102966e-003 -6.9257111347907607e-001
    8.6423459357109784e-003 -6.3910148194582683e-001
    9.1498216649245779e-003 -5.6580209720477359e-001
    8.9972873921790580e-003 -5.8504861267644326e-001
    7.9051393047681520e-003 -8.8191710368819698e-001
    8.2686687031987040e-003 -7.2040776076618707e-001
    1.2140988830627655e-002 -3.6635433796418948e-001
    2.8601506978828621e-002 -1.3978986535902488e-001
    9.6138570170051410e-002 -4.0858892322271849e-002
    1.0439899373823570e-002 -4.5256963785525178e-001
    7.8510905124228089e-003 -1.0460596721489341e+000
    8.3346629067441082e-003 -1.4222060417495477e+000
    7.8775232941997089e-003 -9.1064169280948626e-001
    8.7743949839645050e-003 -6.1716900718460344e-001
    8.3839212086167583e-003 -6.9125430365045171e-001
    8.0220171189021305e-003 -8.0801767430141702e-001
    7.9521326292234309e-003 -8.4660392003869955e-001
    8.0249676398224945e-003 -8.0660955989765848e-001
    8.3616570605881436e-003 -6.9652603314699235e-001
    8.2638353010419194e-003 -7.2174271560474867e-001
    7.8673117458151892e-003 -9.2450747153010748e-001
    8.2355414449649077e-003 -7.2977191629195282e-001
    1.2104185011643117e-002 -3.6781592204130520e-001
    2.9907114656501907e-002 -1.3346049915463978e-001
    9.6138570170051410e-002 -4.0858892322271849e-002
    1.0719605401458009e-002 -4.3508198423167693e-001
    7.8447063530980941e-003 -1.0202040612204073e+000
    8.2448391793944510e-003 -1.3753422356127369e+000
    7.8438345156274254e-003 -1.0134234194190632e+000
    8.2309421286536951e-003 -7.3111343457766453e-001
    8.0133244551847688e-003 -8.1225060008866612e-001
    7.8470726767882661e-003 -9.6881921035797136e-001
    7.8447063530980941e-003 -1.0202040612204073e+000
    7.8462872997665505e-003 -1.0287463435906419e+000
    7.9349309297942310e-003 -8.5826196669386845e-001
    7.9068240421813381e-003 -8.8042485709689200e-001
    7.8436710784602487e-003 -9.8840060177447209e-001
    8.1496334958706743e-003 -7.5679534051029052e-001
    1.1566904200986716e-002 -3.9081677569083867e-001
    2.9907114656501907e-002 -1.3346049915463978e-001
    7.8529595972040608e-002 -5.0062617432175882e-002
    1.0812236576002653e-002 -4.2965125093890538e-001
    7.8440197567681193e-003 -1.0151142067727541e+000
    8.1953175417051362e-003 -1.3479248526719523e+000
    7.8550269816277142e-003 -1.0565993168661978e+000
    7.9328899988105675e-003 -8.5972695362109530e-001
    7.8694234983007431e-003 -9.2141112385728829e-001
    7.8633567878506581e-003 -1.0744294130999441e+000
    7.9308731675892634e-003 -1.1611789676496629e+000
    7.9211486592821248e-003 -1.1513389576266568e+000
    7.8462872997665505e-003 -9.7205691784982851e-001
    7.8529595972040601e-003 -9.5118973121134176e-001
    7.8442268065158707e-003 -9.8346993586692733e-001
    8.1996581998876640e-003 -7.4053163117735465e-001
    1.1330071988688557e-002 -4.0207592969858513e-001
    2.8601506978828621e-002 -1.3978986535902488e-001
    7.8529595972040608e-002 -5.0062617432175882e-002
    1.1218513710291516e-002 -4.0765274194771794e-001
    7.8435294411789216e-003 -9.9004950371280931e-001
    8.1996581998876640e-003 -1.3503812097939996e+000
    7.8499544115604621e-003 -1.0425720702853738e+000
    7.9939582112506496e-003 -8.2217860202712922e-001
    7.9120189146346335e-003 -8.7595939408648693e-001
    7.8489061407070824e-003 -9.6237400417744712e-001
    7.8431481481708431e-003 -1.0016680578732688e+000
    7.8444556700504285e-003 -1.0185045130601726e+000
    7.8662894766847371e-003 -9.2605892864271067e-001
    7.8881403841891146e-003 -8.9845918975914019e-001
    7.8494193041709383e-003 -9.6076892283052284e-001
    8.1953175417051362e-003 -7.4188112046285748e-001
    1.0674503300319330e-002 -4.3778806660434655e-001
    2.8601506978828621e-002 -1.3978986535902488e-001
    9.6138570170051410e-002 -4.0858892322271849e-002
    1.1725054307373540e-002 -3.8370240220879914e-001
    7.8459274140990441e-003 -9.7367959208969135e-001
    8.1658130988741806e-003 -1.3309254624527556e+000
    7.8462872997665505e-003 -9.7205691784982851e-001
    8.3293736645720044e-003 -7.0445677768117732e-001
    8.3782986660102966e-003 -6.9257111347907607e-001
    8.2686687031987040e-003 -7.2040776076618707e-001
    8.1187203865512661e-003 -7.6772649655325409e-001
    8.0758558555343186e-003 -7.8426655177057647e-001
    8.3616570605881436e-003 -6.9652603314699235e-001
    8.2638353010419194e-003 -7.2174271560474867e-001
    7.9051393047681520e-003 -8.8191710368819698e-001
    8.1699346405228763e-003 -7.5000000000000000e-001
    1.0439899373823570e-002 -4.5256963785525178e-001
    2.6442966662701888e-002 -1.5171652122725207e-001
    9.6138570170051410e-002 -4.0858892322271849e-002
    1.2331450097438171e-002 -3.5899934096166874e-001
    7.8505114763130837e-003 -9.5756613732328832e-001
    8.1536326619717769e-003 -1.3237422626711179e+000
    7.8826495314448016e-003 -9.0453403373329100e-001
    8.6949541092994336e-003 -6.3005811214511021e-001
    8.9311439016573381e-003 -5.9403270875898373e-001
    8.9972873921790580e-003 -5.8504861267644326e-001
    8.7580899262052966e-003 -6.1974433840310228e-001
    8.4791911777335402e-003 -6.7028006259983630e-001
    8.8161008439630872e-003 -6.1073538596554289e-001
    8.5991248222791247e-003 -6.4686916475594713e-001
    7.9369960147776496e-003 -8.5679871979524724e-001
    8.1149895204518825e-003 -7.6909813180082720e-001
    1.0320810901329710e-002 -4.6056618647183833e-001
    2.6935208592519310e-002 -1.4881702747366921e-001
    9.6138570170051410e-002 -4.0858892322271849e-002
    1.3120631490092311e-002 -3.3178796880570932e-001
    7.8565156339177808e-003 -9.4327290829725352e-001
    8.1617223391611676e-003 -1.3285243537569591e+000
    7.9543929856801549e-003 -8.4515425472851646e-001
    8.8161008439630872e-003 -6.1073538596554289e-001
    9.4159840120561396e-003 -5.3624028948659719e-001
    9.5456555986286277e-003 -5.2334056819481456e-001
    9.2490083356500004e-003 -5.5424682451382623e-001
    8.8246067000187361e-003 -6.0944940022004401e-001
    8.7662158725502447e-003 -6.1845652980841970e-001
    8.8857320528643608e-003 -6.0045334347230916e-001
    7.9454990046383105e-003 -8.5096294339676304e-001
    8.0792710140228340e-003 -7.8288136125881269e-001
    1.0013172936421247e-002 -4.8301042952061984e-001
    2.6935208592519310e-002 -1.4881702747366921e-001
    7.8529595972040608e-002 -5.0062617432175882e-002
    1.4188769156600639e-002 -3.0151134457776357e-001
    7.8683564108345885e-003 -9.2295820699089726e-001
    8.1496334958706725e-003 -1.3213612009367310e+000
    7.9521326292234309e-003 -8.4660392003869955e-001
    8.7026673112389312e-003 -6.2876771323701275e-001
    9.5189811066204097e-003 -5.2592370614077766e-001
    9.6280120811811035e-003 -5.1558004694724802e-001
    9.4539287132449478e-003 -5.3237436066460608e-001
    8.8857320528643608e-003 -6.0045334347230916e-001
    8.6062113607119628e-003 -6.4557342969540610e-001
    8.6721136745779668e-003 -6.3393150961164935e-001
    7.9269115910442865e-003 -8.6413244981871529e-001
    8.0309486289166267e-003 -8.0379757089669290e-001
    9.7435497349014251e-003 -5.0520305375463892e-001
    2.5536632063155561e-002 -1.5736949508919612e-001
    6.8037050819557673e-002 -5.7831493196624020e-002
    1.5369839248423934e-002 -2.7435163058436723e-001
    7.8895703299222599e-003 -8.9694552688303697e-001
    8.1224806013228765e-003 -1.3048765086025202e+000
    7.8970653054494452e-003 -8.8940698002624374e-001
    8.7500167865473301e-003 -6.2103244142519676e-001
    9.8503973368132113e-003 -4.9609063587525531e-001
    1.0064498688664042e-002 -4.7907013758040845e-001
    9.5727140427076373e-003 -5.2075564392329543e-001
    8.8857320528643608e-003 -6.0045334347230916e-001
    8.5575643229800942e-003 -6.5465367070797720e-001
    8.5241561282647978e-003 -6.6115485969853838e-001
    7.8970653054494452e-003 -8.8940698002624374e-001
    7.9521326292234309e-003 -8.4660392003869955e-001
    9.3911269033607782e-003 -5.3881590608032470e-001
    2.5536632063155561e-002 -1.5736949508919612e-001
    7.8529595972040608e-002 -5.0062617432175882e-002
    1.5907331653232094e-002 -2.6366402215232193e-001
    7.9034779369322340e-003 -8.8341124640060054e-001
    8.1039719026721382e-003 -1.2932926160176899e+000
    7.8606247621301282e-003 -9.3541434669348522e-001
    8.7826276228369308e-003 -6.1588176205143974e-001
    9.8819687871067215e-003 -4.9348081630614188e-001
    1.0522672835293128e-002 -4.4721359549995793e-001
    1.0170845914428591e-002 -4.7116443698590454e-001
    9.0665711903318413e-003 -5.7606726700570943e-001
    8.5575643229800942e-003 -6.5465367070797720e-001
    8.4302866341178662e-003 -6.8074564570501772e-001
    7.8673117458151892e-003 -9.2450747153010748e-001
    7.9085321931157849e-003 -8.7893449661240552e-001
    9.1498216649245779e-003 -5.6580209720477359e-001
    2.3979971778528120e-002 -1.6815955209692846e-001
    7.8529595972040608e-002 -5.0062617432175882e-002
    1.6100935634240001e-002 -2.6003011049297597e-001
    7.9137975764272048e-003 -8.7447463219520616e-001
    8.2263756481319797e-003 -1.3652698685031037e+000
    7.8438345156274254e-003 -1.0134234194190632e+000
    8.6872909850313866e-003 -6.3134887233715598e-001
    9.9630263853145613e-003 -4.8694291458224920e-001
    1.0859808831114204e-002 -4.2692623467317714e-001
    1.0586623934085953e-002 -4.4318254444067318e-001
    9.1605462240448091e-003 -5.6451866105676141e-001
    8.5781407971395277e-003 -6.5075920622299743e-001
    8.2784378611911579e-003 -7.1774056256527341e-001
    7.8466690508077804e-003 -9.7043679485865220e-001
    7.8939981127027232e-003 -8.9241648664104278e-001
    9.0869673120911217e-003 -5.7350122448435092e-001
    2.4341349664775531e-002 -1.6552117772047362e-001
    9.6138570170051410e-002 -4.0858892322271849e-002
    1.5721249524260256e-002 -2.6726124191242434e-001
    7.9051393047681520e-003 -8.8191710368819698e-001
    8.5507947957860712e-003 -1.5244998271537091e+000
    7.8939981127027232e-003 -1.1205530320981514e+000
    8.6062113607119628e-003 -6.4557342969540610e-001
    1.0081876014220916e-002 -4.7775489962389367e-001
    1.0608309295761398e-002 -4.4183608216846221e-001
    1.0399543197618169e-002 -4.5524000347573534e-001
    9.5189811066204097e-003 -5.2592370614077766e-001
    8.5643783199879833e-003 -6.5335501108608318e-001
    8.1496334958706743e-003 -7.5679534051029052e-001
    7.8459274140990458e-003 -1.0270318985055651e+000
    7.8867333674092176e-003 -8.9997486138848437e-001
    9.1931580891596917e-003 -5.6066772896262662e-001
    2.3634821783112370e-002 -1.7076158738298686e-001
    7.8529595972040608e-002 -5.0062617432175882e-002
    1.7201351502216182e-002 -2.4124895481858197e-001
    7.9684754804984128e-003 -8.3649071356532079e-001
    8.5241561282647978e-003 -1.5125049530089851e+000
    8.0827143533052787e-003 -1.2795947160576420e+000
    8.3241205248119031e-003 -7.0578136899748922e-001
    1.0359852259946277e-002 -4.5790546988962549e-001
    1.0543807993608156e-002 -4.4587128052970493e-001
    1.0399543197618169e-002 -4.5524000347573534e-001
    1.0081876014220916e-002 -4.7775489962389367e-001
    8.7909141556168913e-003 -6.1459478590456584e-001
    7.9939582112506496e-003 -8.2217860202712922e-001
    7.8813338742394629e-003 -1.1036822924138088e+000
    7.8750962432236563e-003 -9.1370804162002472e-001
    9.5727140427076373e-003 -5.2075564392329543e-001
    2.5536632063155561e-002 -1.5736949508919612e-001
    9.6138570170051410e-002 -4.0858892322271849e-002
    2.1338414187880125e-002 -1.9044534662683013e-001
    8.1867311957477817e-003 -7.4458320225326080e-001
    8.3453504249741718e-003 -1.4275765070721442e+000
    8.2686687031987040e-003 -1.3881027585494825e+000
    8.0309486289166267e-003 -8.0379757089669290e-001
    1.0501716565665242e-002 -4.4855456881097661e-001
    1.1446109207891457e-002 -3.9646460768834035e-001
    1.0932801994818483e-002 -4.2282611714960483e-001
    1.0719605401458009e-002 -4.3508198423167693e-001
    9.0665711903318413e-003 -5.7606726700570943e-001
    7.9085321931157849e-003 -8.7893449661240552e-001
    7.9411988672822478e-003 -1.1711283029524495e+000
    7.8694234983007431e-003 -9.2141112385728829e-001
    1.0399543197618169e-002 -4.5524000347573534e-001
    2.6935208592519310e-002 -1.4881702747366921e-001
    9.6138570170051410e-002 -4.0858892322271849e-002
    2.2685603971266646e-002 -1.7836556122408401e-001
    8.5307503977886737e-003 -6.5985354326895385e-001
    8.0624750506765874e-003 -1.2661109257706245e+000
    8.4302866341178662e-003 -1.4689774459950382e+000
    7.8565156339177808e-003 -9.4327290829725352e-001
    9.0464455168266129e-003 -5.7863327137002218e-001
    9.8661234932006566e-003 -4.9478609318401290e-001
    9.8192975689282876e-003 -4.9869757528194542e-001
    9.4796738568732278e-003 -5.2979527267600257e-001
    8.4667208431406394e-003 -6.7289263900860230e-001
    7.8494193041709383e-003 -9.6076892283052284e-001
    7.9636817804982704e-003 -1.1913667943625412e+000
    7.8970653054494452e-003 -8.8940698002624374e-001
    1.0419637131132234e-002 -4.5390544252494797e-001
    2.6935208592519310e-002 -1.4881702747366921e-001 1. 0.
    2.2115290689558878e-002 -1.8328047158971919e-001
    8.8331683450913190e-003 -6.0816364055953731e-001
    7.8750962432236563e-003 -1.0944415004020076e+000
    8.2173406088924140e-003 -1.3602780210445280e+000
    7.8787707884665770e-003 -1.0999748867047900e+000
    7.8881403841891146e-003 -8.9845918975914019e-001
    7.8853492433368002e-003 -9.0149255224447966e-001
    7.8536266698487830e-003 -9.4960163471809089e-001
    7.8489061407070824e-003 -9.6237400417744712e-001
    7.8447063530980941e-003 -9.8019605881960692e-001
    7.8924991563632911e-003 -1.1186630991750421e+000
    8.1224806013228765e-003 -1.3048765086025202e+000
    7.8652895774729437e-003 -9.2761258954321535e-001
    9.4539287132449478e-003 -5.3237436066460608e-001
    2.4341349664775531e-002 -1.6552117772047362e-001
    7.8529595972040608e-002 -5.0062617432175882e-002
    2.3634821783112370e-002 -1.7076158738298686e-001
    9.2604086074130568e-003 -5.5296214897015217e-001
    7.8652895774729437e-003 -9.2761258954321535e-001
    7.8881403841891146e-003 -1.1130166082090840e+000
    7.8479455945839171e-003 -9.6559160609361860e-001
    7.8683564108345885e-003 -9.2295820699089726e-001
    7.8431808282498211e-003 -1.0033389074538583e+000
    7.8597585697273761e-003 -1.0672569667868561e+000
    7.8557602560369606e-003 -1.0583673004945795e+000
    7.8489061407070824e-003 -9.6237400417744712e-001
    7.8494193041709383e-003 -9.6076892283052284e-001
    7.8431372549019607e-003 -1. 7.9288803826057658e-003
    -8.6266218562750729e-001 9.3185971867011282e-003
    -5.4653572500002112e-001 2.1587751951448936e-002
    -1.8808328887699885e-001 7.8529595972040608e-002
    -5.0062617432175882e-002 3.0632684936664437e-002
    -1.3018891098082386e-001 1.2104185011643117e-002
    -3.6781592204130520e-001 8.5781407971395277e-003
    -6.5075920622299743e-001 8.3399884325316351e-003
    -7.0181002659753711e-001 8.4184615433647685e-003
    -6.8336861578263508e-001 8.1910085854692526e-003
    -7.4323164152401633e-001 7.9589877849409549e-003
    -8.4225988234137661e-001 7.9002251375037275e-003
    -8.8640526042791823e-001 7.9211486592821265e-003
    -8.6855395049028516e-001 8.1417258964538823e-003
    -7.5952125456544151e-001 8.7826276228369308e-003
    -6.1588176205143974e-001 8.8331683450913190e-003
    -6.0816364055953731e-001 8.9037179036159410e-003
    -5.9788465722781048e-001 1.1475850491663976e-002
    -3.9505615317553233e-001 2.8011204481792715e-002
    -1.4285714285714282e-001 6.0879644927355384e-002
    -6.4684622735315098e-002 5.1495801703337667e-002
    -7.6600005033714780e-002 1.6302567628822859e-002
    -2.5635787596323945e-001 1.1301772896161471e-002
    -4.0347329239296453e-001 1.0030148607271428e-002
    -4.8169788686421033e-001 1.0263433850449533e-002
    -4.6454867465597199e-001 9.8979344584819145e-003
    -4.9217479094801320e-001 9.0972681234870404e-003
    -5.7221816496733480e-001 8.7580899262052966e-003
    -6.1974433840310228e-001 8.8504605747475665e-003
    -6.0559276482710223e-001 9.8503973368132113e-003
    -4.9609063587525531e-001 1.1273749499806328e-002
    -4.0486852891179476e-001 1.1245997757467090e-002
    -4.0626166898849864e-001 1.1007829117604756e-002
    -4.1871030006089094e-001 1.2837540507679501e-002
    -3.4099716973523675e-001 3.0632684936664437e-002
    -1.3018891098082386e-001 1. 0. 1. 0. 1. 0. 1. 0. 1. 0. 1. 0. 1. 0.
    1. 0. 1. 0. 1. 0. 1. 0. 1. 0. 1. 0. 1. 0. 1. 0. 1. 0.</input_scale>
  <output_scale>
    4.2105261824632950e-001 4.9999998882412910e-001
    4.2105261824632950e-001 4.9999998882412910e-001
    4.2105261824632950e-001 4.9999998882412910e-001
    4.2105261824632950e-001 4.9999998882412910e-001
    4.2105261824632950e-001 4.9999998882412910e-001
    4.2105261824632950e-001 4.9999998882412910e-001
    4.2105261824632950e-001 4.9999998882412910e-001
    4.2105261824632950e-001 4.9999998882412910e-001
    4.2105261824632950e-001 4.9999998882412910e-001
    4.2105261824632950e-001 4.9999998882412910e-001
    4.2105261824632950e-001 4.9999998882412910e-001
    4.2105261824632950e-001 4.9999998882412910e-001
    4.2105261824632950e-001 4.9999998882412910e-001
    4.2105261824632950e-001 4.9999998882412910e-001
    4.2105261824632950e-001 4.9999998882412910e-001
    4.2105261824632950e-001 4.9999998882412910e-001
    4.2105261824632950e-001 4.9999998882412910e-001
    4.2105261824632950e-001 4.9999998882412910e-001
    4.2105261824632950e-001 4.9999998882412910e-001
    4.2105261824632950e-001 4.9999998882412910e-001
    4.2105261824632950e-001 4.9999998882412910e-001
    4.2105261824632950e-001 4.9999998882412910e-001
    4.2105261824632950e-001 4.9999998882412910e-001
    4.2105261824632950e-001 4.9999998882412910e-001</output_scale>
  <inv_output_scale>
    2.3750000752043001e+000 -1.1875000110594558e+000
    2.3750000752043001e+000 -1.1875000110594558e+000
    2.3750000752043001e+000 -1.1875000110594558e+000
    2.3750000752043001e+000 -1.1875000110594558e+000
    2.3750000752043001e+000 -1.1875000110594558e+000
    2.3750000752043001e+000 -1.1875000110594558e+000
    2.3750000752043001e+000 -1.1875000110594558e+000
    2.3750000752043001e+000 -1.1875000110594558e+000
    2.3750000752043001e+000 -1.1875000110594558e+000
    2.3750000752043001e+000 -1.1875000110594558e+000
    2.3750000752043001e+000 -1.1875000110594558e+000
    2.3750000752043001e+000 -1.1875000110594558e+000
    2.3750000752043001e+000 -1.1875000110594558e+000
    2.3750000752043001e+000 -1.1875000110594558e+000
    2.3750000752043001e+000 -1.1875000110594558e+000
    2.3750000752043001e+000 -1.1875000110594558e+000
    2.3750000752043001e+000 -1.1875000110594558e+000
    2.3750000752043001e+000 -1.1875000110594558e+000
    2.3750000752043001e+000 -1.1875000110594558e+000
    2.3750000752043001e+000 -1.1875000110594558e+000
    2.3750000752043001e+000 -1.1875000110594558e+000
    2.3750000752043001e+000 -1.1875000110594558e+000
    2.3750000752043001e+000 -1.1875000110594558e+000
    2.3750000752043001e+000 -1.1875000110594558e+000</inv_output_scale>
  <weights>
    <_>
      -8.6126074062014646e-001 -3.0376649191946753e-001
      1.5559982679410586e-001 3.3534866128892959e-001
      -5.9637654526670425e-001 7.8865926823718924e-001
      -2.4161623892926665e-001 -1.4193266707449619e-002
      6.6532662269756793e-002 -1.8023407017254583e-001
      7.3879102439110866e-001 -3.0574238984504487e-001
      -5.9697827511877311e-001 2.0775358854623491e-001
      -6.4082494779993213e-002 -7.3696978021664847e-002
      6.7131654358916965e-002 4.4877013140537753e-001
      -1.6646389486047890e-002 3.7522419866187173e-001
      -5.2096058222723363e-001 -3.7362573532215462e-002
      -7.3170741960719876e-001 -5.0033004983243839e-003
      4.7161328197965695e-002 -3.6830204825947815e-001
      5.9448756238810296e-001 2.8726570159088904e-001
      -9.4444675405647868e-002 -3.8232935110968730e-001
      -7.5871302585764508e-002 6.7287938614663845e-001
      8.9403605051593893e-002 -6.9590752777838205e-001
      2.0849467988199691e-001 1.4979638628510220e-001
      1.7649446806546343e-001 -1.5144015264656094e-002
      1.3000332629905278e-001 -1.1360817421860335e-001
      -4.0094552447643755e-001 5.1608658658253714e-001
      1.0585798521495249e-001 -5.2663121985288330e-001
      -8.4963682905165192e-002 2.9635903365851585e-001
      6.9105842123745009e-001 -1.9760537874224310e-001
      6.7598995621463390e-002 -4.9374302398516606e-001
      2.0568810960963993e-001 -1.0390964740507511e-001
      -7.9856539970695251e-002 -2.7795054566575141e-002
      1.7290778966423528e-001 -5.4385701296050049e-001
      -6.6888578112983399e-001 -1.9850295955299582e-001
      1.4139978258142819e-001 2.4633416918010689e-001
      2.6499283865142292e-001 -1.8520850926374219e-001
      -1.7340351629999997e-002 3.2922376120285135e-001
      1.4777750592337854e-001 1.1676406195973887e-001
      -3.2533551787942344e-001 7.6884804441227700e-003
      5.0831578939448385e-001 6.5227809966272343e-001
      5.0007975308380781e-001 3.1045086154605728e-001
      -2.5651183800877864e-001 -8.1228043728156604e-002
      1.8435199187888551e-001 -5.4547967231635297e-001
      3.6675715149353300e-001 4.8996693062629854e-001
      9.1120861924231633e-002 3.6428187287816055e-001
      3.0268860846629938e-002 2.5686343744063528e-001
      2.4227910097264271e-001 -2.5206379397075029e-001
      -6.3675857775605693e-001 3.1317629115047801e-001
      -4.8928279189329828e-002 1.4170756673119442e-001
      -2.4350231227046151e-001 1.7812697205731207e-001
      7.9048083059715474e-002 1.0014467394257367e+000
      -8.0598126254938882e-002 -4.1085406360418814e-001
      4.8892781786263295e-001 1.4485681029020628e-001
      3.3960649591125985e-001 5.5854599946242234e-001
      -4.5113276946820893e-002 -7.9856749801665794e-002
      3.1021493880311818e-001 -3.9283570892271996e-001
      2.0346747995226031e-001 2.4563329682251292e-001
      -1.0688585215711592e+000 -9.0497869782001264e-002
      9.9722240476648356e-003 5.0642890284927544e-001
      1.0372905390678888e-001 -2.0274550330664556e-001
      3.4694278966357534e-001 9.4849206394610863e-002
      1.6776365319882269e-001 -4.1494509966276051e-002
      1.5895375068634138e-001 -7.0295108263739262e-002
      1.5387506560267336e-001 5.1498474112523978e+000
      9.1932004379056062e-002 5.3628189945751004e-001
      4.9526398403694377e-001 -3.1156751719698927e-001
      6.3479871405660171e-001 -6.5231392547540268e-001
      -3.3291731066905589e-001 1.2488189263292150e-001
      6.5571663434642029e-003 8.4789135655765480e-001
      -5.6574393060412986e-001 7.6441425045597797e-002
      3.3904150358404395e-001 1.6381103971560582e-001
      -3.4502726349071816e-001 4.5737080815066590e-002
      5.9438585621871309e-001 -4.6960914257051389e-001
      -4.9792227360632457e-001 -5.4802511302405188e-001
      -1.0419519766559443e-001 -2.7268001744000142e-001
      -4.5755658160550972e-001 -6.0230640344111586e-001
      -6.6475400469164458e-001 4.0597339953350586e-001
      5.8678900776568599e-001 2.8489207268806022e-001
      -3.4110306996855944e-001 -6.9560919992623460e-001
      6.8114204691811342e-001 -3.3168743820114843e-001
      2.6798192252132674e-001 2.0607111731329699e-002
      -2.8031989100038172e-002 3.4612867880499498e-001
      -2.3119789858106482e-001 -2.1152343743815513e-001
      -2.8910121097340119e-001 -1.1715338021788069e+000
      6.7403298429847680e-001 3.3588717937561985e-001
      -1.1689055223359628e+000 -5.0880463217604768e-002
      6.8419930084921576e-001 5.9183097271883012e-001
      5.8274180541409826e-001 -1.3464024358530549e-001
      -6.7426313063634141e-002 5.4750520187170915e-001
      3.0594312341260943e-001 -3.2346114076790605e-001
      -7.3257442068440526e-001 7.5619364768391406e-001
      -8.3649151473791816e-001 -7.3929347610024743e-001
      -2.2441760333554531e-001 4.2074223611597938e-001
      5.4384053089390560e-001 -1.1285331718818106e-001
      -3.6086170632642378e-001 2.8867917672086246e-001
      7.5123367028953425e-001 5.4097471380010786e-001
      3.7822158953371848e-002 2.0446900544928584e-001
      1.2265807951119520e-001 5.9359653117387778e-001
      7.8605892588120385e-001 3.0356280737294805e-001
      -1.0712937813621332e-001 -4.9717496871845690e-001
      4.0597719261230997e-001 1.8260403179515439e-001
      -3.0912756289169163e-001 2.9795392927159625e-001
      8.6890405665290060e-001 2.4252008927769772e-001
      5.1058348933092268e-001 1.4430988070780407e-001
      2.3600287806834497e-001 4.7806212032394685e-001
      1.7482185803119690e-001 -3.3124883815674033e-001
      9.1425908636470613e-002 -6.2742978872432437e-002
      1.4958677044799562e-001 -2.0421517312162774e-001
      1.8739575036905845e-001 -4.2408071570145034e-002
      5.8266208218768800e-001 3.3013188944319545e-002
      -1.6079841019605426e-001 4.0743206917517399e-001
      1.4510306161010697e-001 3.6534402724727250e-001
      5.6848180187657338e-001 -3.2743819974258592e-001
      -1.9287128218495395e-001 -5.6916276590617632e-001
      -2.1799825632573200e-001 8.4208383871822068e-001
      6.0224058813261727e-001 -2.8311882916681474e-001
      8.5465321335354894e-002 -4.9984458682819438e-001
      2.5124222936629753e-001 2.0672504281516613e-001
      -6.1259138799650326e-001 2.6036681676781132e-001
      -2.0746063022013475e-001 7.2901634877729105e-002
      -8.0399266092400598e-002 4.1642701647481950e-001
      7.2905546294073406e-002 -1.3957848824492744e-001
      7.1769265408235983e+000 2.9079887871096100e-002
      6.0619135278781300e-001 3.7002862132350811e-001
      -6.5890302426381797e-001 6.1434131328753638e-001
      -3.1222132946829351e-001 -5.8448089166969619e-001
      -2.6286725396048483e-002 4.3939549883932144e-001
      6.5121609570987382e-001 -5.2161908425958348e-001
      -4.1524136000002898e-001 4.5505358335183134e-002
      1.7927434956376717e-001 4.2866943745824698e-002
      1.7205205958543415e-001 -1.8143268313738034e-001
      -2.6048572635466521e-001 2.7326213035801922e-001
      -1.0222289172123025e+000 1.2107247735986103e-001
      -5.5248060713665026e-001 -9.5258339468892644e-002
      -6.6722865470446391e-001 -8.3271329086128409e-001
      -2.2006808776513603e-001 4.9003492341902205e-001
      1.6180877644750255e-001 -1.4905641174178147e-001
      -1.2670146539227938e+000 4.5847446715337103e-001
      5.9319783376066373e-002 1.9843260466089713e-002
      -4.1234188620661844e-001 -6.5574407942779259e-002
      8.7168644350286084e-001 -5.7336122901777295e-002
      -2.8706257460801266e-001 8.4665538511660343e-001
      -8.8296048944855121e-001 5.7812014928366273e-001
      -2.3390309267825538e-001 -7.8202347636863168e-001
      2.8328711804746093e-001 2.1296697876809606e-001
      5.9751575307595606e-001 -5.8377479296309798e-001
      4.2248366990799320e-002 8.1649221580556486e-001
      2.4343513238983269e-001 4.9960244536479409e-001
      -5.5891773320683702e-001 -9.3250588734868212e-001
      5.6446420171572076e-001 -1.0849561882308045e+000
      -1.6219473230334662e+000 -1.1371231078913469e-001
      1.5590570131460149e-001 6.4088865876072365e-001
      -3.3018999582555592e-001 -6.7491214543879974e-001
      -2.3171886146554521e-002 9.5615046361819045e-001
      2.4726353747269023e-001 -1.0281665040570630e-001
      3.8113176443058661e-001 1.7699458494692799e-001
      5.9122002065387946e-001 1.4075454875123148e+000
      6.9018900357695889e-001 9.2753792789737444e-002
      -6.2734210626895104e-001 1.0694403972834696e+000
      1.5873516860315537e-001 1.9660102212581864e-002
      3.9849572910200326e-001 2.6165480192227286e-001
      3.0114118941303963e-001 8.7466269105883399e-001
      4.0603133713655326e-001 8.1654331822907700e-001
      5.7762043128145091e-001 -6.0142654172704157e-001
      -6.2105713182095279e-001 -1.7802189887410488e-001
      -3.9159652171651832e-001 -3.7986969018293493e-001
      -2.2719541686681860e-001 -8.7589584702070511e-002
      3.3477964796307463e-001 9.1585163369998901e-001
      -2.4014366857269420e-001 5.2146172173428562e-001
      4.9436242784050466e-001 1.5860116964888503e-002
      7.6038595770949946e-001 3.4764327288604391e-001
      -1.8744936903577533e-001 1.4415333890473303e-001
      -2.1737482150510132e-001 -1.0390283883934652e-001
      4.3294221792213966e-001 5.6408569015766696e-001
      8.9510657289120707e-002 -2.2555833767884975e-002
      -4.6461449179818837e-001 2.9219180305359477e-001
      1.1137680336002254e-001 -7.1400814425462644e-001
      -7.6129900270160436e-002 4.9253960109647424e-003
      1.5185747159320387e-001 -2.9909003599031625e-001
      9.3419767995101488e-001 -2.6278610924619972e-001
      1.5734760133710439e-002 2.9014715780137004e+000
      1.6214990453201789e-001 1.3296774724675745e-001
      -4.5001075013491598e-001 -1.5262054753729526e-001
      5.3584924531483343e-002 5.2552969912949632e-001
      -7.1075883571353360e-001 5.3317816827549236e-001
      3.2780863744500333e-001 3.5132782059305007e-001
      -1.3782844696423036e-001 -4.9890727567643861e-001
      -1.8851380034130377e-001 3.5441916287322506e-001
      3.1330028249868663e-002 4.6724105904244950e-001
      -2.9440560387597586e-001 -3.1877500683207904e-001
      5.6015432873628224e-001 -9.1008649599994651e-001
      -1.1635647956294461e-002 -8.4172264488460424e-001
      -1.0868211517338483e-001 -1.2700956787299691e+000
      -1.0428741351500785e+000 -4.0923560050771629e-001
      2.3787027511578163e-001 -6.6086201343235684e-001
      -5.0384644975206283e-002 -9.6530725554402708e-001
      7.2576147328827367e-001 3.7623588097146260e-001
      3.4926353855939701e-001 -8.3497376396303369e-001
      1.0133725996595860e-001 1.0852321374559795e+000
      -1.2647437409370293e-001 -6.2588297651272651e-001
      1.0494718812595207e+000 -9.3782009588713977e-001
      1.1618837819047274e+000 -5.2943467586758297e-001
      -6.5013994632099148e-001 2.1864358078426477e-001
      5.0584940577598314e-001 6.0970213399561379e-001
      -5.2999273749022535e-001 1.4582373053285949e-001
      1.1955291780914057e+000 3.3478621437331185e-001
      -4.4555128239148076e-002 -6.3021515357535463e-001
      -2.6471706465482647e-001 2.5055329198220672e-001
      -1.5131344043799784e+000 -1.4725731912699680e+000
      1.4939249624418119e-001 -6.8598262136644594e-001
      3.7906915471399855e-001 -1.6084163000217208e-001
      5.1996416946837432e-001 -5.8893926600102586e-001
      6.4819466412279947e-001 4.0932851335168274e-001
      -9.4940749092295842e-002 6.0304199431257333e-001
      2.5711557880278624e-001 9.0509705251010861e-002
      1.7500240657489143e+000 -1.0721781410337908e-003
      -3.3076512498878448e-002 -5.3258968872602497e-001
      1.0063956416252646e+000 3.5223288107226158e-001
      -8.4827537927264163e-002 4.4009528328610359e-001
      4.5601047012225765e-001 1.7162859197362740e-001
      1.6184704074496374e+000 4.5179322735132249e-001
      3.0802967621040339e-001 3.7637460358769992e-001
      -9.7274932657041391e-001 -7.8014069078490844e-001
      -9.5528984982489268e-002 -7.0803468385906154e-001
      1.0528316613139148e-001 8.2018199630407726e-002
      4.3027941690025395e-001 3.7347848989222232e-001
      -3.6317566143811092e-001 -2.1211953968643174e-001
      1.8423847119260034e-001 4.0947805773498847e-001
      -4.1989118898602779e-001 1.0759410183064519e+000
      4.8572929232267131e-001 -3.5253783233648017e-001
      3.8434154491869266e-001 -3.6858588025885891e-001
      6.1792117937493625e-002 1.0940169592106584e-001
      4.1230685144032231e-001 5.3737299994238219e-001
      2.1010539800898792e-001 -6.0795766188910816e-001
      7.1105979356679783e-001 2.0126750037819532e-001
      -2.4204159023749836e-001 -6.5332939964990788e-001
      -1.4991769403961944e-001 -4.5244617420678174e-002
      -8.9598975087351884e-001 1.1326613435456911e+000
      -4.2373326790531401e-001 1.5419549524927917e-001
      1.9845033136209864e+000 2.5263796168107289e-001
      -4.8673176682352923e-002 -8.2751719609483365e-001
      -1.5131353739321157e-001 -1.2285781037807431e+000
      -3.1875928007020610e-001 -1.5736382932851539e-001
      1.2933643422044676e+000 6.4765216391332614e-001
      3.7797815216094505e-001 -3.4543582007582857e-001
      -1.7282841327068868e-001 1.3509435414924836e-001
      7.7299966475964943e-001 5.4354720952744989e-002
      3.6043679594273098e-002 -3.2577350897678142e-001
      -5.6294281481567385e-002 3.5454020470591996e-001
      -6.2033354971967569e-001 -3.8383169121912676e-002
      -4.5811214351783236e-001 -7.9046054030795732e-002
      -1.4404739809427110e+000 -3.7141699327154010e-001
      -2.4264084855862247e-001 8.6579128826831178e-002
      -6.5106865531660085e-001 -3.0721085971904222e-001
      -3.4822095448394724e-001 -4.3416924920139727e-001
      5.9628914534518740e-001 5.7851747870436165e-001
      -5.7549691023147209e-001 8.6536617311140873e-001
      5.1635402327401125e-001 -5.8510010846050031e-001
      -4.4544541272432320e-001 -1.0097269517366488e-001
      -8.8723315243840384e-001 1.0801582569839059e+000
      -5.7375514947498030e-001 -3.5040715782558662e-001
      4.2661992754253286e-001 -1.5205040021736288e-001
      3.7503407432302394e-001 -1.1885657601071384e-001
      -2.8434950004748723e-002 1.1907863968234405e+000
      1.0762801109289815e+000 4.5918166316850709e-002
      -5.2372598545147975e-001 5.4808956011740406e-001
      -2.7289417544998518e-001 -1.3006852754727116e+000
      -1.0357333916865339e+000 -6.5965243676169558e-002
      -7.9798678805964662e-001 -6.3010430417045860e-001
      3.7542071269936239e-001 -4.5025689630140121e-002
      -8.0881421205431625e-001 -9.4838286088308588e-001
      -6.6717725773699416e-002 -6.8256121623137900e-003
      7.2332049195038073e-001 6.8834364158328576e-001
      -5.5983523695301596e-001 7.7004083763915110e-001
      3.5919632602054885e-001 1.1660892397308376e-001
      -6.6348917750492331e-001 -6.7675338190642809e-002
      7.0805991513581090e-001 -7.0304854198082897e-002
      5.4683770901496176e-001 1.7783306282698016e-001
      -4.6872910281906943e-001 9.4827777520393552e-001
      4.0729488937985914e-001 3.8603903341137332e-003
      3.0148938178098250e-001 -7.1696735257551691e-001
      -7.9176771398166834e-001 4.7813892615988518e-001
      -2.0445542204364045e-001 3.7376990746145383e-001
      2.6252088667605616e-001 3.1606428755847882e-001
      2.2720612668408507e-001 2.8397977924640772e-001
      3.9111777345524831e-002 1.1708016041411284e-001
      4.1235910039758616e-001 3.0742375425551050e-001
      2.6515647116459590e-001 3.7812988631189415e-001
      -3.9820319098790091e-001 8.6248578100786247e-002
      -6.0000784139199559e-001 -3.7038978216690716e-001
      -8.4645834756773161e-002 1.8762702603530379e-001
      5.4959589227289563e-001 1.2648696659644987e-001
      -4.4742234954543364e-001 2.8071912029204610e-001
      2.7471121221104944e-001 -1.3176370414648828e-001
      -9.6062318764816468e-001 -8.9216713247588508e-001
      -3.6541934817104671e-001 8.2538335214491471e-002
      -1.3361779462645229e-001 6.2585213720919144e-002
      -3.8318960239446892e-001 3.1661282439225626e+000
      -2.3305694862965953e-001 -3.7348850863747687e-002
      -1.1527419808611243e+000 6.8836129793267434e-002
      -6.5553522715793300e-001 -1.1984845339456861e-001
      5.6554914177074533e-001 8.4338886130283119e-001
      3.5606279774007249e-001 2.5311405160342432e-001
      -1.3228964550379751e-001 -7.3200112695082431e-001
      5.2875815308885477e-001 4.3417536006734098e-001
      1.3783533917981286e-001 5.6839723525203834e-004
      -4.0237691401771615e-002 4.1026188273978415e-001
      9.0040480509124132e-001 -4.7093082238182302e-002
      -1.1160451638870247e-001 -7.3823374164541067e-001
      -4.1856889071854836e-001 -1.6057991062849475e+000
      -6.1956555189694895e-001 6.0351166834801484e-003
      -2.1313655617570237e-001 -4.6186355347325747e-001
      -1.0295030929813815e+000 -4.9060616826979031e-001
      -2.4580213151740293e-001 1.1430263785798003e-001
      6.1166447157417680e-001 -4.7610802542299541e-001
      4.5721318963770508e-001 4.4965069771378874e-001
      -9.3801677423278729e-001 -4.1911495281635569e-001
      1.1306211695508560e-001 -9.6342217763823568e-001
      1.0235268792989940e+000 -7.2001321704003707e-001
      -2.5477055073279437e-001 1.0657446528617701e-001
      -3.5348736461324948e-001 5.5964968607398513e-001
      -1.6950583888949300e-001 -1.3575234184605348e-001
      3.8983493872284053e-001 1.4100210412602849e+000
      -1.3281976679087173e-001 -7.1419816246472045e-001
      1.2075160018996380e-001 -6.0799550759538645e-001
      -1.0226755091076416e+000 -7.7344957066861320e-001
      -1.0801807024516595e-001 -1.1409835796556889e+000
      -1.3469441140356724e+000 2.0114260383664359e-001
      -1.6449290174799117e-001 -1.1007929592624248e+000
      -6.5896697691221318e-001 -1.8816218494404482e-002
      -2.6095473423973937e-002 6.3038127196652816e-001
      5.6542013656369072e-001 -8.6542527290642901e-001
      3.0485515435147786e-001 6.2794259221440152e-001
      1.3615593739150605e-001 -6.1167120135101416e-001
      -8.7908334398681076e-001 5.5019074453203698e-001
      1.3793848744318257e-001 6.6647764164919754e-001
      -3.9929011043104135e-001 -2.7824769236146601e-001
      8.3952451850263843e-002 -2.0766176919398777e-001
      1.1612850007698479e-001 2.5840849388973819e-001
      -1.3151414990548502e+000 -8.5388912073287127e-001
      6.9729982716165384e-001 3.0337850799988364e-001
      -7.9576443996555349e-002 7.4350153604042923e-001
      -6.1806745483822589e-002 -1.0602852874715167e-001
      1.2822021072960672e+000 5.3004448536910131e-001
      4.8010539294013072e-001 2.6790492949342076e-001
      5.9815991746357333e-001 -2.5026454682570687e-001
      1.0864332180507037e+000 3.1067087034606722e-001
      1.0864788620981408e-001 4.7493300631254932e-002
      -8.8423531488469842e-001 -9.6264040521619332e-001
      5.5064215686201094e-003 1.1740643326645601e-001
      -7.2399835188739881e-002 -5.6401074834183595e-001
      3.6029231250341791e-002 2.6213290247134119e-001
      1.7984092852866593e-001 -6.0547815170541996e-001
      -7.9461391094794576e-001 -5.3745774214166975e-001
      -2.9798246958071078e-001 -1.0454832192247925e+000
      5.4737032749844572e-001 -2.1090071488980844e-001
      -2.2998334712064934e+000 -2.9059739079790664e-001
      -1.0614736390799856e-001 -8.3171983304005770e-001
      -4.3969400066650115e-002 -9.1085495940298455e-001
      -4.6905274084099391e-002 4.0128664037222861e-001
      1.2879197897989010e+000 1.0497701707789266e-001
      5.7064539463794139e-001 2.7970898348086670e-001
      -1.1413414679695741e+000 5.6505261145310881e-001
      2.8990558772843844e-001 -5.5754542770665931e-002
      1.7876165787992135e-001 1.3568796715393566e-001
      2.3060914232246096e-001 9.1181245197869809e-001
      -5.6892183093722203e-002 1.5263240537708095e-001
      -7.2285643015513490e-001 -4.4499389593394723e-001
      -1.1841467239557286e+000 -1.3857538305852851e-001
      -1.6829057728681754e-001 -3.8316142063133990e-001
      -4.0218814000068437e-001 -9.2304827147962909e-001
      -4.2165927365512035e-001 -5.1512828467846682e-002
      2.8901503480019727e-002 6.0676875729042457e-001
      -2.3373885097654151e-001 2.7021836816414412e-002
      -9.9413099794192356e-002 -7.0377470435818701e-001
      -1.8553626637245771e-001 1.3223616773143135e-001
      -9.3892634533535746e-001 6.8861206275818920e-001
      -8.4423708970044931e-001 -5.5852261615651055e-001
      -4.4745877165022047e-001 -2.2687328704322549e-001
      -6.8330213681902827e-002 1.4639364521894555e-001
      -4.1185548155540173e-002 1.4335428291934438e-001
      1.2770237398954649e+000 5.1563063808753540e-001
      -5.7218512328237725e-001 5.8446899749392778e-001
      -5.0257162046611992e-001 -4.3549567304937442e-001
      -6.5771596364941098e-001 5.1111075112585468e-002
      -1.0380150819202540e+000 -1.1148642431136164e+000
      1.6564127709172530e-001 1.9589699999398374e-001
      -7.0719286970273154e-001 -3.8731088057470170e-001
      4.0978865181255009e-001 2.6481511485651543e-001
      7.8064455984398162e-001 4.7344450788059544e-001
      -5.2548897101857439e-001 1.7225595884600589e-001
      7.2555534041466829e-001 -4.3978071409754765e-002
      -2.6513152827176578e-001 -1.4924987524724624e+000
      4.3955554792437662e-001 -9.6474920728080074e-002
      5.5856653683956148e-001 -3.0116957729552668e-002
      -4.0152121011963215e-001 -1.4541632870543139e-001
      1.3490442756287871e-001 2.2858603456413770e-001
      1.5431291240268055e-001 -1.2842303850760410e+000
      -2.2577983684074113e-001 4.1292914014078025e-001
      9.1493565116653253e-001 -2.7863025072251962e-001
      6.7179730350583111e-001 1.7404789248145092e-001
      2.6981712515531148e-001 1.6021880328747988e+000
      5.4694812749644206e-001 -6.6244760828144900e-002
      1.2619496856450221e-001 9.7680879867811266e-001
      -3.2935549811325798e-001 9.4039243749425083e-001
      2.0020627886240361e-001 2.0753579509893261e-002
      9.7559402045283947e-002 -3.6002188185866263e-001
      -1.1849377036505373e+000 -3.1088583285603716e-001
      2.1651490006409244e-001 -4.2450748773482018e-002
      -2.0225302518211016e-002 1.2103033185956719e-001
      3.9290271267694181e-002 1.3999736134527480e-001
      -3.2114227986753663e-001 -8.6172864363660373e-001
      -6.2042720050489519e-001 -3.0264659923845255e-001
      -1.2094523856485548e+000 9.2237022843806127e-001
      2.0761709652274957e-001 -1.2692982913747111e+000
      -2.6158974477438318e-001 -8.9771663671313826e-002
      -6.8340674948659985e-001 2.4674864171658437e-001
      -9.1091297876198862e-001 -1.2923627770216395e-001
      4.7323727556758194e-001 1.0292847260370352e+000
      2.5537776104267631e-002 2.3744312340701909e-001
      2.2948786854558884e-001 -1.2870677404838344e+000
      7.1404918026595132e-001 -2.5541281835418950e-001
      6.2559106269248613e-002 2.8637107534589118e-001
      -9.4477858852832608e-002 4.4722164038414031e-001
      5.6084283219377773e-001 1.0418315739998259e-001
      4.2482271012364115e-001 -3.2022747181746039e-002
      -8.0295026621251975e-001 -8.5071290685411893e-001
      1.0936786345820329e-001 -3.3290926874677490e-001
      -1.2203416650420885e-001 -3.4942971346953960e-001
      -7.4718822358836801e-001 -5.7531670743633778e-001
      -7.3164223478987558e-002 -3.8501438351769018e-001
      5.6317118489084772e-001 -3.6366014619838044e-001
      2.7646565668323031e-001 -2.2889694375079814e-001
      -4.6371307901608610e-001 -6.8976318095371844e-002
      -2.5086719325561713e-001 -3.4361096143604380e-001
      7.9901964736928344e-001 -6.3506386129281289e-001
      -4.5172169789000466e-001 -3.8983114958086706e-001
      -4.4379540719632571e-001 -4.2801735128591828e-001
      6.2555587797458967e-001 -1.2422031354318529e-002
      2.2436752270512561e-001 1.1465670331757924e+000
      5.8184333155564105e-001 -2.3735056408991667e-001
      1.3398617655483541e-001 -5.9394565236043018e-001
      2.0805367366065153e-001 -7.4322889603427600e-001
      2.6413323565968067e-001 -5.8279293454481218e-001
      -4.2163568088800507e-001 2.6597207301721609e-001
      5.5910936297477798e-001 -1.4726956617920758e-001
      -3.6017123102505311e-001 3.0457717561827169e-001
      4.6422089860380150e-001 4.2755536694679991e-001
      6.6393287269330181e-001 -3.0815700288514802e-001
      -5.2672500159106594e-001 2.8736812969823566e-001
      -1.9865953028225505e-001 -2.6469240391971505e-001
      -1.1759607403201189e+000 1.9921383957363284e-001
      7.6582071312024366e-002 6.3895630558435479e-001
      -3.1218991550542907e-001 -5.1483649572162538e-001
      8.2451235160712413e-002 5.1332664563441166e-001
      1.0004115160776870e+000 -6.4017682920755575e-002
      -1.0164452135132345e+000 -5.4329831489563418e-001
      3.4929943190909934e-001 9.2782820886798389e-001
      -6.3993134253744177e-001 6.9456920362936225e-001
      3.2183902015062088e-001 4.6807662580141124e-001
      7.1713899435671269e-001 6.4824702599539097e-001
      4.5526312787624423e-001 4.0876708017587793e-001
      4.9370619634712087e-001 -6.7598225944269141e-001
      1.2699532849914190e+000 -1.9556011938800819e-001
      -2.1666419937706938e-001 3.0525732014702084e-001
      -1.1515922962303486e-001 -1.4550794623147616e+000
      -5.7938880409929494e-001 -2.8523569262439374e-002
      -1.4420177435153994e-001 -4.6203595054601518e-002
      1.7517679957926066e-001 2.9328684323549786e-001
      -6.1713022097648444e-002 1.7901974898056133e-001
      -4.9342379098858025e-001 -5.5032340456658846e-001
      -3.9664100130327234e-001 -1.1436839157912322e+000
      5.0246625968165848e-001 3.8904999446044475e-001
      -4.6088276919854749e+000 -4.9464626299164333e-001
      6.5660323815625865e-002 -3.8024242546207265e-001
      4.9959324287706330e-001 -4.8894831369311742e-001
      -6.2615864198014848e-001 3.2133152047143937e-001
      6.3028819735211794e-001 -2.0087052883632942e-001
      7.7735941487343918e-001 1.1904573964044056e-001
      -1.0267399158410857e+000 8.9245745372434582e-001
      -5.4878492993282091e-001 1.6310310640762418e-001
      2.9362443701719954e-001 -2.8123956580957121e-001
      5.3544519342527230e-001 3.7683564769792322e-001
      -6.1660013727848170e-002 2.5107840295257203e-003
      -1.3968058238663797e-001 -1.0621143191181257e+000
      -6.8636542720138527e-001 5.3503210650728228e-001
      -3.9804408395602293e-002 -1.7856493089867234e-001
      -2.2523681818168526e-001 -5.3504645855775490e-001
      -3.3879292993158422e-001 -2.8063260216401292e-002
      -2.3303604732612754e-001 7.6529880577731824e-001
      -1.7526888633739163e-001 2.3436932005378097e-001
      9.5016680246197333e-002 -6.7425393030793604e-002
      -2.4455007322031500e-001 -3.6404465387340140e-001
      -1.0167440254750368e-001 6.8034101164298277e-001
      -3.0384787987065565e-001 -6.0012412064636911e-001
      -2.9800535159176300e-001 -5.4561093949396899e-001
      -7.6370320412714932e-001 3.5089525197431870e-001
      1.1503392902408746e-001 5.0018214059570731e-001
      1.0396781842509422e+000 2.8897195190595265e-001
      -1.2698775451934463e-001 -2.5961664632028919e-001
      -3.1570390923046387e-001 4.9916336528097593e-001
      -5.2990969675312172e-001 -1.5965008832788280e-001
      -4.4948296131110771e-001 -9.0081424091246753e-002
      -2.2266082675838361e-001 1.6303714645318640e-001
      -2.7284629750355888e-001 -6.3546046626647723e-001
      -4.2315939353185555e-001 3.8727079273542536e-001
      3.6180005601800669e-001 7.3450803031972001e-001
      -1.7180646045977441e-001 -9.7596020484048618e-001
      9.2536372028517361e-002 -4.6118893963321089e-001
      4.1547583315021354e-003 -9.2334269535529501e-001
      -4.6723110977091857e-002 -2.6487568428606750e-001
      4.5512274149286969e-001 -4.5586420222405033e-001
      -3.8283809667442043e-001 -4.5596345519072790e-001
      5.0739754279029869e-001 1.1241341644266749e+000
      -9.6406414745135713e-002 -5.8243816804984427e-001
      -7.8467027997138472e-001 2.1638021463089172e-001
      1.0521236012929787e+000 -9.2050228633377162e-001
      6.1584280740457531e-001 3.2512436768117975e-001
      7.6958793750206544e-001 -5.8928433730660069e-002
      8.5943022925724610e-001 9.7500181216781931e-002
      3.7569116807424524e-001 9.1137485301552090e-001
      -7.4082295528024189e-001 1.3776938464434172e+000
      -3.9662938374685330e-001 -4.2653665816845604e-001
      5.6594740667743049e-001 -1.9628392889879986e-001
      -4.8392170613258373e-001 -3.4170513703539346e-001
      -3.4080250849949612e-001 -8.8542154094120543e-002
      -8.3706680189138571e-002 1.4911018447989985e-001
      -7.7935916408658316e-003 1.1701861617068189e-001
      1.9607984530983746e-001 -3.3244147249436556e-001
      -7.1344812171098071e-001 -3.2471957374181737e-001
      -1.2288948688484267e+000 2.5296625387901545e-001
      3.9393516187030780e-001 -7.0699465349846866e+000
      -7.0634675905406319e-001 2.7892889609812323e-002
      -4.1991994481686451e-001 7.3786804581801313e-001
      -5.2942110882218285e-001 -9.1068864971739927e-001
      5.5297687609752610e-001 2.5673919928912281e-001
      -1.9872638100017426e-001 7.3756474117135262e-001
      7.0368952325735187e-002 -6.6259170272840040e-001
      1.1793726783889440e+000 -6.7001259773719635e-001
      -2.5696014746920570e-002 1.9859975086569961e-001
      -1.6795154920273014e-001 5.6611050876848223e-001
      7.6477778643301006e-002 1.8520136742415271e-002
      -9.9130178005469971e-002 -1.3177908849851486e-001
      -1.1329767715515549e+000 -6.8631324862845677e-001
      3.8089797433549011e-001 -8.4110549311012583e-002
      -2.9211133913967735e-001 -4.0579055363589467e-001
      -7.6925185429193665e-001 -4.3678997786749413e-001
      3.4445689155764653e-002 3.4824424272746823e-003
      1.0413737510814340e+000 -2.3527920102357564e-002
      1.6518320086977505e-002 1.8468124179983694e-001
      -7.2429514414436888e-002 -4.9868927741841490e-001
      -5.0113118353278148e-002 1.2875593647211084e-001
      8.7418864837226584e-001 -1.6241794927181023e-002
      -8.0525871838029417e-001 -6.6868822877309464e-001
      -4.4969898199436459e-001 -8.3427657289156665e-001
      3.6955268926598878e-001 7.8951026070610081e-002
      3.1594905893290770e-001 9.8352346818813552e-001
      2.4054968834097420e-001 -1.9826963939635794e-001
      -7.8430583587614033e-001 -3.7587154812322487e-001
      6.1225622034985028e-001 -4.1278308406699454e-001
      -1.7773360037329092e-001 -8.0280484139268204e-001
      1.5050805800580475e-001 -2.9285031263155148e-001
      9.7770379467144786e-002 -5.8445261496474954e-001
      -5.4164722656882314e-001 -4.1225467252488884e-001
      1.2719424521116965e-001 5.2005552586043689e-002
      5.7222344014028503e-001 1.5281024307486066e-001
      -9.4894979819303205e-001 5.9000929016253964e-002
      -5.8582929350593005e-001 3.6044389024768303e-001
      -8.4776878899251029e-001 -9.2805273180730313e-002
      -8.2652341504168253e-002 5.2875489103488771e-001
      -2.0825463419631951e-001 -7.0838709780948317e-001
      -5.4306713311300447e-001 1.5694509583144667e-001
      7.8048934763231692e-001 -4.4072737848418331e-001
      -6.0866340204685865e-001 -6.0562524443225152e-001
      2.9262553150049325e-001 1.1732975337584275e+000
      -8.0569498750413648e-001 1.0741498694555418e+000
      4.6984888565449734e-001 4.0023974087444153e-001
      -6.6691645290128010e-001 8.1726834249220370e-001
      3.4326785614228439e-001 -9.4998554304497135e-002
      1.1486802202752784e+000 -6.0301695349440665e-001
      1.3507998372476973e+000 -2.8846764065747138e-001
      -5.4062183754825266e-001 5.0918678192653533e-001
      -8.0140315318605632e-002 -7.2606517237675450e-001
      -5.1090208713658736e-001 -5.7965174307960965e-001
      -2.5929867978701548e-001 -3.5135325470504780e-001
      -8.5908233372271301e-005 -2.9292845582520634e-003
      -3.4760590946226452e-002 1.6644005240323229e-001
      -3.3660231130004403e-001 -7.4803197354471052e-001
      -5.1325074304112794e-001 -1.2788354712974532e+000
      5.3973511544968233e-001 4.9990041811903502e-001
      -7.1120170215801579e+000 -6.5849416137003169e-001
      1.6259299539114769e-001 -6.0288889531972545e-001
      8.0522883936789869e-001 -4.4890399448689822e-001
      -2.5307767582988899e-001 5.7380206849311510e-001
      3.9982128015887980e-001 4.2900578142289085e-002
      7.0898914452158657e-001 1.5246712034213278e-001
      -6.9625513166036423e-001 1.1076487122123391e+000
      -6.3018309336814093e-001 -8.5704309059481842e-005
      7.7215793284624620e-002 7.4741111715036418e-002
      9.0365241899023863e-001 -5.0382089292153251e-003
      2.4323704318017769e-001 8.7065535017394502e-002
      -3.3844933131485094e-002 -8.4938989653575925e-001
      -9.3641920126533973e-001 5.1209145397606814e-001
      9.5309111827245788e-002 -1.3491552791951519e-001
      -3.1612072815104569e-001 -4.3074677423418689e-001
      -5.5748027614776086e-001 -1.6087892079929843e-002
      -2.1902561345017782e-001 8.7612794753129652e-001
      -3.8728361059320698e-001 2.6786734997352368e-001
      3.3469180431962164e-001 1.1988706006027974e-001
      -5.4745092828846531e-001 -3.3073453629510641e-001
      3.0169166827252974e-001 4.4507903619068934e-001
      -1.8332376446202633e-001 -1.1631026346932187e+000
      -7.7881569529192085e-001 -5.4871487300833055e-001
      -8.1002142730342352e-001 3.0680394964726015e-001
      -2.5172493680720370e-001 1.3652743637267814e-001
      7.2215348931131285e-001 2.9181536244344652e-001
      -4.0720848583875058e-001 -4.0288726279841275e-001
      7.5124608063308132e-002 6.9076133266629802e-001
      -5.2430819128279593e-001 -3.3072617808985549e-001
      -1.0411106639351300e+000 3.4116086312068922e-001
      -3.4744398640732388e-001 2.2998841223538727e-001
      -6.1191534832513750e-001 -8.3300466953748742e-001
      -3.7346449071517618e-001 -8.9213806064752238e-002
      -1.0738387502564372e-002 1.9529954401223829e-001
      7.0713601294597431e-002 -8.2545162513963422e-001
      4.6533124687155376e-002 -3.0286492610679577e-001
      4.9149035345108760e-001 -1.1650495640679259e+000
      -3.9235256479729996e-001 -4.9283195978002389e-002
      7.0431344921317651e-001 -3.8754006759545212e-001
      -5.2993974000252586e-001 -6.3118070015094896e-001
      6.4090299078354659e-002 5.9116258290661328e-001
      -7.3581989222905500e-002 -5.4281714994413754e-001
      -5.1451273714605605e-001 3.3749055416999207e-001
      9.4360165309019883e-001 -9.3497476612864949e-001
      7.3883109532566738e-001 1.4616250821690638e-001
      3.9268901077500212e-001 -1.6970953737830038e-001
      8.1034642614178010e-001 3.1037876270344444e-001
      -1.5812448636676915e-001 4.9513596884974004e-001
      -4.2967197353317066e-001 1.0853415310844139e+000
      -2.2776343790350664e-001 -2.4840146128832746e-001
      7.9813411997318029e-001 -2.0038810465003623e-001
      -8.9144729622113139e-001 -5.8347224261052744e-001
      -5.9739924299991032e-001 -1.3856235599570502e-001
      -1.9913303514957595e-001 -8.2304932934625291e-002
      1.6634113373702261e-001 -5.0491325566315498e-002
      2.9102162311888358e-001 -5.4006189930557769e-001
      -7.7628997774913544e-001 -2.7554097513701220e-001
      -1.4425432464435857e+000 6.1424819432164912e-001
      4.4451239972398021e-001 -4.6975990688229583e+000
      -1.1881343579894075e+000 2.7390612290201716e-001
      -7.5570831832672447e-001 6.5163464258495862e-001
      -5.2382121526084506e-002 -2.4917984343611255e-001
      3.0923683815147818e-001 3.0292467406904433e-001
      4.7436433758999114e-002 5.5353658888821843e-002
      2.6118965392858223e-001 -3.7375525697030676e-001
      9.6134299781682353e-001 -6.5369963581899093e-001
      8.4440967734447966e-002 -2.0628060134584431e-001
      -1.9871442105976724e-002 9.9112989520774608e-001
      -1.6195373983019937e-001 3.3273549095140145e-002
      -1.7038673941641644e-002 3.3411552052017041e-002
      -3.1005192603982845e-001 -4.7194489187319921e-001
      3.6398056647563903e-001 4.4411521518925351e-001
      3.4194373783647952e-001 -1.7502535291785198e-001
      -9.5635429435796379e-002 -2.3566846926201226e-001
      2.8883034437002308e-002 -5.4425345917180401e-001
      1.0539994316839061e+000 -3.7672986706259926e-001
      -9.0540239788655160e-003 -2.9622558132583104e-002
      2.8271446286585650e-001 -4.5826274542892065e-001
      -6.4682649198506148e-001 5.5009923670262462e-001
      -8.4138809300233722e-002 -2.9757713745889797e-001
      -1.0140254390309749e+000 -5.8082163430268263e-001
      -5.1279103076534827e-001 -6.8518106296551473e-001
      2.4164785058267715e-001 -8.5858580535014795e-001
      1.4518088898539841e-001 6.1480904128232650e-001
      -5.7846798897292807e-002 -3.8136689758854242e-001
      -2.4023768715970939e-001 1.2016780378069121e-001
      8.5484489028806376e-001 -1.8848727082733688e-001
      3.4309602573702103e-001 -1.3383408772032892e+000
      2.7640646204594446e-004 -4.1184119431463556e-001
      -2.7909888483226358e-001 -6.7551992996233334e-001
      -8.7283382926558728e-001 -2.4237216355229252e-001
      -1.1401656765524230e-001 -2.0949357107257249e-001
      1.8376512727918573e-001 -2.6940400175346751e-001
      -6.9551897531551665e-001 -1.3677483810693652e-002
      -1.2268835532217602e-001 4.2502766135256947e-001
      -1.3946753898459023e+000 -1.4213109590967393e-001
      -3.0099817741661272e-001 8.4914565977663070e-001
      -5.0320206106582099e-001 -6.5952779610458212e-001
      1.8711145913564214e-001 -5.4445705330287412e-002
      8.6178285915842079e-001 -1.8793405042014761e-003
      -5.8281360479084177e-001 -8.3824947366296865e-001
      2.3100125068439967e-001 1.0184928807618683e+000
      -1.0191774722203182e+000 6.2325966257643672e-001
      -3.7399516782787590e-001 6.9546205626065882e-001
      6.3753351532748331e-002 3.8459621651700915e-001
      5.4086855696094838e-001 -4.8238671546307565e-001
      2.2699649564891075e-001 -8.4719043279227191e-001
      5.0298021674222615e-001 -7.3624326867908063e-001
      -5.2666977980921204e-001 5.9780039701292553e-001
      -3.0358661009034815e-001 -8.0127515335865329e-001
      -2.5792726652737336e-001 -4.9255553044782335e-001
      -4.1786057548208917e-002 -2.7310885434950211e-001
      2.5227594021082184e-001 -1.5370700152589664e-001
      -2.6295737167602057e-001 2.1773678639769828e-001
      -5.0098080289023439e-001 -7.8273351367363053e-001
      -4.7336514012385139e-001 -7.2063501744308611e-001
      4.9647061004653986e-001 4.7175769043067822e-001
      -4.0086878817942173e+000 -1.2625206841920780e-001
      1.8652325371685177e-001 -1.3939904104538972e+000
      9.6882328858423836e-002 2.4734546619414652e-001
      2.6917959497475063e-002 2.4467223675223743e-001
      1.1691976414895121e-001 -2.9111127038018270e-001
      -9.6062973172721680e-002 2.0095711851130363e-001
      -1.3366635845897967e-001 6.4148998444772487e-001
      -3.9777943908918351e-001 9.6250061979380103e-002
      -2.2889947530025814e-001 9.1863911480957378e-002
      5.6665329522583641e-001 -3.2436308959697580e-001
      8.1762612096383719e-002 -8.0626823493320024e-002
      -1.5779789053508028e-001 -4.1265585409608235e-001
      -2.1611466143848770e-001 3.3878252331269004e-001
      -1.2121599300562111e-001 5.4512962223562877e-001
      2.4248171581204744e-001 5.6227854414813039e-002
      -6.0908941547222817e-001 -4.7994700921498218e-001
      -1.7727108244677786e-001 7.5753480726400146e-001
      -7.9535897152039892e-001 4.0713683530392980e-001
      2.7333648983682762e-001 4.9889116732394906e-001
      -3.1515952213771797e-001 -7.8244652196214193e-001
      4.4974284424698430e-001 -4.8594465099375933e-001
      -9.9592437358062016e-002 -8.7160802137752658e-001
      5.4320349479148385e-002 -7.4737379598215425e-001
      -9.1758316913715843e-001 6.2319090162382573e-001
      -9.5438390893290570e-001 1.9841218233856564e-001
      6.7994569555491491e-001 -2.9248591161169563e-001
      -7.0950949976999766e-001 -2.6971683223644675e-002
      -7.5636283132007542e-002 4.5706985211059714e-001
      8.3289464744229200e-002 3.0063992655211097e-001
      -1.4197733273773241e+000 -4.3314660453759601e-001
      1.8369203901768533e-001 -2.0980434274591153e-001
      -2.1226424147963302e-001 -6.6676735238532692e-001
      -7.8352241197434988e-002 -3.0306121861087681e-001
      -3.3216823378459576e-002 4.2702466469592304e-002
      -5.0283564014993343e-001 -9.1514539537048967e-001
      -6.1380147174040589e-001 4.1167006538884743e-001
      5.5950139431864732e-001 -1.0170533963720938e+000
      -4.9438162121175779e-002 -3.2785446066013973e-001
      5.8610800065500612e-001 -7.2685355809929342e-001
      -3.9627770834913179e-001 3.8426517736493154e-001
      -1.8713861813806656e-001 2.8306466341626790e-001
      4.0632477546990597e-001 -8.1199305550019563e-001
      -6.4604172565961682e-001 6.2368714596128927e-001
      5.8279234476379660e-001 -1.1648683861949471e+000
      -1.7696731505665250e-001 -6.4996691464173761e-001
      1.3896999350201393e+000 8.5536892526410238e-002
      1.8102693334415801e-001 1.8619754950300413e-001
      -3.6074698278336415e-001 -4.0130576569054016e-001
      -9.3635132658838327e-001 -3.0226204851144883e-001
      -1.0839008827275540e+000 -3.6576390854415475e-001
      4.7522889513436389e-001 -3.1613921087510000e-001
      -1.5165993967639526e+000 -2.7606725288018230e-001
      -4.0343239812740983e-001 2.3256398036036203e-002
      3.8669960623618257e-002 2.9869628998583631e-001
      -3.0433141540825756e-002 -6.6751788773668252e-001
      4.6428841063926507e-001 -4.7599876329848539e-001
      -7.0788718495002245e-001 -4.1941614043083481e-001
      -6.1296614762202484e-001 4.7688418551414946e-001
      4.5658145686881546e-001 -1.4528703014665703e+000
      5.4013741903440649e-001 1.6985510232231951e-001
      -9.5979884177481112e-001 -1.3416194084920536e+000
      3.7668463956117332e-001 -2.4032569406498411e-001
      -1.6039158771699302e-001 8.9205274001295493e-002
      -8.7473050064553004e-001 4.5294603231379088e-001
      -1.8242284059880981e-001 -6.4502147891945327e-001
      7.4361369291033608e-001 3.2395321932452537e-001
      -8.9287128824744072e-002 -2.7196970855242175e-001
      5.0737414217128729e-001 9.2648757952451277e-001
      -5.9250651970085655e-001 7.1897947999961143e-001
      -5.4295823260814759e-002 -2.8403449848264006e-001
      2.5866687378172715e-001 -1.6437389442395015e-001
      -3.1665286940135551e-001 6.5441190769989921e-001
      5.0455742605811604e-001 1.2578063515297044e+000
      -8.5866714555239032e-001 4.8479918189479482e-001
      -3.6383822585177572e-001 -6.3126852835373204e-001
      1.0601986221326103e+000 1.9567855887137814e-001
      5.9085685095156944e-002 1.2169266138458372e+000
      1.2824376260893122e+000 -3.8506557079902043e-001
      -2.6546589765273704e-001 -4.4310667158043693e-001
      -1.1936912468108936e+000 4.4799070900153287e-001
      2.0726831370491910e-001 9.5050940763312552e-001
      -1.0599143813652119e+000 -2.1816121308647199e-001
      1.6158976204551212e-001 -6.1784680829793415e-001
      -2.3873475385818055e-001 4.5161424165787267e-001
      -1.0774096472968071e+000 -1.3290026776543389e+000
      3.8511732101375665e-002 1.0716304398610997e-001
      3.9630050150160495e-001 1.5281241165971773e-001
      -1.4867763317310678e-001 4.5596292088688310e-002
      2.4752981635457708e-001 2.0927860862029765e-001
      5.2324828979867205e-002 -7.5995465393387640e-001
      8.1137214973730692e-002 -2.6204939792676651e-001
      -1.7446879882098454e-001 5.3994670002250955e-001
      4.2194252903553625e-001 -1.5750322396298050e-001
      -4.8766960700829684e-002 6.5628409072300900e-002
      4.0998339486917101e-001 3.3767433618594334e-001
      4.5964173672221892e-001 1.1134962407817752e-002
      -1.0169672773782241e+000 7.8141935672447893e-001
      4.0472204664074485e-001 -3.4209442664601217e-003
      1.0953080853619430e+000 -6.4457532348478064e-001
      -1.8664371859279189e-001 -8.3083562745334327e-001
      -9.0224619224147873e-001 3.1675510663071904e-001
      -1.6295161298620568e-002 2.5529345485805693e-001
      -1.7462263405114602e+000 -5.3486497948288703e-001
      -2.8474945031597992e-001 1.4700311128001498e+000
      -5.6619918123402924e-001 7.4497130864630445e-001
      6.8742158443039969e-001 -7.3582998251040344e-001
      -8.0051973714589797e-001 -6.2719776516072023e-002
      -1.8286551404523368e-001 -4.7099917062516616e-001
      -3.8191697138322114e-002 -7.1726863158357990e-001
      -9.2862282344020042e-001 -7.9540088297799960e-001
      1.3103714236249625e-001 -4.1422723073772323e-002
      -1.1286674859109337e-001 2.2140778314783366e-001
      2.4277459551853856e-001 4.0328449915832892e-001
      -5.3937262300631383e-001 4.6771879914329917e-001
      -4.6759363881212596e-001 -4.2616831931036830e-001
      3.9411364337276669e-002 -7.1523110733796302e-003
      8.3092336192099336e-001 5.6124642681465875e-001
      5.5390860066582270e+000 6.3311320753631906e-001
      -3.5241264505862291e-001 -1.1954012462328976e+000
      -1.8545685334523250e+000 4.8751631868810730e-001
      -8.8927756401231828e-001 -9.7901681318060166e-002
      4.7068837945459635e-001 -9.8459924043777935e-001
      4.9634433556707536e-001 -4.0351415704460358e-001
      -5.0075581175245520e-001 9.5862068775367104e-001
      3.2937349846508790e-001 3.3001279658143456e-001
      -2.7074491611260026e-001 6.5209937246834049e-001
      1.1342130165267561e+000 -3.7393841961193758e-001
      5.8542126564000896e-001 4.9221544685642304e-001
      -1.9417428121302352e-001 6.1654566389492449e-001
      1.1170561773687555e+000 -6.2448867162084620e-001
      7.9654444457877871e-001 -9.9292582521944756e-002
      1.1222265251851042e+000 1.1043462552177326e-001
      4.4531286252068530e-001 -6.5204576567368044e-001
      1.2293735209304031e-001 1.3015726914424735e+000
      3.8313664661968928e-002 -4.6039817921573623e-001
      1.3552106712014740e+000 1.8693122265942106e+000
      -4.8955735454631694e-001 -4.0104672467416225e-002
      -4.0696959645371145e-001 -6.6811552143857555e-001
      2.5658391476874648e-001 4.3197138101878391e-001
      1.6760909517302660e+000 -7.5158875211384724e-001
      -6.9953220407422939e-002 -4.9745920344558164e-001
      -4.9528351278339336e-002 -3.3866296004042401e-001
      5.0015330669106639e-001 -7.7719497711951979e-001
      -8.4958971427034224e-001 4.4784174147614397e-001
      2.2399138338111632e-001 4.0776275120419964e-001
      -6.2851600170665489e-001 -5.2460430865673674e-002
      5.9617289593955547e-001 4.8913159750241730e-001
      7.7998635011722639e-001 -5.5301956107938766e-001
      -6.4963006625184505e-001 3.6546136390421569e-001
      8.7410286021903094e-001 5.8799269013561521e-002
      4.6817688493802556e-001 3.2284992023925374e-001
      -1.0706832361765045e-001 3.1381797741855573e-002
      -7.1074064598051534e-001 5.5230183202329564e-001
      -3.3286591078562744e-001 1.2779575817476814e+000
      2.1882818363599213e-001 -1.0694643322552393e+000
      1.2155587020818266e-001 8.2290013071026236e-001
      -2.2605589895621343e-002 1.2125898405732110e+000
      -5.7320686950213284e-001 -7.4990219562861382e-001
      -1.4216721518183251e+000 -4.6130508478247574e-002
      7.3065798739310439e-001 -6.5689657138618363e-001
      -2.2179616688722820e-001 -1.4027655335382978e+000
      -8.4488557551171273e-001 5.1564644200983278e-001
      9.6342139018544815e-001 -5.2567244412264658e-001
      1.3179526675854343e+000 -4.8207622210268593e-002
      -1.2502431386829516e+000 -7.5867409269976271e-001
      1.3985477613034085e+000 2.1287868551868183e-001
      3.9402659730749211e-002 4.9679784885771117e-001
      -7.6416028265378522e-001 -4.3567133434044009e-001
      -4.2381433881211761e-001 3.0259157744763437e-002
      -1.5182077189796192e-001 2.0815272552101241e-001
      3.8474073771667305e-001 3.3087796980867135e-001
      3.7306456397614524e-001 -1.6371556555715053e-001
      -6.6033999133456289e-001 -4.7128855152981414e-001
      3.6659602837229247e-003 4.0350647755553737e-001
      -9.6025836508895762e-002 5.6195264089234431e-001
      2.9979001323603338e-001 7.2452399641057816e+000
      9.0557422956652933e-001 -6.4946325824189832e-001
      -1.0575164364057985e+000 -1.4250466751061823e+000
      2.5755756075220287e-001 -4.6639598204798222e-001
      -3.9153406274455382e-001 5.6243597944980306e-001
      -9.1075360953222628e-001 -3.5329157177215897e-001
      -7.3467740930316369e-002 -7.4264213552605496e-001
      8.9318795458320277e-001 2.3172848008626834e-001
      8.1546733657768516e-002 -2.1400482613254956e-001
      6.5971851954595195e-001 1.2364464608199475e+000
      -2.6088512234752664e-001 4.5105835740865512e-002
      5.5252342238573848e-001 3.7307108331849768e-002
      9.5334497817486563e-001 6.3009039690665447e-001
      -5.0580134965625323e-001 2.5895879329673377e-001
      -8.2882956928744522e-001 5.3443125233883648e-001
      -8.7754466093948203e-003 4.2187979360374139e-001
      -1.6724722182572208e-001 7.8704481859349206e-003
      8.8134868620207296e-001 8.1552039795632622e-002
      -2.3623792992800127e-001 1.3869850662489129e+000
      1.8464800074444030e+000 -4.7160930798672401e-001
      3.1646792621060554e-001 -1.1762385344856039e+000
      -2.1297952584234156e-001 1.8630852830128952e-001
      -7.5179304570384506e-002 1.8143458099037542e+000
      -4.6177750020576891e-001 -2.3673601658632423e-001
      -5.9219614926623032e-001 -1.5535950109398861e-001
      -3.9965275539585937e-001 3.7905788428162196e-001
      -6.3414386863921746e-001 1.6972347815943120e-001
      5.7503226123040263e-001 2.6889646474966461e-001
      -1.8085710335233687e-001 -2.7918373807949859e-001
      4.3084084874986509e-002 9.2907741845059355e-001
      9.4000039610343933e-001 7.8401164894627740e-001
      -4.1884998727614192e-001 -4.4180330729390849e-001
      2.2678531858433482e-001 8.4602486509921460e-001
      3.5190137460577031e-001 2.7979143957650882e-001
      8.2718305762175881e-001 -1.1176161617895454e-001
      8.4439113472261379e-002 -1.4592804636484233e+000
      4.6336958916693965e-001 -2.9631078541010847e-001
      2.2517898900667808e+000 1.3703763851025727e-001
      -4.9213179400189988e-001 -3.6310749903394568e-001
      3.5482288424178093e-001 1.8204296588527524e-001
      1.3210463156976475e+000 -6.1767961935334396e-002
      -5.1899366675281455e-001 -7.1223208494232348e-001
      -1.0765414741317918e-002 1.5421783469952186e-001
      -1.1483438378141125e-002 -4.6756735526480055e-002
      -9.6228866870114615e-001 -2.9523132741568742e-001
      2.4213544653414337e-001 1.8624488261299263e-001
      -1.4748751783084841e+000 5.5836926432946499e-001
      -6.7166411787294944e-001 -1.5079410462851093e+000
      -1.0231094308148725e+000 1.6682105272307777e+000
      -6.4712492685307113e-002 1.6385588059475709e-001
      8.1760755699842758e-001 -3.9672414688366203e-001
      -6.3127219378762423e-001 -9.1273582049105573e-001
      -1.9575794089334972e-001 -2.4913937728358673e-001
      6.3950327064570406e-002 4.2153687153267344e-001
      4.2384853635413527e-001 8.7606747684574340e-002
      8.5537150983062513e-002 -9.5205322246549173e-001
      -1.4060690841923662e-001 4.1278077547645148e-001
      -1.7817670745393390e-003 -3.8646552501265358e-001
      2.7151811097020628e-001 -6.9225722641569024e-002
      6.6386678399133059e+000 4.0888108470618501e-001
      -7.4253778495862788e-001 -1.0589136359744236e+000
      -1.2752863601555244e+000 -1.3959416319220874e-001
      -7.0568185337359302e-001 8.4753919988987837e-003
      7.9949260239294972e-001 -7.2000567866582788e-001
      -3.8001692959185435e-001 1.9846107374886877e-002
      -1.7292164813837124e-001 9.7718625360536637e-001
      4.3563817972337698e-001 -1.4097028810332757e-001
      -3.9414585194022600e-001 7.6361945824900546e-001
      1.4622808160912935e+000 -5.3819069390377883e-001
      2.1959492522963017e-001 2.9340544201388985e-001
      -1.2948227626646935e-001 3.9264519762253014e-001
      7.2684893453529220e-001 3.1587035797809054e-002
      -3.8399428899552679e-001 -1.1811371031428723e+000
      5.7824280897710745e-001 2.6996370730999525e-001
      2.8879803543577776e-001 -8.0211423605531258e-003
      3.5441300892116445e-001 7.9781648441448760e-001
      1.2370825441731609e-001 -4.9010644356062526e-002
      1.0295168072594771e+000 1.1009608247088876e+000
      -5.4645422726432358e-001 -1.7955861074709069e-002
      -1.0544657962594621e+000 1.6391725243109539e-001
      3.3625527951697481e-001 4.3600373367932696e-002
      1.5351317463483181e+000 -2.4657160093687375e-001
      -3.8826926469211581e-001 1.7521592670498476e-001
      -3.0735994988348579e-002 -1.9162796427055032e-001
      2.9563917937473866e-001 -5.4176649239589580e-001
      4.5503616756538418e-001 2.9182850129190085e-001
      1.1925679463641087e-001 -7.1909892376980122e-001
      2.4970709991523624e-001 -1.0163878569317050e-002
      6.3721168342358048e-001 8.3701107825134158e-001
      7.1999160370626114e-001 -2.7633725720344054e-001
      -7.6493721390410485e-001 3.5350188268363464e-001
      6.2337596472784740e-001 2.7302990627859458e-001
      3.4087185132905534e-001 1.0994679702140024e+000
      -1.0045896859112535e-001 -4.7926641129336051e-001
      -1.3192016929081856e+000 5.2221701437943457e-001
      -5.9707483379771298e-001 1.6463847248842307e+000
      1.4512780566349057e-001 -2.3731027292870532e-001
      -2.1363029154124824e-001 -3.1388474574339804e-002
      1.2665875051997744e-001 1.0563374833586097e+000
      1.2085370371639195e-001 -5.4092698743456236e-001
      -4.5291216198106465e-001 1.4985122556318414e-001
      1.0538561987408464e-001 1.3823162240442236e-001
      -4.3875201573155098e-001 -3.9539730310756760e-001
      2.9192290611953758e-001 2.2429554141638258e-001
      -1.8848451097093051e-002 -1.0650530743974211e+000
      1.7043300941247921e-001 -8.5385398031896365e-001
      -1.3941223947123191e+000 -6.5704771360582692e-001
      9.4806389207561759e-001 7.0325147280500405e-002
      2.2460080636515586e-001 9.0540674885777406e-001
      -2.2331232523657957e-001 -8.9416684778121291e-001
      -8.0491478310763598e-001 -3.7719208524794490e-001
      -3.8141365853214776e-001 4.1918058747057507e-002
      4.7574002491008166e-001 7.2948754724349829e-001
      -2.5836755918907717e-001 -3.8033230473595967e-003
      -7.7166650826877226e-001 -3.0900923188147722e-001
      6.3695146059856977e-001 -2.8187401883211538e-001
      -2.3795307024722859e-001 -2.3977876063468334e-001
      -2.4713567161273878e-001 4.3764691802269731e+000
      5.3908827333609310e-001 -1.2496014784966096e-001
      -1.3810682621615755e+000 -4.8198099736229688e-001
      1.3465361704008252e-001 -6.3675981292706330e-001
      -7.5615023606583578e-002 8.9307119855581574e-001
      -4.4605132330556191e-001 1.3796310669998671e-001
      3.2089378991015338e-001 -1.8233119805069316e-002
      1.3793095172738856e+000 3.3467195511769710e-001
      -7.4951757693403254e-001 -4.3723247464263837e-001
      8.9411101124368431e-001 1.6365651359850242e+000
      -8.6490674245283294e-001 7.3174632472225687e-001
      4.0148376875316283e-001 -1.2936790060188907e-001
      2.7260076358059548e-001 4.3601315976202765e-001
      4.9943807519620620e-001 -5.5322112426371983e-001
      -5.2074714564149560e-001 3.4090801200970472e-001
      -2.7931101577019089e-002 7.1392381865793594e-002
      6.3039241038810701e-002 8.0095315270803513e-001
      9.7714663072301633e-001 -2.6817959196337920e-001
      1.0094399485729875e-001 6.9771094768765163e-001
      2.6445560722199252e-001 -8.0246077917819369e-001
      -7.8938414274727378e-002 -2.5389781845600612e-001
      -2.4653917467272887e-001 4.9180022708475885e-001
      -2.8243435683546869e-001 9.3519357866335440e-001
      -3.2875157254049314e-001 -5.1919735396075140e-001
      1.7927779471551303e-001 -6.5479854865065801e-001
      5.7312948741706182e-001 6.5605259022129081e-001
      -8.5904264678324127e-002 -6.8906820961584861e-002
      -5.0614091518291848e-001 -5.0013787035958560e-002
      -2.8725460508901546e-001 -7.5750586154981106e-002
      5.6263642603948831e-002 -1.9809808108505772e-001
      -6.2960111616130769e-003 2.1559520618721059e-001
      -9.4532722779075484e-001 -9.4207855246478556e-001
      2.6831899840417389e-001 3.5654838666574284e-001
      1.6339041909006606e-003 1.9737558069130134e-001
      7.7825156165736997e-001 -1.0241908760712701e+000
      -8.3436982953382877e-001 -7.1204086403791411e-001
      3.3662276489285708e-001 -1.2837683591352331e-001
      1.2751650244867604e-001 -1.0780666772699002e-001
      -2.8596589844152998e-001 6.2225637225023478e-001
      -5.8878666395097790e-001 -4.9522428765104398e-001
      1.0378040229840639e+000 4.6544698322812234e-001
      -1.1088066005827792e+000 1.4332327387142429e-001
      -2.1860308494129560e-001 -1.9492362869278964e-002
      8.7728287942610539e-001 -2.2131042492423245e-002
      -6.3087050952446300e-001 6.2173417943363696e-001
      -3.5580140798579030e-001 3.7880112855927534e-001
      -2.6858647873903141e-001 4.7967688536075838e-002
      -4.4475225700232246e-001 -1.2698933857460002e+000
      -2.6901237259972310e-001 5.8741712055572948e-001
      -2.2453897277251259e-001 -1.6424575575784156e-001
      6.3270385330917356e-001 2.7010094591556427e-001
      -9.1674678770469864e-001 -1.6803927464095858e+000
      -4.5759361620426992e-001 -4.9538867936647135e-001
      -7.7454358892089181e-002 1.4060689538171259e-001
      1.4642939460027693e-001 -3.5261102837743613e-001
      -3.4646939454008541e-001 -3.1434124340219638e-001
      -8.0390499664768078e-001 1.3872079647883423e-001
      -2.5853612412569726e-001 -1.3667019410988952e+000
      7.3442807747031866e-002 -4.1159030273061866e-003
      -2.5222873737712783e+000 5.6924240719269881e-001
      -4.7338894310341562e-001 -1.2058140400296875e+000
      -1.0230123510427888e-001 -3.4250557507444751e-001
      -5.4017213982354018e-001 2.6032420159008113e-001
      9.5878441527864089e-001 -2.4410144175427645e-001
      1.1338747974464942e-001 3.9021634211473294e-001
      -5.8177950854471150e-001 1.2222968682455071e+000
      4.0768979759467291e-002 -6.6719766415200488e-001
      -4.9123855807671141e-001 7.4989276044296216e-001
      1.2954945799826945e+000 -6.5416467860175720e-001
      6.8923631516833284e-001 1.2150660236481664e-001
      -3.2762526285149496e-001 1.6971316393060952e-003
      4.8558614573197550e-001 5.4750028673644546e-001
      -2.9362467286901822e-001 1.4277261455362389e-001
      1.8572431937347200e-001 -2.2870136070063996e-003
      3.1174869548908298e-002 -6.8763256048043209e-001
      2.1807756780432164e-001 8.6701373057267461e-001
      -4.4114682585947979e-001 4.2462587211519867e-002
      7.1299390731151335e-001 -3.6962016123437308e-001
      -1.0702721248761000e+000 -2.8487542770880686e-001
      2.3693150205757840e-001 -5.0256540893305279e-001
      3.4247127684203410e-001 -4.1080272292793535e-001
      6.6049318188802175e-001 -6.0412957435701498e-001
      -3.3638109354330009e-001 1.5812237450625763e-001
      -4.3222069920823392e-001 5.7709718309043812e-001
      6.5712831103617542e-001 -1.8471305668334684e-001
      -6.0080180154552743e-001 -4.6672284301232470e-001
      6.1920477734845492e-002 -1.1578673131480649e-001
      1.0384272477018557e-001 -5.3065414723244331e-001
      -6.8181547710809343e-001 -5.2440024783432049e-001
      1.3921210086256400e-001 -7.6384344257653203e-001
      -9.9889752223434725e-001 2.9506805948712228e-001
      2.7316941949918877e-001 -6.0507367449470006e-001
      7.3872649056252659e-003 6.9329062228950689e-001
      -9.9254006916330706e-001 -4.5531321425144100e-001
      -3.3360132175146806e-001 3.4343440389277402e-001
      1.9974617094472621e-002 -3.3248379710417686e-001
      -1.0789155963463438e-001 -6.7040064013438572e-001
      3.0648644912167405e-001 -6.7107184660356556e-001
      -5.4320490081818118e-001 8.3333263023159321e-001
      2.0506918400318666e-002 -5.7734399996730090e-001
      -1.5524097203422454e-001 -3.1449342472790465e-001
      1.5005251300481687e-001 7.8506965724808075e-001
      -1.9986520047440340e-001 -2.2098749750997940e-001
      8.3703941608686006e-001 -2.8780860008456027e-001
      5.1096329990202183e-001 3.7814131910290905e-001
      9.6814376954510006e-002 4.0522501937839223e-001
      -7.9931474917795120e-001 -2.5848272182131066e-001
      8.4022557116416721e-002 -1.6039361293821660e-002
      -2.5231465596086561e-001 6.1573662048321909e-001
      4.6087437145087440e-001 -8.3514669640479355e-001
      -1.3531266888080964e+000 -5.0307733600117321e-001
      -4.2463816101332630e-001 -6.5017013398131651e-001
      1.6670405986426701e-001 1.4045766814513258e-001
      3.2620569771526847e-001 -2.3270691240382999e-001
      -4.0770988499648558e-001 -1.7333179733430729e-001
      4.7136232232591148e-002 -3.9258685644223529e-001
      -5.7380556048009590e-001 5.3783050884960781e-001
      -8.6682987423149817e-003 -5.3049491930051751e+000
      2.6756024309178361e-001 -8.2682708909357905e-001
      -1.1721647451039474e+000 3.6824416524888481e-001
      4.7924379203613497e-002 -2.9137430284008564e-001
      4.3773199336207780e-001 8.9568541825268633e-001
      -5.6360107688510963e-001 6.4181245227151740e-002
      1.8769267241711213e-001 1.8722119744874033e-001
      6.4500537993531160e-001 -3.3454301931470354e-001
      -7.8865297473358953e-001 -5.0283050157235443e-001
      1.2238161595623751e+000 1.6310315323894908e+000
      -3.5079455928434250e-001 6.4417276509100219e-001
      2.0929566288393814e-001 2.7815646128306719e-002
      1.1683174044586121e-001 7.0427618198118969e-001
      8.0511946554951708e-001 2.5577989213322404e-002
      4.3517380995086435e-001 -3.1793594149133592e-001
      1.7359047193282967e-001 2.8036375343825798e-001
      -6.8328518692874796e-001 4.8410146805790949e-001
      1.1967858236648623e+000 -3.7244801749842354e-001
      -2.8063446736409717e-002 5.0768690178725195e-001
      1.1540035350027827e-001 -1.0700819786015963e+000
      -1.9429755639843849e-001 6.1680292942738513e-001
      -7.8140449879974661e-001 2.3041124809490068e-001
      4.7131155749870540e-001 3.9829986329767858e-001
      -7.3658040013464765e-001 -1.9558418881302742e-001
      6.5483190096489419e-001 -4.1608240486355341e-001
      1.2992816056144954e-001 5.1700333886435657e-001
      -1.8718892247865868e-001 -8.0773786266183367e-001
      1.6569632944339716e-001 -1.4982855481896232e-001
      -2.7878922568783212e-002 5.0585678647165289e-001
      -9.5202607856499244e-001 -1.2733239500835662e+000
      -7.6106340274493145e-001 2.0101036878258854e-001
      -4.0462340236214916e-001 -1.1509727030396477e+000
      -1.9344268665663117e-001 2.0807094446199573e-001
      -6.9309009409799438e-001 2.3174000517843990e-001
      3.6197034335352307e-001 -5.5913333150134048e-001
      -8.3318987222670760e-001 -1.0140041284225557e-001
      1.3702569518258956e-001 9.8336601973841350e-002
      -1.0001919094144087e+000 -3.0101129234956836e-001
      -1.0026864918137313e+000 -3.0579118667603788e-001
      -2.6757059614813927e-001 -1.7826776057910007e-001
      4.6754985903735580e-001 -6.1653661408202176e-001
      -7.0803394964882760e-001 -5.5135485224182701e-001
      -7.2771600571900474e-001 7.7161274211159214e-001
      3.5974170739918576e-001 -8.6486066105456630e-002
      -1.4623611707318696e-001 3.3931001002722083e-001
      -3.2176420537036871e-002 3.5143842565080063e-001
      5.5256118087916384e-001 4.6861966624917756e-001
      4.7759841639172551e-001 -1.2085624602415348e+000
      2.7104735334262081e-001 4.2411435974191891e-001
      2.7837317636770931e-001 -9.4226466026417419e-002
      6.7031201309984823e-001 5.9801189120769171e-001
      -4.5223772992343569e-001 -3.9840874991220998e-001
      -4.3711085647588266e-001 -1.3286065542287617e-001
      -5.1099898493969931e-001 6.7387081253503756e-001
      -4.7030409208819762e-002 1.0131785841525165e-001
      1.3853164839642176e-001 -6.8953928168723222e-001
      -2.0288799499858323e-001 -2.4130145701881792e-001
      1.2471197891844189e-001 -6.1023140877756510e-001
      1.0161651694258851e+000 2.8603636160189050e-001
      -7.1513041215703295e+000 2.4103386641165189e-001
      -9.3941773259265171e-001 -1.2211144433700427e+000
      4.5254339689961626e-001 3.7076561594873499e-002
      -5.9097463640071535e-001 1.4291428200311590e-001
      1.0424235173032703e+000 -3.9630242110473801e-001
      1.0843091857392850e-001 8.5782773644360100e-002
      6.2589311002327883e-002 7.9775279217369099e-001
      -2.8403492009524900e-001 -7.8613474042190690e-001
      -6.2857879431977248e-001 9.3760005883364050e-001
      1.7128784678699320e+000 -4.0540791249389779e-002
      5.1920361946014770e-001 1.2597740153930181e-001
      -3.8565431350497240e-002 1.6491850409501627e-001
      4.8890972017150491e-001 7.9324615979302315e-001
      -2.6620912972198385e-001 7.1935496667443000e-001
      -4.0174036743362440e-001 3.7168364408294335e-001
      -9.9935843116880238e-002 -4.9417695627781277e-001
      7.5469377914900793e-001 1.0946200025880051e+000
      -3.7599578027129976e-001 -2.9788217577533249e-001
      3.1671263537148420e-001 2.0637954932975786e-001
      -9.2684479575025835e-001 9.1760824525284057e-002
      5.8280958654492376e-001 -1.1991037961903050e+000
      2.0776221961927277e-001 4.5883545662129432e-002
      9.1119337364184316e-002 -7.8299430617059906e-001
      -2.0091903592537291e-001 5.8948149906255298e-001
      -4.4743566428977127e-001 4.3417649550504778e-001
      4.7218681208008811e-001 -2.4851540146521364e-001
      -7.5670659667938878e-001 7.9617780865052934e-001
      -1.8403520899821388e-001 1.6673041548883251e-002
      9.9768789545906594e-002 -5.6058167780655044e-001
      -1.3188058540782970e+000 -1.1591008115619539e+000
      4.9092932103830572e-001 -4.3691213737915702e-001
      -7.5481224465171448e-001 -7.0925752053081464e-002
      -3.1531881367289023e-002 -7.0519467649991852e-001
      9.1980369209263460e-002 2.9291876090698710e-001
      -7.3040796828688737e-001 -6.9257332180006770e-001
      7.8863166453589595e-002 1.8513868534733338e-001
      4.4901301282958994e-002 -9.4946879586306787e-001
      -3.2795663595208724e-001 -1.2094773061030282e+000
      -4.3872601971263225e-001 -4.0799523792159259e-002
      -2.6772240980887863e-001 2.0237990691713828e-001
      -4.6633324570631912e-001 -3.0661564244833944e-001
      -3.6027578087388790e-001 -7.7628932688590546e-001
      3.8177531323639369e-001 3.2252387545840405e-001
      1.6305541565487261e-001 -2.5161556428654469e-001
      3.1815373861520430e-001 -2.0473435643203752e-002
      5.4660859145878560e-001 8.3952683436166053e-001
      4.7089789706450724e-001 4.2622143999527323e-001
      -7.8397859412876525e-001 -1.8871040874408215e-002
      3.5479500824302701e-001 2.7223837449430738e-001
      -1.2608952626769665e-001 6.1283587863677269e-001
      1.1227911283070384e+000 -1.6222308398431726e-001
      -6.7170611545277281e-001 -4.6289340422978309e-001
      -4.7526181979403137e-001 -4.1877215127839879e-001
      8.5483874901654378e-001 -2.2211936524507930e-001
      1.6891989498393173e-001 -1.2259656368808385e-001
      -8.0073003577891633e-001 5.1489883412847916e-002
      -4.7770095576811733e-001 1.1139720648731725e-001
      -3.8284133930797726e-001 8.0103112522546782e-001
      3.6326670129479488e-001 -7.5259155719289570e+000
