<?xml version="1.0"?>
<opencv_storage>
<my_nn type_id="opencv-ml-ann-mlp">
  <layer_sizes type_id="opencv-matrix">
    <rows>1</rows>
    <cols>3</cols>
    <dt>i</dt>
    <data>
      560 139 34</data></layer_sizes>
  <activation_function>SIGMOID_SYM</activation_function>
  <f_param1>6.6666666666666663e-001</f_param1>
  <f_param2>1.7159000000000000e+000</f_param2>
  <min_val>-9.4999999999999996e-001</min_val>
  <max_val>9.4999999999999996e-001</max_val>
  <min_val1>-9.7999999999999998e-001</min_val1>
  <max_val1>9.7999999999999998e-001</max_val1>
  <training_params>
    <train_method>BACKPROP</train_method>
    <dw_scale>5.9999999999999998e-002</dw_scale>
    <moment_scale>5.9999999999999998e-002</moment_scale>
    <term_criteria><epsilon>1.0000000474974513e-003</epsilon>
      <iterations>30000</iterations></term_criteria></training_params>
  <input_scale>
    2.9566114120014224e+000 -9.2108607200006554e-001
    3.0401184812439332e+000 -1.6131678718920153e+000
    3.4666343543866414e+000 -2.3307653864720272e+000
    3.5698928731538850e+000 -2.4818142391739868e+000
    4.0886938291291983e+000 -2.2772037682022206e+000
    4.7636441159619327e+000 -2.3321738583798357e+000
    4.8035736737893746e+000 -2.2749199125569222e+000
    4.5943299960165529e+000 -2.1466442663134382e+000
    4.3660467168099872e+000 -2.0073100735170759e+000
    4.3521504953569705e+000 -1.9937727902236340e+000
    4.4674733401717468e+000 -2.0572477663719679e+000
    4.6714138123863469e+000 -2.1786006028756417e+000
    4.6624906021985435e+000 -2.2666687789345272e+000
    4.2692855052407577e+000 -2.3257059442523205e+000
    3.8363092161157466e+000 -2.3357987588166655e+000
    3.6483419986747729e+000 -2.2815316834811679e+000
    3.7682047393202134e+000 -2.2361913292738818e+000
    4.0918591974917113e+000 -2.1616439149935287e+000
    4.6294509464058056e+000 -2.1946104034918790e+000
    4.6554727346570619e+000 -2.1166459862673763e+000
    4.4942318256387690e+000 -2.0418662765693676e+000
    4.4699057499335435e+000 -2.0321314801597099e+000
    4.5457900962557254e+000 -2.0832916366858321e+000
    4.4600797593383810e+000 -2.1232785459816448e+000
    4.3673132729204438e+000 -2.1577668862063519e+000
    4.4052849968057002e+000 -2.2010732512002238e+000
    4.5571914534121536e+000 -2.2777069438605184e+000
    3.9632375451043473e+000 -2.1291193301030931e+000
    3.3342367831717574e+000 -2.1199829701124693e+000
    3.4059683346780711e+000 -2.0397049750204888e+000
    3.1953088879247509e+000 -1.4253868425342617e+000
    3.3817016227547327e+000 -8.1005418472791824e-001
    4.5017308261995785e-002 -8.7783751110891775e-002
    1.2297035032586719e-002 -3.6030312645479090e-001
    8.9961502577454271e-003 -5.8519957426633995e-001
    8.8131120242765319e-003 -6.1118931888357741e-001
    9.1770891868114893e-003 -5.6255556715154431e-001
    8.9338619852427081e-003 -5.9365512891937799e-001
    8.3865802474448001e-003 -6.9063488337707923e-001
    8.1999145228965429e-003 -7.4045228141755781e-001
    8.2579114211980952e-003 -7.2339304049695308e-001
    8.6458078843611678e-003 -6.3849291226007221e-001
    9.2718871322247133e-003 -5.5167728436737040e-001
    9.2185477556980706e-003 -5.5772213921973324e-001
    9.2691792277498925e-003 -5.5197962301250603e-001
    1.1572347642739900e-002 -3.9056673294247163e-001
    2.1784747542999323e-002 -1.8625959149264423e-001
    5.9837343824689672e-002 -6.5821078207158643e-002
    3.9036300338505511e-002 -1.0149438088011434e-001
    1.0036171565054354e-002 -4.8123442654435628e-001
    7.9150673061750346e-003 -8.7342767723641501e-001
    7.8563807249700749e-003 -9.4355132506890593e-001
    7.9284149808966364e-003 -8.6300797067059887e-001
    7.8565607566584983e-003 -9.4318011883685271e-001
    7.8563807249700766e-003 -1.0598257597984633e+000
    7.8881403841891146e-003 -1.1130166082090840e+000
    7.8832765471791629e-003 -1.1064178633965955e+000
    7.8492965861187720e-003 -1.0404242624900433e+000
    7.8864874477592092e-003 -9.0024254216171373e-001
    7.9554652171251582e-003 -8.4447263279783558e-001
    8.0452605804663957e-003 -7.9728532352421977e-001
    9.3269745043431489e-003 -5.4562800850407422e-001
    1.6825363174704126e-002 -2.4733283866815065e-001
    5.4040042565088611e-002 -7.2954057462869634e-002
    3.7631232553988238e-002 -1.0536745115116707e-001
    8.9382218875012874e-003 -5.9305102223571038e-001
    7.8804946936595639e-003 -1.1024812076429731e+000
    8.1917666919087417e-003 -1.3459072674806063e+000
    8.0251420280887335e-003 -1.2398844433397094e+000
    7.9013625515015479e-003 -1.1294997767371462e+000
    7.9506831655643817e-003 -1.1798813817697542e+000
    8.0094817904659242e-003 -1.2282540325679494e+000
    8.0467424930877936e-003 -1.2552918289216959e+000
    8.0408509430545030e-003 -1.2511564067392806e+000
    8.0467424930877936e-003 -1.2552918289216959e+000
    8.0357745430386599e-003 -1.2475539978067520e+000
    7.8431861053481731e-003 -1.0035356621792988e+000
    8.4659924195495482e-003 -6.7304639735418903e-001
    1.4569850208411370e-002 -2.9212549667864801e-001
    5.1282051282051280e-002 -7.6923076923076927e-002
    4.8190112971708263e-002 -8.1923192051904042e-002
    9.3241775286409933e-003 -5.4593059430193014e-001
    7.9751207017733049e-003 -1.2010531776870597e+000
    8.8638376588221386e-003 -1.6566512584338577e+000
    8.2865862741050497e-003 -1.3975327751278166e+000
    7.8804946936595639e-003 -1.1024812076429731e+000
    7.8505784575501909e-003 -1.0445194637770530e+000
    7.8652314559678610e-003 -1.0779299710403953e+000
    7.8848661880017799e-003 -1.1086121860330502e+000
    7.9952202869755275e-003 -1.2172722886920240e+000
    8.2784378611911597e-003 -1.3932610920384723e+000
    8.7700582214843611e-003 -1.6185142447749390e+000
    7.9554652171251565e-003 -1.1841709975690795e+000
    8.4136380996510437e-003 -6.8444945940661239e-001
    1.5062004693898946e-002 -2.8090638754121533e-001
    3.8670110092514851e-002 -1.0247579174516436e-001
    7.7772749115986264e-002 -5.0552286925391071e-002
    1.0233618904406595e-002 -4.6665302204094072e-001
    7.9056323879091762e-003 -1.1344582476649667e+000
    8.5639762608544483e-003 -1.5303825578146899e+000
    7.8936433421185389e-003 -1.1201079902466207e+000
    8.1988898917588014e-003 -7.4076970172040768e-001
    9.1021394835983926e-003 -5.7161435956997908e-001
    9.2664756836880122e-003 -5.5228195074780551e-001
    8.8994646604615424e-003 -5.9848899841603875e-001
    8.0792710140228340e-003 -7.8288136125881269e-001
    7.9025115608472273e-003 -1.1308494043572381e+000
    8.3773103822173747e-003 -1.4434105788560538e+000
    8.0673426338271279e-003 -1.2693963634326986e+000
    8.4985849334455171e-003 -6.6628905878212863e-001
    1.6266378322001836e-002 -2.5700877748762901e-001
    3.6672932670654607e-002 -1.0818515137843110e-001
    5.8527839919665765e-002 -6.7307015907615619e-002
    1.0282403985213032e-002 -4.6322229953384703e-001
    7.9146427555564797e-003 -1.1444573424534670e+000
    8.4150135181946684e-003 -1.4616878481104139e+000
    7.8678620122945072e-003 -9.2368700024337524e-001
    9.3213850924999068e-003 -5.4623316642049458e-001
    1.1042353075803387e-002 -4.1684882861157785e-001
    1.0833118826539046e-002 -4.2844984958961924e-001
    1.0502944374889751e-002 -4.4847572480779241e-001
    9.4248404534100529e-003 -5.3533093775369101e-001
    7.9293471126673683e-003 -8.6231649850257630e-001
    8.1545780566945700e-003 -1.3243034764071981e+000
    8.1287381739265710e-003 -1.3087268460021779e+000
    8.2467699063510664e-003 -7.2654042874952895e-001
    1.5829825945144552e-002 -2.6514958458117122e-001
    3.3015214481624360e-002 -1.2050553285792891e-001
    5.7301180347710742e-002 -6.8761416417252891e-002
    1.0052313917097946e-002 -4.7999798954142692e-001
    7.9242860295017700e-003 -1.1545684744984077e+000
    8.3799484221795464e-003 -1.4447031079837538e+000
    8.0175558604172730e-003 -8.1017401969516545e-001
    9.9456021109930685e-003 -4.8832906364975970e-001
    1.0739757088859204e-002 -4.3388618638991183e-001
    1.0827534035045168e-002 -4.2877034778778866e-001
    1.0246822745517645e-002 -4.6571809378377699e-001
    9.5952908963340706e-003 -5.1862547294685646e-001
    8.3152420987372758e-003 -7.0804286470747912e-001
    7.9517362996057023e-003 -1.1808328404914468e+000
    8.0712800250046599e-003 -1.2720337319407344e+000
    8.0580497750787246e-003 -7.9170339040148474e-001
    1.4670726944690746e-002 -2.8974685715764226e-001
    2.9784470107251351e-002 -1.3403011548263108e-001
    5.7301180347710742e-002 -6.8761416417252891e-002
    9.9494619619783075e-003 -4.8802110923503594e-001
    7.9163488096533948e-003 -1.1462873076378117e+000
    8.1927790309444075e-003 -1.3464832337357133e+000
    8.1110710565381276e-003 -7.7055175037112211e-001
    9.8922856916078151e-003 -4.9263582744206919e-001
    1.0032154423814102e-002 -4.8154341234307685e-001
    1.0032154423814102e-002 -4.8154341234307685e-001
    9.7192056869090174e-003 -5.0734253685665076e-001
    9.1643486739449980e-003 -5.6406566088131460e-001
    8.6615187119042716e-003 -6.3575547345377359e-001
    7.8432391784724140e-003 -9.9491488978922571e-001
    7.9365079365079361e-003 -1.1666666666666665e+000
    8.0148411970438430e-003 -8.1150267120068909e-001
    1.3417866801882542e-002 -3.2269969658527514e-001
    2.7877685132076648e-002 -1.4357007843019473e-001
    6.2745580513815860e-002 -6.2745580513815860e-002
    1.0143256864659169e-002 -4.7318293273635020e-001
    7.8842265405939145e-003 -1.1077338289534451e+000
    8.0689129586147216e-003 -1.2704503453338878e+000
    8.1396528633194565e-003 -7.6024357743403725e-001
    9.7788451450648902e-003 -5.0214369819908211e-001
    9.4819629911698702e-003 -5.2956763305683729e-001
    9.4042432777447296e-003 -5.3745250332311123e-001
    9.1045809302014950e-003 -5.7131245337014380e-001
    8.8473925351011187e-003 -6.0604638865442662e-001
    8.8576469665036326e-003 -6.0453440546387294e-001
    7.9506831655643817e-003 -8.4754282544916304e-001
    7.8467154006491794e-003 -1.0306660678752697e+000
    8.0445218833512574e-003 -7.9761434473427717e-001
    1.3015375766857453e-002 -3.3514592599657944e-001
    2.6414871003725793e-002 -1.5188550827142330e-001
    6.8037050819557673e-002 -5.7831493196624020e-002
    1.0387801047957553e-002 -4.5602446600533658e-001
    7.8691073198652178e-003 -1.0847564440434203e+000
    8.0550010948713165e-003 -1.2610104214021047e+000
    8.1296386669609984e-003 -7.6377955276098586e-001
    9.6017907396498611e-003 -5.1801661040411007e-001
    9.1618127007503814e-003 -5.6436766236622349e-001
    8.9624446619483815e-003 -5.8972885875620351e-001
    8.7972875106517301e-003 -6.1361080386795819e-001
    8.6320235797684736e-003 -6.4092775079780917e-001
    9.0376514369699748e-003 -5.7976533968162391e-001
    8.0982445642294783e-003 -7.7540691702497255e-001
    7.8543157922048735e-003 -9.4801591611912828e-001
    8.0982445642294783e-003 -7.7540691702497255e-001
    1.2776668252169845e-002 -3.4305354257076037e-001
    2.5767141795275613e-002 -1.5589120786141744e-001
    7.4951063562201076e-002 -5.2465744493540752e-002
    1.0878226327435864e-002 -4.2588256071911407e-001
    7.8576666772873123e-003 -1.0627494181031090e+000
    8.0736610169275802e-003 -1.2736200254203258e+000
    8.1050405104383869e-003 -7.7281561267030019e-001
    9.5888130516525762e-003 -5.1923422674698694e-001
    8.9101224811674821e-003 -5.9697820623822129e-001
    8.6881899404794675e-003 -6.3119699917583338e-001
    8.5091908184919216e-003 -6.6414234338329448e-001
    8.5834506684157701e-003 -6.4976721559907380e-001
    9.1719808212643375e-003 -5.6315962242563034e-001
    8.2081751963100722e-003 -7.3791495014827557e-001
    7.8625324495691668e-003 -9.3210322189642469e-001
    8.1136797303488738e-003 -7.6958252242359060e-001
    1.2808297710264840e-002 -3.4198154886407123e-001
    2.6084777128569929e-002 -1.5390018505856259e-001
    6.8037050819557673e-002 -5.7831493196624020e-002
    1.1543429398477818e-002 -3.9189942807832195e-001
    7.8484715624535257e-003 -1.0375679405563560e+000
    8.1145525193295712e-003 -1.2999513135965972e+000
    8.0202939202406644e-003 -8.0884664185627098e-001
    9.3325821114470624e-003 -5.4502279530850839e-001
    8.9316870972388860e-003 -5.9395719196638597e-001
    8.4529774110362506e-003 -6.7581554401234822e-001
    8.3128111568210386e-003 -7.0866715111899359e-001
    8.4515425472851662e-003 -6.7612340378281333e-001
    8.9535884891708932e-003 -5.9093684028527893e-001
    8.2726747226936174e-003 -7.1930906713821008e-001
    7.8654644059080042e-003 -9.2733825345655374e-001
    8.1650889669646672e-003 -7.5159643940909759e-001
    1.3015375766857453e-002 -3.3514592599657944e-001
    2.7746110476029026e-002 -1.4427977447535095e-001
    7.7772749115986264e-002 -5.0552286925391071e-002
    1.2417879390985199e-002 -3.5577224455172590e-001
    7.8432102293619944e-003 -1.0043230698698036e+000
    8.1387342135030068e-003 -1.3148125121914109e+000
    7.9072238519999564e-003 -8.8007401472759517e-001
    8.7662158725502447e-003 -6.1845652980841970e-001
    8.6184074180058745e-003 -6.4336411375413860e-001
    8.2772814343969828e-003 -7.1805416443393821e-001
    8.2060993986221818e-003 -7.3854894587599640e-001
    8.2197195773328364e-003 -7.3443194423468894e-001
    8.3463004582961207e-003 -7.0025460845104459e-001
    8.1269421109044053e-003 -7.6474525263610449e-001
    7.8766563526869518e-003 -9.1172297282351467e-001
    8.2658214102498996e-003 -7.2119291804430374e-001
    1.3355897147678127e-002 -3.2454830068857848e-001
    2.7238352102525561e-002 -1.4708710135363803e-001
    8.8648441435587255e-002 -4.4324220717793628e-002
    1.2937693252929818e-002 -3.3767379390146829e-001
    7.8530369324420340e-003 -9.5100277251873033e-001
    8.1180598690120207e-003 -1.3021368029895282e+000
    7.8443587899615710e-003 -9.8250593844268674e-001
    8.2133958308404573e-003 -7.3633093623484702e-001
    8.0704894572909032e-003 -7.8646919761299849e-001
    7.9449880418657297e-003 -8.5130546868591295e-001
    7.9233830397516455e-003 -8.6681810454883002e-001
    7.8781075261518518e-003 -9.0992141927053893e-001
    7.9198238407472230e-003 -8.6959665771404504e-001
    7.8592099257567376e-003 -9.3799670463906659e-001
    7.8490547939924441e-003 -9.6190166500377405e-001
    8.3164605267003009e-003 -7.0773079082219559e-001
    1.3355897147678127e-002 -3.2454830068857848e-001
    2.8146716601619496e-002 -1.4214091883817845e-001
    7.7772749115986264e-002 -5.0552286925391071e-002
    1.3519158990517843e-002 -3.1972811012574698e-001
    7.8683564108345885e-003 -9.2295820699089726e-001
    8.0035633393469984e-003 -1.2237448345861561e+000
    7.8636354238182556e-003 -1.0749589624359555e+000
    7.9828552719774810e-003 -8.2822123446766360e-001
    7.8584284819257343e-003 -9.3947512501422148e-001
    7.8574792927445843e-003 -1.0623312003790677e+000
    7.8792910552388153e-003 -1.1007369604168624e+000
    7.9774753285449460e-003 -1.2030032795445780e+000
    7.8567420131838619e-003 -1.0606601717798214e+000
    7.8758006890611906e-003 -1.0955238758484116e+000
    7.8504447991771704e-003 -1.0441091582905637e+000
    8.2478757167858702e-003 -7.2622545686299589e-001
    1.2959718994867604e-002 -3.3695269386655768e-001
    2.8146716601619496e-002 -1.4214091883817845e-001
    7.2416726212475788e-002 -5.4312544659356837e-002
    1.3896010945308498e-002 -3.0918624353311408e-001
    7.8817184687408996e-003 -9.0560945205832943e-001
    7.9414491190937502e-003 -1.1713637450663281e+000
    7.8858351459155096e-003 -1.1099312967876080e+000
    7.8929376323044510e-003 -8.9348053997686383e-001
    7.8496683851061368e-003 -9.6001444349848053e-001
    7.8584284819257343e-003 -1.0644241378768406e+000
    7.9404501312130074e-003 -1.1704223493407973e+000
    8.0940488529772005e-003 -1.2869537676233749e+000
    7.9312273301607849e-003 -1.1615282425020468e+000
    7.9414491190937502e-003 -1.1713637450663281e+000
    7.8533493234669103e-003 -1.0523488093445659e+000
    8.2133958308404573e-003 -7.3633093623484702e-001
    1.2446391765625262e-002 -3.5472216532031997e-001
    2.7488610907203087e-002 -1.4568963780817637e-001
    7.7772749115986264e-002 -5.0552286925391071e-002
    1.4438950421777607e-002 -2.9527653612535204e-001
    7.9211486592821265e-003 -8.6855395049028516e-001
    7.8932898488211795e-003 -1.1196631650552842e+000
    7.8590127226758396e-003 -1.0656821251948438e+000
    7.9792560036174333e-003 -8.3024158717639396e-001
    7.9025115608472273e-003 -8.8429104365880473e-001
    7.8474981878243547e-003 -9.6720415164935170e-001
    7.8528825669193433e-003 -1.0511083315821541e+000
    7.8918886384052658e-003 -1.1178860256301060e+000
    7.8645400267476420e-003 -1.0766555296617522e+000
    7.8829624082895466e-003 -1.1059796258830235e+000
    7.8549845357844331e-003 -1.0564954200630063e+000
    8.1180598690120190e-003 -7.6796846360853699e-001
    1.1861697273984863e-002 -3.7779505817641790e-001
    2.6193384686313249e-002 -1.5323130041493249e-001
    8.0940488529772023e-002 -4.8564293117863214e-002
    1.4933692277237473e-002 -2.8374015326751201e-001
    7.9350517362251644e-003 -8.5817584527275159e-001
    7.8968823210901120e-003 -1.1241211984071775e+000
    7.8431861053481731e-003 -9.9647679468448536e-001
    8.3539419380637726e-003 -6.9838954602213132e-001
    8.2960139170787529e-003 -7.1304239617291887e-001
    8.1145525193295712e-003 -7.6925957883244334e-001
    7.9804501361826780e-003 -8.2956779165618943e-001
    7.8798903590857686e-003 -9.0776336936668056e-001
    7.9419506329541870e-003 -8.5336259551092741e-001
    7.8627505768002846e-003 -9.3173594335083376e-001
    7.8431975642269825e-003 -1.0039292882210538e+000
    8.0314814981334807e-003 -8.0354972388825474e-001
    1.1223344556677889e-002 -4.0740740740740733e-001
    2.4881704335686219e-002 -1.6173107818196042e-001
    8.8648441435587255e-002 -4.4324220717793628e-002
    1.5721249524260256e-002 -2.6726124191242434e-001
    7.9336075727392038e-003 -8.5920970012765574e-001
    7.9189472050265868e-003 -1.1490392394493576e+000
    7.8549845357844331e-003 -9.4652563656202415e-001
    8.8514848310033076e-003 -6.0544156244062630e-001
    9.2937083926670962e-003 -5.4925816600662536e-001
    8.8783944715469399e-003 -6.0151122544730518e-001
    8.5338685943578841e-003 -6.5924134891414654e-001
    8.2445638221957593e-003 -7.2717052911766600e-001
    8.3275155021001971e-003 -7.0492418725278172e-001
    8.0141661789738094e-003 -8.1183503393004686e-001
    7.8442525993283642e-003 -9.8327706332581044e-001
    7.9485932179261011e-003 -8.4890975567450755e-001
    1.0750569093078170e-002 -4.3324793445105020e-001
    2.3595227286195387e-002 -1.7106539782491656e-001
    8.8648441435587255e-002 -4.4324220717793628e-002
    1.6719018786102869e-002 -2.4911337991293275e-001
    7.9288803826057658e-003 -8.6266218562750729e-001
    7.9345690119228957e-003 -1.1647947309502811e+000
    7.8792910552388153e-003 -9.0848225866903543e-001
    9.3269745043431489e-003 -5.4562800850407422e-001
    9.8402844985458517e-003 -4.9693436717656553e-001
    9.2937083926670962e-003 -5.4925816600662536e-001
    8.8742193299188570e-003 -6.0211578153499434e-001
    8.5153031400067476e-003 -6.6291634944952527e-001
    8.5323082922919586e-003 -6.5954743099416835e-001
    8.1748230953510668e-003 -7.4840505437939009e-001
    7.8442013156236820e-003 -9.8366284497920975e-001
    7.9167785967567041e-003 -8.7203316243275097e-001
    1.0194454573507332e-002 -4.6945463311001262e-001
    2.2361294719058265e-002 -1.8112648722437194e-001
    7.7772749115986264e-002 -5.0552286925391071e-002
    1.7575153865873078e-002 -2.3550706180269926e-001
    7.9419506329541870e-003 -8.5336259551092741e-001
    7.9355357979478350e-003 -1.1657302087185371e+000
    7.8814106356461730e-003 -9.0596815256752761e-001
    9.4367174218816449e-003 -5.3411820607850113e-001
    9.9264066918267196e-003 -4.8986817024164864e-001
    9.2745994058144182e-003 -5.5137493467566723e-001
    8.9360402467119574e-003 -5.9335307238167401e-001
    8.6738889946880778e-003 -6.3362759106196409e-001
    8.5137715106636015e-003 -6.6322280068069461e-001
    8.2545494620960818e-003 -7.2433671529893118e-001
    7.8442013156236820e-003 -9.8366284497920975e-001
    7.8990993041225619e-003 -8.8746380681816983e-001
    9.8039215686274508e-003 -5.0000000000000000e-001
    2.1662853512648624e-002 -1.8738368288441060e-001
    7.0124089181651791e-002 -5.6099271345321437e-002
    1.7483031800626783e-002 -2.3689508089849293e-001
    7.9429577042236556e-003 -8.5267650954840934e-001
    7.9414491190937502e-003 -1.1713637450663281e+000
    7.8676166742218962e-003 -9.2405157838736174e-001
    9.4880813383301527e-003 -5.2896053461190606e-001
    1.0130635993209102e-002 -4.7411376448218595e-001
    9.4880813383301527e-003 -5.2896053461190606e-001
    9.1217793717998617e-003 -5.6919903280031137e-001
    8.7173232853345710e-003 -6.2633967805128887e-001
    8.5464380855300049e-003 -6.5679376687298086e-001
    8.2948287079568014e-003 -7.1335526888428491e-001
    7.8434032294865501e-003 -9.9179833836857423e-001
    7.8724905976625299e-003 -9.1714515462768476e-001
    9.4159840120561396e-003 -5.3624028948659719e-001
    2.0919723856614284e-002 -1.9455343186651286e-001
    7.7772749115986264e-002 -5.0552286925391071e-002
    1.7513564583091126e-002 -2.3643312187173021e-001
    7.9475563919004216e-003 -8.4959377829415506e-001
    7.9739517751965545e-003 -1.2000797421670815e+000
    7.8473960981272992e-003 -9.6758393889909600e-001
    9.3102605595925588e-003 -5.4744332090404246e-001
    1.0139042062142473e-002 -4.7349326430205352e-001
    9.8075291196904960e-003 -4.9969360864823081e-001
    9.4667558742209321e-003 -5.3108500454379426e-001
    8.6972174851041601e-003 -6.2967854592154127e-001
    8.5307503977886737e-003 -6.5985354326895385e-001
    8.2512042454195716e-003 -7.2528085317238045e-001
    7.8436101173163884e-003 -1.0110413441220825e+000
    7.8594083573781410e-003 -9.3762741703521224e-001
    9.1517089822259982e-003 -5.6557561510156662e-001
    2.0154788597695480e-002 -2.0255562540683958e-001
    7.7772749115986264e-002 -5.0552286925391071e-002
    1.7960066723064941e-002 -2.2988885405523127e-001
    7.9242860295017700e-003 -8.6612446302454338e-001
    8.1709089023062828e-003 -1.3339008783015007e+000
    7.8661706809110797e-003 -1.0796319259550458e+000
    9.0098545680712683e-003 -5.8338808328261460e-001
    9.7470516703698027e-003 -5.0489727652515570e-001
    9.7540738441063580e-003 -5.0428561774029879e-001
    9.4396989436516272e-003 -5.3381497526349952e-001
    8.6066296582387042e-003 -6.4549722436790280e-001
    8.4895853266496978e-003 -6.6813036520733127e-001
    8.1817392047498459e-003 -7.4617461547318598e-001
    7.8499223269728382e-003 -1.0424696850219930e+000
    7.8478117307963068e-003 -9.6606562406102536e-001
    9.0635946721855151e-003 -5.7644462115099881e-001
    1.9647010017425911e-002 -2.0825830618471464e-001
    7.4951063562201076e-002 -5.2465744493540752e-002
    1.7764231246875203e-002 -2.3271142933406516e-001
    7.8878072599578887e-003 -8.9881563727220148e-001
    8.5385639793606055e-003 -1.5190105319282519e+000
    8.0657784728360108e-003 -1.2683436648534627e+000
    8.8473925351011187e-003 -6.0604638865442662e-001
    9.7752878246351108e-003 -5.0244979418624469e-001
    9.5952908963340706e-003 -5.1862547294685646e-001
    9.2211742709804988e-003 -5.5741998468077114e-001
    8.7247189417210356e-003 -6.2512611217431224e-001
    8.4910794495696162e-003 -6.6782339870865037e-001
    8.1067554912518519e-003 -7.7216846054173893e-001
    7.8691073198652178e-003 -1.0847564440434203e+000
    7.8441512395650073e-003 -9.8404877300343019e-001
    9.1416691761821676e-003 -5.6678348892329444e-001
    1.9826913140591790e-002 -2.0619989666215463e-001
    6.1239444401659550e-002 -6.4301416621742533e-002
    2.0012171101169755e-002 -2.0412414523193148e-001
    7.9603580521574163e-003 -8.4140984611303893e-001
    8.6810175488725560e-003 -1.5812473465271362e+000
    8.3287537777871883e-003 -1.4192196437349369e+000
    8.3565054367731924e-003 -6.9776820397056161e-001
    1.0036171565054354e-002 -4.8123442654435628e-001
    9.5034667248096363e-003 -5.2744240322693481e-001
    9.1618127007503814e-003 -5.6436766236622349e-001
    8.9602254575922701e-003 -5.9003084638245096e-001
    8.6217958033450448e-003 -6.4275487713937307e-001
    7.9636817804982704e-003 -8.3937205966451778e-001
    7.9009821258610776e-003 -1.1290503457855481e+000
    7.8435769417809255e-003 -9.8946723120566382e-001
    9.5472365732824759e-003 -5.2318856421587967e-001
    2.1543082961713870e-002 -1.8850197591499637e-001
    7.7772749115986264e-002 -5.0552286925391071e-002
    2.7115833701282514e-002 -1.4778129367198969e-001
    8.2019690763881943e-003 -7.3981761069021512e-001
    8.5229969224275056e-003 -1.5119796540386397e+000
    8.4572954648587349e-003 -1.4817181654432503e+000
    7.9302845605881168e-003 -8.6162541750789889e-001
    9.6680211183667337e-003 -5.1192171821751853e-001
    9.8735651861593422e-003 -4.9417193756727507e-001
    9.4130415787484177e-003 -5.3654336998865981e-001
    9.2264399342756806e-003 -5.5681565003353739e-001
    8.5949778320736827e-003 -6.4763157964675189e-001
    7.8536665959184435e-003 -9.4950829144653992e-001
    7.9419506329541870e-003 -1.1718348158923904e+000
    7.8454565469669273e-003 -9.7597479444268576e-001
    1.0675818579755180e-002 -4.3770856176996237e-001
    2.3061808217387070e-002 -1.7526974245214172e-001
    8.8648441435587255e-002 -4.4324220717793628e-002
    2.9155510238281349e-002 -1.3703089811992233e-001
    8.6863927182029843e-003 -6.3150075061335698e-001
    8.1498679014153259e-003 -1.3215010802144951e+000
    8.4659924195495482e-003 -1.4857816696309456e+000
    7.8478117307963068e-003 -1.0351263672920330e+000
    8.2715277830910858e-003 -7.1962291712892446e-001
    8.6703410735855073e-003 -6.3423544953277988e-001
    8.7173232853345710e-003 -6.2633967805128887e-001
    8.4733022376539437e-003 -6.7150920233407507e-001
    8.0504736868260412e-003 -7.9498427657407156e-001
    7.8576666772873123e-003 -1.0627494181031090e+000
    7.9952202869755275e-003 -1.2172722886920240e+000
    7.8918886384052658e-003 -8.9454557716323679e-001
    1.1444369021532640e-002 -3.9654738659610594e-001
    2.4975446376503108e-002 -1.6109162912844505e-001
    8.8648441435587255e-002 -4.4324220717793628e-002
    2.6875821890423170e-002 -1.4916081149184859e-001
    9.1694327264635542e-003 -5.6346164104118546e-001
    7.8511252579077408e-003 -1.0461624406162064e+000
    8.3031659095905222e-003 -1.4061411467891549e+000
    7.9429577042236556e-003 -1.1727777050286228e+000
    7.8541516611478398e-003 -1.0544198605090975e+000
    7.8807987485399814e-003 -1.1029177848581704e+000
    7.9021272684440397e-003 -1.1303993057509201e+000
    7.8990993041225619e-003 -1.1268065157330835e+000
    7.8915415239880007e-003 -1.1174422797967010e+000
    7.9964880739089930e-003 -1.2182649580600351e+000
    8.1631626297538461e-003 -1.3293710342554137e+000
    7.9207057369201708e-003 -8.6890141934014276e-001
    1.0750569093078170e-002 -4.3324793445105020e-001
    2.4084519261889349e-002 -1.6738740887013098e-001
    9.3434484197489537e-002 -4.2045517888870294e-002
    2.7362597607845231e-002 -1.4638989720197199e-001
    9.6479139703977840e-003 -5.1375141892368204e-001
    7.9434632631227974e-003 -8.5233360813307613e-001
    7.8666477218788059e-003 -1.0804840646000540e+000
    7.8649997430111380e-003 -1.0775049647925259e+000
    7.8741231520185976e-003 -1.0929282935001814e+000
    7.9895858107295065e-003 -1.2128191260687391e+000
    8.0808878924406580e-003 -1.2783964645841119e+000
    8.0189219615284697e-003 -1.2353149281734608e+000
    7.9056323879091762e-003 -1.1344582476649667e+000
    7.8693601072757722e-003 -1.0851847587933290e+000
    7.8453823025803025e-003 -1.0242146596018586e+000
    8.1305408030160169e-003 -7.6345778140320408e-001
    1.0260102128969800e-002 -4.6478262644233193e-001
    2.2428361351905634e-002 -1.8054830888284037e-001
    1.0592394266759900e-001 -3.7073379933659646e-002
    3.6672932670654607e-002 -1.0818515137843110e-001
    1.1942541968661187e-002 -3.7439869071752824e-001
    8.6881899404794675e-003 -6.3119699917583338e-001
    8.2854164759985222e-003 -7.1585998352627234e-001
    8.1631626297538461e-003 -7.5223543633181700e-001
    7.8922370275978249e-003 -8.9419045522683349e-001
    7.8528825669193433e-003 -1.0511083315821541e+000
    7.9032840162854036e-003 -1.1317502711320697e+000
    7.8733012572496080e-003 -1.0916332193176581e+000
    7.8623155555328818e-003 -9.3247062488619969e-001
    8.2176044898903695e-003 -7.3506472162069358e-001
    8.5752926113210979e-003 -6.5129347382983738e-001
    8.9015896382690172e-003 -5.9818682369167797e-001
    1.2017104340431043e-002 -3.7132852411931921e-001
    2.4606910813694816e-002 -1.6363595691107052e-001
    6.1239444401659550e-002 -6.4301416621742533e-002
    6.1239444401659550e-002 -6.4301416621742533e-002
    1.7303401305060109e-002 -2.3965210807508250e-001
    1.1389220619050983e-002 -3.9919218269773693e-001
    1.0355225741115101e-002 -4.5821873904434318e-001
    1.0416078970457038e-002 -4.5414104311192688e-001
    9.5220995859869578e-003 -5.2561989714648005e-001
    8.5338685943578841e-003 -6.5924134891414654e-001
    8.1988898917588014e-003 -7.4076970172040768e-001
    8.3176809290490209e-003 -7.0741876301561923e-001
    9.1694327264635542e-003 -5.6346164104118546e-001
    1.0649640851078290e-002 -4.3929768510697942e-001
    1.1134504398372281e-002 -4.1197666273977440e-001
    1.1382399569675516e-002 -3.9952222489561062e-001
    1.5369839248423934e-002 -2.7435163058436723e-001
    2.9308913940174368e-002 -1.3628644982181082e-001 1. 0. 1. 0. 1. 0.
    1. 0. 1. 0. 1. 0. 1. 0. 1. 0. 1. 0. 1. 0. 1. 0. 1. 0. 1. 0. 1. 0. 1.
    0. 1. 0.</input_scale>
  <output_scale>
    4.2105261824632950e-001 4.9999998882412910e-001
    4.2105261824632950e-001 4.9999998882412910e-001
    4.2105261824632950e-001 4.9999998882412910e-001
    4.2105261824632950e-001 4.9999998882412910e-001
    4.2105261824632950e-001 4.9999998882412910e-001
    4.2105261824632950e-001 4.9999998882412910e-001
    4.2105261824632950e-001 4.9999998882412910e-001
    4.2105261824632950e-001 4.9999998882412910e-001
    4.2105261824632950e-001 4.9999998882412910e-001
    4.2105261824632950e-001 4.9999998882412910e-001
    4.2105261824632950e-001 4.9999998882412910e-001
    4.2105261824632950e-001 4.9999998882412910e-001
    4.2105261824632950e-001 4.9999998882412910e-001
    4.2105261824632950e-001 4.9999998882412910e-001
    4.2105261824632950e-001 4.9999998882412910e-001
    4.2105261824632950e-001 4.9999998882412910e-001
    4.2105261824632950e-001 4.9999998882412910e-001
    4.2105261824632950e-001 4.9999998882412910e-001
    4.2105261824632950e-001 4.9999998882412910e-001
    4.2105261824632950e-001 4.9999998882412910e-001
    4.2105261824632950e-001 4.9999998882412910e-001
    4.2105261824632950e-001 4.9999998882412910e-001
    4.2105261824632950e-001 4.9999998882412910e-001
    4.2105261824632950e-001 4.9999998882412910e-001
    4.2105261824632950e-001 4.9999998882412910e-001
    4.2105261824632950e-001 4.9999998882412910e-001
    4.2105261824632950e-001 4.9999998882412910e-001
    4.2105261824632950e-001 4.9999998882412910e-001
    4.2105261824632950e-001 4.9999998882412910e-001
    4.2105261824632950e-001 4.9999998882412910e-001
    4.2105261824632950e-001 4.9999998882412910e-001
    4.2105261824632950e-001 4.9999998882412910e-001
    4.2105261824632950e-001 4.9999998882412910e-001
    4.2105261824632950e-001 4.9999998882412910e-001</output_scale>
  <inv_output_scale>
    2.3750000752043001e+000 -1.1875000110594558e+000
    2.3750000752043001e+000 -1.1875000110594558e+000
    2.3750000752043001e+000 -1.1875000110594558e+000
    2.3750000752043001e+000 -1.1875000110594558e+000
    2.3750000752043001e+000 -1.1875000110594558e+000
    2.3750000752043001e+000 -1.1875000110594558e+000
    2.3750000752043001e+000 -1.1875000110594558e+000
    2.3750000752043001e+000 -1.1875000110594558e+000
    2.3750000752043001e+000 -1.1875000110594558e+000
    2.3750000752043001e+000 -1.1875000110594558e+000
    2.3750000752043001e+000 -1.1875000110594558e+000
    2.3750000752043001e+000 -1.1875000110594558e+000
    2.3750000752043001e+000 -1.1875000110594558e+000
    2.3750000752043001e+000 -1.1875000110594558e+000
    2.3750000752043001e+000 -1.1875000110594558e+000
    2.3750000752043001e+000 -1.1875000110594558e+000
    2.3750000752043001e+000 -1.1875000110594558e+000
    2.3750000752043001e+000 -1.1875000110594558e+000
    2.3750000752043001e+000 -1.1875000110594558e+000
    2.3750000752043001e+000 -1.1875000110594558e+000
    2.3750000752043001e+000 -1.1875000110594558e+000
    2.3750000752043001e+000 -1.1875000110594558e+000
    2.3750000752043001e+000 -1.1875000110594558e+000
    2.3750000752043001e+000 -1.1875000110594558e+000
    2.3750000752043001e+000 -1.1875000110594558e+000
    2.3750000752043001e+000 -1.1875000110594558e+000
    2.3750000752043001e+000 -1.1875000110594558e+000
    2.3750000752043001e+000 -1.1875000110594558e+000
    2.3750000752043001e+000 -1.1875000110594558e+000
    2.3750000752043001e+000 -1.1875000110594558e+000
    2.3750000752043001e+000 -1.1875000110594558e+000
    2.3750000752043001e+000 -1.1875000110594558e+000
    2.3750000752043001e+000 -1.1875000110594558e+000
    2.3750000752043001e+000 -1.1875000110594558e+000</inv_output_scale>
  <weights>
    <_>
      -5.4288896986211288e+000 2.1860758411300291e-001
      -1.2083588269757217e-001 -7.2870783082412849e-002
      1.0156834318988914e-001 -1.2176718338967900e-001
      1.1771367771885738e-001 -2.7475569480289938e-002
      1.8205878168763151e-001 -6.6915000598876484e-001
      -6.4920694185706607e-001 3.4089049069677343e-002
      -9.4374752659469596e-002 -2.0018207856108330e-001
      3.6589901497040928e-001 1.6176926326127317e-001
      -2.9368410923398980e-001 2.2833338069326220e-001
      -2.9050203067306768e-001 -3.4499491814562473e-002
      1.5981816699833445e-001 3.2205034525428389e-001
      -2.3407534047935358e-001 2.6433273741545044e-001
      5.1045284602009933e-001 1.4107043087785952e-002
      -4.1388155687048378e-001 2.3495865384192294e-001
      -1.7959633627156479e-001 -2.4723391152706133e-002
      -4.0437281485552506e-001 -1.6839291362597822e-001
      -1.6719943774148233e-001 1.8149722222201073e-001
      -2.5128135806947072e-001 -4.6590797763932941e-002
      -5.9150129280319000e-002 7.5596644371081456e-001
      -8.7143198924627838e-002 1.0080655630132347e-001
      2.2430540726665646e-001 8.7225898270632887e-002
      -6.8221416574096416e-002 1.1282381886170494e-003
      8.6990969762842305e-002 2.5189946079564324e-001
      -5.9696078426294008e-001 3.3762795981287397e-002
      -7.7061641186774194e-002 3.0002619841884192e-002
      -1.4428362584140414e-001 2.2948545076153917e-001
      1.3952239093441957e-001 -1.9295376363548838e-001
      -3.5841576169023032e-001 4.5981464051350496e-001
      -2.0404915721988706e-001 3.5833496703969214e-001
      1.5512672792171503e-001 3.1410925397091449e-001
      -1.9120671281565835e-001 1.5950255856168516e-001
      9.4245460209031379e-002 -1.0785347752233544e-001
      -3.2658353015986241e-002 1.5440411106231555e-001
      3.1007773726010129e-001 -4.3068856036439684e-001
      -2.2972685567516166e-001 -9.8690342127082581e-002
      2.4322793202236831e-001 -5.3401583859442249e-002
      -2.0159357739022245e-002 1.8265336569547810e-001
      -7.7304739441401016e-001 -1.2916990609765619e-001
      1.4567044331411036e-001 1.8366724829946829e-001
      -3.1232972979351892e-001 1.1493112756004768e-001
      2.6252121487489238e-001 1.0359954822989693e-001
      2.3611535654012331e-001 8.7256081228123561e-002
      -1.8651200629787654e-001 2.4141924155897335e-001
      -2.7272284559864252e-003 4.1973661173270216e-001
      -8.3048902916084050e-002 1.0904753700017430e-001
      -5.4939578980968196e-001 -7.0998210517191990e-002
      -3.3620516767602482e-001 9.9066130231668700e-002
      -2.3820392400993720e-001 4.8527583315316335e-002
      -3.2982952975793278e-001 -2.5212880023101353e-001
      -3.1456050567571447e-001 1.7729861701341662e-001
      1.1079859397845257e-001 2.9794813983120583e-001
      5.0333721150244780e-002 -6.0849826201490346e-003
      -2.4528112075299435e-001 1.2098309681806911e-001
      4.6182921346547706e-001 9.0883206635009622e-002
      -2.7062592826701121e-001 -8.6501580796404098e-001
      -1.2905130984390892e-001 -4.1426606458750653e-001
      -1.7065322038463873e-001 7.6548202518038594e-002
      -9.9614747872128692e-002 2.4783104436768105e-001
      -3.5561016914166932e-001 -1.4972077587357767e-002
      6.1234335688549912e-002 -2.1461266178763758e-001
      -1.3640339503024232e-001 1.9993157556639904e-001
      -4.4302182200125056e-001 6.4442967123496536e-002
      1.7492163771846889e-001 2.5075284885745280e-001
      -2.6914077068658010e-003 -2.7949106741831726e-002
      -2.6102043365032035e-001 -1.8128512965236449e-002
      1.9695075052983818e-002 -1.8559264047357377e-002
      -3.6095290952565429e-001 -3.2064664182532635e-002
      -1.4944157279692816e-001 -9.7362395927923298e-002
      6.9242164411986953e-002 1.7585273159430595e-001
      4.6906223048673468e-001 -7.9884771660172040e+000
      2.4060623293910707e-001 -2.6828790325532786e-001
      -5.4288739668637676e-001 2.2896942288089439e-001
      -6.7194977480731305e-002 3.1945053673328883e-001
      2.7033204970653160e-002 2.3623986485570547e-001
      -5.4167803755426214e-001 -1.6006836728427537e-001
      3.8193454267804038e-002 1.9846419262225825e-002
      -1.0209011298763022e-001 1.0788991788559872e-001
      -4.6998093088620702e-001 5.6418757357500411e-002
      1.9793007231786611e-001 2.1851159627023736e-001
      3.1740119631879726e-001 -9.1682554019873672e-002
      6.3279100751389719e-002 -3.3650295176601280e-001
      -1.4111441461663587e-001 3.5424171722040365e-001
      9.4445652324286797e-002 -2.8090544123467254e-001
      1.3124294789116758e-001 4.1049838491636454e-005
      -2.6864265618344145e-002 -5.5676734320268939e-001
      1.0494309496484316e-001 2.5242955853347304e-001
      4.3739404405066185e-001 -1.2522612638424374e-001
      -3.5655586691431107e-001 1.7747374430499764e-002
      8.2871725396941698e-001 -8.3254439414081019e-002
      -1.3568593593132144e-001 -1.6713255900400931e-001
      1.4958041673847630e-001 -2.4613765780394781e-001
      1.5550781989723395e-001 2.6516790429723941e-001
      -3.3466143227940065e-001 -2.0461183073332806e-001
      -3.2413638202149125e-001 1.0834699670489979e-001
      3.5528804965326433e-001 -3.8675751470351999e-001
      5.4276323247900904e-001 -4.6477870830919632e-001
      1.1667307598084504e-002 -2.4602215919982257e-001
      4.1402403694355361e-001 -1.5141092332656311e-001
      1.8673618268466385e-001 4.6322295843918677e-002
      -2.0035330734287718e-001 -3.5486513576443862e-001
      6.0978078819556948e-002 -5.9843101329397730e-001
      2.1121362401150770e-001 2.6961453778523544e-002
      2.6293426032616046e-001 1.6533162792861075e-001
      7.8478414303544380e-002 -3.4484134277412071e-001
      -3.0530819680029064e-001 1.2819268802961023e-001
      3.6654794135629054e-002 -2.4621392953600646e-001
      4.2253410902111049e-001 -4.1673955237898053e-001
      -2.8116821640930750e-001 -6.9492666319132769e-003
      5.7535219087042966e-001 -2.7814701124715713e-001
      -3.1510144851845549e-002 5.6913025530277572e-001
      1.2368798800374148e-001 1.2310298952157440e-001
      1.6624269591911600e-001 -1.9673587848177432e-001
      5.1224068958255886e-001 8.4594361028554277e-002
      5.7547431934890581e-001 -2.2233920798448528e-001
      -1.7933640684848476e-001 -6.6832575918639481e-001
      4.1385591016254664e-002 -2.1590318778432657e-001
      -4.1908921624862872e-002 -5.2140113579262037e-001
      1.2778895338135488e-001 2.5402480633394003e-001
      -1.0026407172501477e-001 -1.7748473149239427e-001
      2.3879722922382640e-001 2.8678046244344065e-002
      4.8253657827435259e-001 -1.5487610803178753e-001
      2.4030496787499878e-001 -2.0147586945269264e-001
      -2.1195622529116004e-001 8.1855938267877992e-001
      -2.4170401215086576e-001 -3.2608614914259273e-002
      -7.7848447413323396e-001 7.3366701717913749e-002
      5.7395245074773456e-002 -5.5918950622947683e-001
      2.8599943026429347e-001 -1.9024851658414596e-002
      -1.6230501779986601e-002 -4.9649753111076533e-001
      2.8479721304647571e-002 8.6114652139658368e-002
      3.1866991707325119e-002 5.3180542211733704e-002
      4.2819028636202816e-001 -3.7292828410207035e-001
      2.5160208310126270e-001 -9.3069580291538806e-002
      1.8687820084911599e-001 3.1577880109590972e-001
      -4.8656102440572096e-003 -3.2260243433558988e-001
      2.2579688480866736e-001 2.1975093256975003e-001
      2.4318455737150763e-001 -1.2388308854017027e-001
      -8.2489622770793067e-002 -3.8447175957630286e-001
      -5.9824878048914032e-001 -2.8858171859928443e-002
      4.0125415777520257e-001 -4.5726549087488050e-002
      -5.7702891001232990e+000 4.6887361421662888e-001
      3.7824295417110854e-002 -4.0166549393325357e-001
      2.8429762338305781e-001 1.0598751295389484e-001
      2.6899087764878166e-001 5.9781900937082785e-002
      2.9154445166040577e-001 -3.9684968561899009e-001
      -1.9768684008143636e-001 1.9846134439964291e-001
      9.5014352701748503e-003 -6.9224916618739685e-001
      2.4468405836915971e-001 -1.5610952602409756e-001
      1.5563190744107847e-001 4.3290935673765601e-001
      -1.3234541967204777e-001 3.0929854277951413e-001
      -8.5319920969871663e-002 1.6734396904438346e-002
      -1.3586909483157672e-001 -4.3436928986631812e-001
      2.5149737857428622e-001 6.5056322096445046e-002
      -3.1781017500327430e-001 6.7482957264487886e-002
      5.2369321356307792e-002 1.5965204347369952e-001
      -6.9066832009642221e-001 1.1317912996249456e-001
      7.5133712539332737e-002 2.9602150167250363e-001
      2.3514286449161086e-002 -3.3610734413807208e-001
      1.6933383775636837e-001 1.0053663906716594e+000
      1.6962466854436595e-001 -1.0622760162881213e-001
      3.9795262178009799e-001 9.0529047000031435e-002
      1.3448129287861989e-002 -3.7012749770736786e-001
      -3.8590479169873670e-001 -8.1803142067702103e-002
      2.1061022642986899e-001 -2.2163567424237943e-001
      -3.1998713817595524e-002 6.4728179766298866e-001
      1.0592105204810336e-001 7.5150763468833071e-001
      -3.6854871561768932e-001 1.7757265635546879e-001
      2.5621610199615752e-001 4.2361364067367813e-001
      1.6693607366917906e-001 -2.7345923182399534e-001
      3.1381857607635205e-001 6.1981071907347670e-003
      -1.6223608576526630e-001 1.0659375919779740e-001
      -2.7863605777287703e-001 3.0804723679621926e-001
      -9.8459037641160131e-003 1.0544345422724177e-001
      3.5900183115609585e-001 1.3499329474048677e-001
      -2.4907851577171186e-001 -1.4444036006503033e-001
      2.7617548054905861e-001 5.7466667021363349e-001
      1.8006001554099871e-001 1.3436479580309713e-001
      -4.5191719183050622e-001 -3.9603544388028522e-001
      3.6281478605059686e-001 3.9910624052924748e-001
      -5.8746582471729272e-002 1.0693619141725379e-001
      7.7258597988019140e-001 2.2361773842413113e-001
      -8.2492332384894729e-002 1.8670736236442897e-001
      -3.4541431421637625e-001 4.0798951839861358e-001
      5.3239559817011553e-003 7.8617390939088938e-001
      1.8334503850084696e-001 -1.4082909834981205e-001
      -7.9962573933783221e-001 1.7758643836677129e-001
      -3.1897773026997372e-001 -5.8477185146148296e-002
      -8.1069400414439363e-001 2.6064975093286696e-001
      5.2273878847817346e-001 -2.8390042932551751e-001
      -5.9325574911010225e-002 3.4322688382485284e-001
      8.3730648173954120e-002 6.6258314500150373e-001
      -1.2665845559021682e-001 -8.2446811180203514e-002
      -1.5828032502257577e-001 -7.2652050091098130e-001
      7.0749450961507565e-001 -3.3414553923423390e-001
      -4.2019166844148709e-001 -6.9694215288059125e-001
      2.3149080269235273e-001 -2.5595118285079732e-001
      -5.9671265744570978e-001 2.8352159404250860e-001
      -5.4498586048342137e-002 -4.1873704753647698e-002
      -3.2881444309416408e-001 -1.3207518720290237e-001
      1.9557126902553477e-002 -3.0098902153719048e-001
      -1.8146028321796881e-004 4.6521260114299695e-001
      -6.8546228598891790e-001 8.5411991207373389e-002
      -1.4695574479256690e-001 1.4224326911106538e-001
      1.2581668348972669e-001 2.9288873464032661e-001
      -4.4616587332257757e-001 8.9367067814820539e-002
      2.3758025642486635e-001 -1.4912304652932226e-001
      -1.8033535871581644e-001 -4.1182764345261046e-002
      1.4551693325393475e-002 -6.0473758072630390e-001
      1.3672506439584745e-001 8.5376701872718674e-001
      -1.5069062657462962e-001 -3.3039175667224714e+000
      5.3245332805611623e-001 -4.4213450727083609e-001
      -5.8677853521501552e-002 2.7607756542338974e-001
      1.6309125176059122e-001 2.0823621925952199e-001
      1.9095293042653336e-001 2.2130408652589431e-001
      -1.5637945430692146e-001 -2.1549969269883543e-001
      1.5838306405560049e-001 5.2384252945532568e-002
      -7.4772203574880713e-001 6.5290500505810214e-002
      -1.9232300690389087e-001 2.0543635550832307e-001
      4.7225829672181474e-001 -3.8912204037518239e-001
      3.5939431700408070e-001 2.1653981390182700e-001
      1.2988267814481935e-001 -4.0102721261720925e-001
      -4.8362710243180296e-001 3.2123940115789551e-001
      1.4406062433427166e-001 7.3969399263103086e-002
      -3.3026168928639071e-001 -1.7701568451448657e-002
      4.3199662524370175e-001 -3.3367133097981688e-001
      2.6747104153354279e-001 2.5805270023190557e-001
      3.1541405339849553e-002 -8.9699617880767413e-002
      -1.3421918398881622e-001 4.0866170213812322e-002
      1.1220769052222155e+000 -9.0150524286139538e-002
      -6.1757177757851061e-003 3.0211145799737416e-001
      2.6804253352098673e-001 -9.3995068285823648e-004
      -2.5618135569945649e-001 -5.1851968908342383e-001
      -2.9537739634128496e-001 -1.2497151442810986e-001
      -2.7696403227407157e-001 5.7822179235701293e-002
      4.7844137274978360e-001 6.5606648744243337e-002
      8.5845544849562494e-001 -3.1798832261762067e-001
      -1.1849669281727621e-002 -2.7642471188765987e-002
      2.8454706730266843e-001 7.7789790581388962e-001
      -5.4766385495625902e-001 3.7793874941530031e-001
      6.3633571230786456e-001 -2.5354156255003479e-002
      4.4678770385314849e-002 -6.9998834579609792e-001
      2.9573241870091854e-001 1.9665492261258022e-001
      -1.6320919752872418e-001 7.0576356270231766e-001
      4.4599832570168474e-001 -2.7776433476077361e-001
      -8.4054028762693092e-002 1.2352482710112281e-001
      2.8105203491444275e-001 2.4966214210353985e-001
      -5.3833410373756482e-002 -8.0380499003810624e-001
      -1.2420783110617548e-001 2.1554746467585001e-001
      2.2563239021699388e-001 1.4393786293013086e-001
      -4.9374319689102325e-001 5.8798155110946360e-001
      2.6880287037201256e-001 -1.9730322383101895e-001
      3.2075887020217221e-002 -2.3441754435988263e-001
      3.5808529829659486e-001 -7.3262972305180807e-002
      9.0544658940910316e-001 3.0626116290373934e-001
      -5.1210834081561997e-002 -6.1986181513438776e-001
      1.5108680200347666e-001 -2.3298307488052380e-001
      -2.1095258735854033e-001 -4.1409922875555233e-001
      3.3747937376595172e-001 6.1148132225323082e-001
      -2.7465688030101754e-001 1.7240983118711342e-001
      2.5510942564104622e-001 -3.6670111449731757e-001
      4.6763798289161879e-001 1.2037166858650911e-003
      -3.3374762030483646e-002 -3.2442911060499208e-001
      -5.4716655519029211e-001 3.1849888671550858e-001
      -2.9811780405131560e-001 -4.1073813941472004e-001
      -4.4228661051557555e-001 1.6938370943240469e-001
      -3.2621848340461157e-001 -2.7924006078940700e-001
      1.4029957718758232e-001 1.9115056997868421e-001
      -1.5659942657587030e-002 -1.1647909591114880e-001
      -1.0108967902000442e-001 -1.7243708189433704e-001
      -1.3812762451311641e-001 1.4172802582694932e-001
      -2.2369901016132451e-002 -2.8409598381025608e-001
      2.2874250021313489e-001 -1.8609759475213974e-001
      3.4709781362730463e-001 7.6919795610835437e-002
      3.7916542959309174e-001 -2.9846448506712708e-001
      4.1602255049365422e-001 -1.1567519793122302e-001
      -2.5353705770717161e-001 -2.6213635713550310e-001
      2.6042207610699430e-002 1.0053497476683450e-001
      -4.8964118435455334e-001 -6.8024038061160905e-002
      6.4297859771148291e-001 -2.9628415125749968e-002
      -6.9805626575753776e-001 5.1050352741184579e-001
      -4.3287566061906307e-001 5.4992978416709271e-001
      -2.0937909961650361e-001 -6.2743270811838225e-002
      -3.1708578624563322e-001 3.1223998758111898e-001
      1.5631738195571659e-001 -2.8970016088820844e-001
      -4.1483918789011143e-001 1.9941120546340269e-001
      4.1587273986370882e-001 -5.2882053393689499e-001
      1.2335480733978246e-002 3.3085412336082409e-001
      -3.8704140418366445e-001 4.2220526376960332e-001
      -5.8097607851993360e-001 -1.9822892182653571e-003
      3.3117884942889170e-001 2.5322598046680311e-001
      -1.4265253182070425e-001 -2.3575239272909290e-001
      6.7343780187192548e-001 -1.8006443640122791e-001
      -4.9753317438421396e-001 3.2546175383229631e-001
      4.0142916756610642e-001 3.0128787517175110e-001
      1.7568553143787835e-001 -4.5755602655498821e-002
      2.9841991466627160e-001 -3.9725303720239236e-001
      -2.9522658124760931e-001 3.6626577809142324e-001
      -3.9395300171017894e-001 7.7890701998964218e-001
      -3.3513508778266465e-001 1.1862251115716273e-001
      6.1164347871414215e-001 2.4126594194986359e-001
      -2.9161501251221644e-001 1.8067141527724029e-001
      -3.1425527331215170e-001 -1.2846693374008580e-001
      -3.7471050616955470e-001 -4.1862489839813466e-001
      -9.8658564563527368e-002 -3.2474903784821429e-001
      3.1565155592020229e-002 8.0176379468545955e-001
      -4.5280898776405065e-001 1.0361624411447658e-001
      -1.5667486262112740e-001 -1.2277542091249320e-001
      4.1212264952830585e-001 -4.1031327005233248e-001
      1.4794934923083211e-001 2.1578792496620156e-001
      1.2934222898226991e-001 -1.0391366469048174e-001
      -7.4636892328142901e-001 1.4795502184944828e-001
      -7.6476427475621644e-001 -3.5625238283295868e-001
      5.2378670021390827e-001 3.9042015587092027e-001
      -4.7754533020637235e-001 -3.5899861961642393e-001
      3.1122086246518105e-001 -2.4334223244589968e-003
      -1.0644906968243097e-001 -2.7794410175742706e-001
      -6.3581917888248884e-001 -5.6535932611526196e-001
      -2.2139465544841519e-001 1.4249950916249773e-001
      7.0262764167917199e-002 -4.1313061839973925e-001
      4.7912400291752100e-001 3.4219487673320448e-001
      9.5189783709961742e-002 8.8074838890126739e-002
      -2.6585858632586773e-001 -1.4166345835733804e-001
      -1.0365080411715759e+000 9.8440789045253108e-001
      4.0102534481248991e-001 7.4454500886006088e-003
      -1.1921756561456709e-001 -5.3646206271091630e-002
      -2.6187822765965352e-001 1.4124243016747023e-001
      -2.9527911892724668e-001 4.0289848996485872e-001
      4.3665526068907758e-002 -1.7188031678529977e-001
      7.4522886123357834e-002 2.4861287501449841e-001
      -3.1039702325413054e-001 3.7254999760134472e-001
      -2.3566443484429014e-001 -1.8883543471722575e-001
      1.8483812874812923e-003 -1.3374784097807507e-001
      -3.5963593278732539e-002 -1.4474496320444802e-001
      -5.4942998887079608e-001 -1.0864128775404812e-001
      2.7901634205650722e-001 -2.2723804917332491e-001
      5.9747977212646235e-002 1.6366041930268271e-001
      2.9492883399744357e-001 -1.1898974342571245e-001
      5.5686381033377336e-002 3.8872157875598640e-002
      -2.1850436141682941e-001 7.7797500891377044e-003
      3.1345905107105311e-002 -3.2870559053446619e-001
      8.1584782200076807e-003 4.0753932763352374e-001
      -2.4038430061885319e-001 2.4691493792848329e-001
      2.3324678788472145e-001 2.8409464827363928e-001
      3.3010404122458648e-002 4.7185114602596212e-001
      2.4221272253474463e-001 -6.0156351646427375e-001
      -6.2314324397038390e-001 -5.0915222667002413e-001
      2.0099226282498764e-001 -4.6537236721615144e-001
      -2.5279022502012610e-001 3.0794780848326059e-001
      -2.0351905093928777e-001 7.1629373962676002e-001
      6.3893003758500622e-001 -6.3930262767119261e-001
      4.6068582185239443e-001 1.6717091924753913e-001
      -1.7996404103807293e-002 -6.1210534637579639e-002
      2.9260686396577257e-001 1.4423768304792989e-001
      -4.2047807128133741e-001 -2.2816577021840667e-001
      3.0919385896960194e-001 4.6825191947343947e-001
      -2.5606621173103261e-001 1.5588101330842907e-001
      1.6625188299928068e-001 -7.9155281208232287e-001
      6.0919975423311790e-001 -6.2867538403699441e-001
      -1.6511747692617745e-001 4.5361782826801078e-001
      1.5548072327966839e-001 -1.7748541280913258e-001
      1.4004466890436626e-001 6.5238395009610994e-001
      -4.8148793767346026e-001 -2.7396968206054484e-001
      5.2902773575576667e-001 4.4406882687554722e-001
      3.1615056347531886e-003 2.1208908157053005e-001
      1.1763099560924517e-001 6.7139241519788381e-002
      -5.6175878912823318e-001 -3.8164740747428072e-001
      5.3987465116227695e-001 -5.1580584510549288e-001
      5.5694604434626704e-001 -9.6181082624008718e-001
      -2.5699447032131240e-001 5.1045521017794759e-001
      3.7311318714299851e-001 -3.2257723486687584e-001
      4.5846834885954141e-001 -3.7014976515938813e-001
      3.9161132695042150e-001 1.9439137327369621e-001
      -9.7964958248809811e-002 -8.7165056696910506e-002
      -6.9649422585226439e-001 1.5886942308617433e-001
      2.4226855446376763e-001 -4.7249705676353670e-001
      -2.2440179224766274e-001 -6.0040161458959018e-001
      -2.1958608046151224e-003 1.7954938601979914e-001
      -4.0931590151764596e-001 3.1264956589820680e-001
      9.7063177856239458e-001 3.0129375026178667e-001
      4.7845071799123831e-003 -1.3431154200031201e-001
      7.8200265989268825e-002 -1.0881974758803497e+000
      -3.5753257219956325e-001 7.7747183106076145e-001
      7.5555261015332859e-002 -1.8211813128225937e-001
      -2.8133132103037439e-001 -1.5405701886499934e-001
      2.3759260153697642e-001 4.3295519328007591e-002
      -4.5425725878479428e-001 -7.7985460881132129e-001
      -1.8038166075425974e-001 -1.9850001154601282e-001
      2.9646322856775507e-002 -2.4132281512612880e-001
      4.6910047459188331e-001 3.2575606491127518e-001
      2.2417727686758024e-001 6.6616662326592371e-002
      1.3081842273428201e-001 -4.3700410881841845e-001
      -4.3971663091352392e-001 -1.1121174978453816e+000
      8.6837372716398453e-001 3.9750273175228024e-001
      3.1706298414454581e-001 2.0342606119123102e-001
      -3.7153698035919458e-001 -2.0089978047850163e-001
      -1.6850367761906751e-001 -5.5836206955114077e-002
      4.1421427342531308e-001 -5.0254629597695055e-001
      -3.1239713973879529e-001 -9.5794223333678222e-002
      2.3693018221263024e-001 -6.0045668659723228e-001
      1.6016760388324017e-001 -5.1653047614793356e-002
      -1.2106741459184837e-002 2.5607242408193548e-001
      8.5503388740585939e-002 -1.4184107763179124e-001
      -6.5194521867823721e-002 -7.5388360014084255e-001
      -1.7862784409070048e-002 1.0152941688880972e-001
      -3.0134878066892984e-001 3.8961404775695946e-001
      8.2056900009679634e-003 2.7546619042329495e-001
      -2.2792831840438510e-002 1.9969199544969754e-001
      -3.8605507102462472e-001 -1.9562588453105156e-001
      -2.9769711797015691e-001 -5.4994111180136911e-002
      -1.5542714951530354e-001 3.6046125463124606e-001
      4.6810444306669380e-001 -3.3575628535217877e-001
      4.0084042059194835e-001 3.7992974661253752e-002
      9.0278715096769047e-002 2.1977177827724598e-001
      4.3716610682436940e-001 1.5266425383306383e-002
      -6.7278741553203847e-001 -7.5378713237292028e-001
      -3.7365745429867592e-001 -9.1917684978137463e-003
      -5.3855419965347240e-001 2.2092080266538177e-002
      4.5147803407463927e-001 1.3966712186717214e-001
      1.5945993748493839e-001 6.7243982289600968e-001
      -3.7694231572883996e-001 3.2370178984436593e-001
      -6.1164383351437680e-002 2.8901575403365021e-001
      -3.2590864299049216e-001 -7.5951378523357954e-002
      -6.0077326830382610e-002 -3.4215015273116045e-001
      2.7529713850124538e-002 4.1381683339625919e-001
      5.3600035011812730e-001 -4.4658195242767991e-002
      3.0121790360480039e-001 6.2422979525562493e-002
      -9.6060570044959448e-001 2.2679640086503133e-001
      -2.3841401835977447e-001 -2.6832904001797236e-001
      4.9417787295238752e-001 2.7930522828253496e-001
      1.8615964956922647e-002 3.3102657762845761e-001
      8.3515710846370605e-002 -6.7965482435374502e-001
      -3.9624844465278430e-001 6.6243933658210152e-001
      2.4286240438200335e-001 -1.0940156305128723e-001
      4.2752701574161789e-001 7.3965188825138029e-002
      5.5281896780865633e-002 -2.6720531306107753e-001
      -2.2569827821083430e-001 5.4000924523356575e-001
      -3.8526848550481724e-001 4.8365077439756399e-001
      -8.2803712306365629e-001 -1.8872759806457015e-001
      6.4881937852553284e-001 3.9848202634363233e-001
      -3.5167192369340733e-001 4.5210363155694994e-001
      -1.3125263233221596e-001 3.8290051671139796e-001
      -8.5096548642590961e-002 2.1873575947124949e-001
      -1.3288546700069367e-001 -6.3583260584466328e-001
      4.6944722379003229e-001 6.9864390020420428e-002
      -2.1422804012131008e-001 -4.3270495533925320e-002
      -6.4684973682369984e-001 5.4008407288413780e-002
      1.9276244070387485e-001 -6.3563477771498211e-001
      1.6304055545657059e-001 1.0425759156787526e+000
      1.9614087205659861e-001 8.3654253073255705e-002
      -1.7949353048761160e-001 -1.2179944901477128e-003
      -9.2978762479677701e-001 -2.6092058726814099e-001
      5.6386762531969026e-001 -9.3465665620179619e-002
      -2.9293283040960333e-001 -6.3415649023583676e-001
      -1.4787583736272095e-001 2.3936968369146713e-001
      2.6802200609054815e-002 -1.4623515152440031e-001
      -4.5722409501943445e-001 -1.8954070467144546e-001
      -1.7131748076952510e-001 6.6307380045027037e-002
      -2.8115190454049777e-001 7.1941138478289912e-001
      4.5896337232212803e-001 2.3209515374713260e-001
      8.3757833674871440e-002 4.6737153372537657e-002
      -3.9210114386187506e-001 -7.7602810657010635e-001
      -7.6983123660426378e-001 7.1065529237736402e-001
      3.3727818326650777e-001 4.9137319143784525e-001
      3.8827414653426751e-001 -2.1912606364611734e-001
      -5.0869800961090117e-001 -2.5821222420197781e-001
      -2.9919505427659976e-001 2.6896731418764463e-001
      -6.7380004278064354e-001 -3.3330391634188711e-001
      -2.8606137783429975e-001 -1.0538174891725388e-001
      -5.3017086828719850e-001 -1.7372776422331085e-001
      1.8240504309232516e-001 1.9490011012993669e-001
      2.8829303912422244e-001 1.1443240847797517e-002
      -3.9600202474493518e-001 -1.0155576141275154e-001
      -5.0203623667552122e-001 2.5533427343671051e-002
      9.8099455643919323e-002 -1.2126407669646098e-001
      3.4446829038892729e-001 2.8644889673001989e-001
      1.7805808747442423e-001 -9.6634909760621265e-002
      4.3026920712603522e-001 -6.0734476588551989e-001
      6.2332272110983522e-002 -4.9880912456673776e-001
      7.3091928237935783e-002 -1.0158592443155172e-001
      4.0931013154425672e-001 -1.7315582770462457e-001
      -5.9221279181838204e-001 1.8196063685645664e-001
      -2.4756253578048376e-001 -4.3036765626040903e-003
      1.7131563578064113e-001 8.9020263516158396e-002
      1.4356752970799386e-001 -8.2775329723114421e-001
      -5.4807175913092221e-001 -3.6502090673800364e-001
      -2.0200150449299747e-002 -6.3864652020973178e-001
      -1.3304023984198826e-001 -2.3609418709292523e-001
      2.3306353300560562e-001 6.4548068811329806e-001
      7.7320147835546182e-001 -2.5551578715574691e-001
      3.5692619986814389e-001 -2.6422616926785828e-003
      2.0040113469181681e-001 -5.9930938199035688e-001
      -7.8333916516044100e-002 -3.4039830506660859e-002
      -1.8105940121961342e-001 -2.3395285952251854e-001
      3.2988902071782855e-001 2.9707362464060688e-001
      1.0513179272661638e-001 3.8690722196315341e-001
      -2.7332727471253863e-002 -1.0498209483698602e+000
      9.9066352177756958e-002 1.0298737835937792e-001
      -2.7666984625172075e-001 3.1670025688735692e-001
      1.9444669034135001e-001 -8.6178122870054330e-002
      2.8698939566156578e-001 1.8094179248413211e-001
      -7.8768478961929278e-001 -3.8264248628229464e-001
      6.8443505830956142e-001 3.9670008549317087e-001
      -5.2476452351719334e-002 2.2897375056238900e-001
      -8.2528547887018522e-002 3.6042495698427424e-001
      -6.0518041501884910e-002 -1.2282147840702916e-001
      4.4305028879781033e-001 -3.2418202009904301e-001
      4.0921860418745493e-001 -3.2010857520559821e-001
      -1.8825102322256379e-001 4.3527069064129714e-001
      3.4748527180942418e-001 -4.3544978822138214e-001
      4.6128344523211279e-001 -5.5476341543876886e-002
      3.3391056167798083e-001 1.9610734701125909e-001
      2.1019138318642977e-001 1.5430837854951626e-001
      -2.1220178265647222e-001 5.1929046404106616e-001
      2.4216371553559701e-001 -9.0335873804731504e-003
      -3.2821688167666219e-001 -3.0734734783163020e-001
      1.0238038090853251e-001 2.8566552331403938e-001
      -5.7718915613033672e-001 1.3669396139740500e-001
      8.2295350416385082e-001 7.0710972388237231e-002
      1.5479932911239319e-001 -2.6404888445400787e-001
      3.3994629300768076e-002 -7.9572592423950816e-001
      -2.4398462432150547e-001 3.6770509297981474e-001
      2.4827798243500128e-002 -2.7591570229871215e-001
      -5.0205220576597565e-001 -3.0404993760664845e-001
      1.9142223899125727e-001 8.3392545045323063e-002
      -9.9415232584426166e-002 -3.5386167790241840e-001
      -2.8408005036228134e-001 -1.4304550339312144e-001
      2.5609835809703069e-001 -3.0617969461700600e-001
      1.0828391572235914e+000 4.5894911671945327e-001
      2.6976517774238601e-001 1.4897191524426384e-001
      3.5333031587187765e-002 -3.3982178337866725e-001
      -8.5561290223861863e-001 -8.2127004432274364e-001
      6.6121677519314259e-001 4.3971031752259443e-001
      2.2886973642822867e-001 -2.3303199193635368e-002
      -1.3033737266813666e-001 -6.9680518830875815e-001
      -3.1846754811783257e-001 -1.8777877255491879e-001
      2.8982205292856350e-001 -5.1722748783043015e-001
      -4.7485084414106965e-001 -3.5573800525205751e-001
      -6.0472881902392646e-002 -1.4480217463117279e-001
      -1.6536235414720268e-001 3.6718827647361847e-002
      2.8656842814785860e-001 3.8585346475191240e-001
      -3.0169676737076385e-002 -3.3647241297127706e-001
      -5.8754150441108610e-001 -3.1770139469363773e-001
      1.6716875737655587e-001 3.7905701981624607e-001
      -2.5313781009152891e-001 4.4528748316392303e-001
      4.5918116166021411e-001 6.2632294319546353e-002
      -1.7764629534221629e-001 2.7255856987572308e-001
      -9.2360212375654804e-001 8.2521168653596239e-002
      -2.6739928276355912e-001 2.7766816379959514e-001
      -3.4898617739247642e-002 2.4796471341208440e-001
      -5.6704931997649574e-002 -6.6077009025884514e-001
      9.9439841969432216e-002 -2.2434353531788423e-001
      -2.4063478461025636e-001 1.5103013229515122e-001
      -1.0118679480233440e-001 -1.8667088168709584e-001
      -2.2470700335124358e-001 -7.8355216202814593e-001
      -4.0596218413165081e-001 1.9358105818919857e-001
      -6.5863496135515887e-001 -3.7217327877233214e-001
      -2.8067992552980725e-001 -1.3278146573332050e-001
      3.7210562242985828e-001 6.0660204661792183e-001
      -2.3617324294019701e-001 4.9163553679155078e-002
      -1.0768214228362731e-001 2.0462219000785645e-001
      -6.8069618986037606e-001 -2.7644142631959684e-001
      -1.5306531938628179e-001 1.3968598350032365e-002
      -1.7572342196577537e-001 5.6952510075731766e-001
      2.6735757641408520e-001 1.8413010726416107e-001
      3.4124647774718037e-001 -2.5710520935484804e-001
      -1.0408174196608433e+000 8.5857135257788819e-002
      8.4338927460435878e-002 3.6777389320672628e-002
      -9.6383719233127371e-002 1.6963112740629097e-001
      -6.7281654416891032e-002 3.5907317202191108e-001
      -8.4093934190476602e-002 -6.8177778386870580e-001
      -5.6669059183342363e-001 7.5758217027178409e-001
      5.9005400655128615e-001 -9.7185023087617020e-002
      -1.8156676373895334e-001 -2.2198251005990954e-001
      2.7693077970037255e-001 -5.2079898579184387e-002
      -1.4142583531702302e-001 4.1373185472589491e-001
      -6.7298661448006136e-001 2.0464961184535832e-001
      -2.3796024411889691e-001 -3.2664962077460624e-001
      2.3575213739694259e-001 1.5811284288758079e-001
      -4.5602879438924221e-001 5.2906065242181521e-001
      1.0478401878617963e-001 1.4009907905279764e-001
      7.9589025057782636e-001 1.6997698325710098e-001
      2.1355851131579540e-001 -3.4264536522704470e-001
      3.3817139530444856e-001 4.6208068520099822e-002
      7.7832049911199441e-003 -2.5837681821552927e-001
      -3.8759579514138331e-002 4.0204548924603822e-001
      -3.0399623995644065e-001 -6.1285166632264221e-001
      -1.2274423732841511e-001 6.9146938673835145e-001
      -1.6428565339115123e-001 1.2087942371978432e-001
      -2.0321521127477021e-001 9.0868894558949143e-002
      -6.0775931574567332e-001 -4.7205805679158347e-001
      5.0500959086476982e-001 7.2883130911221648e-003
      -7.0165156030227785e-002 -3.7071169527255637e-001
      -2.9362631259863725e-001 3.2804958830117525e-001
      1.3965089887046073e-001 2.8307314705885864e-002
      -2.0507929987678986e-001 -2.1973526707520130e-001
      -2.0249538063240402e-001 5.4378902342501045e-001
      -3.0495828118892687e-001 1.2393186791535902e+000
      4.2538136230680346e-001 -7.9273281008402988e-002
      -1.2154630223946840e-002 1.7684124420067915e-001
      -5.2066258789457442e-001 -9.7752462770071269e-001
      -1.2092219359339664e+000 5.4201287066538895e-001
      2.6620170191371184e-001 7.8599936461887648e-002
      9.6959234267864569e-002 -3.0469899090236060e-002
      -5.3609118055905269e-001 -2.0850695133248109e-001
      -1.3601414638722328e-001 3.0918177425835441e-001
      -3.4732397191577907e-001 -4.5016293471633406e-001
      -4.6442241400926576e-001 1.8776709396980767e-001
      8.4210294414292966e-002 -1.2203407345858791e-001
      4.3544784014045894e-003 -2.8526182678065570e-002
      5.7642506588564690e-001 2.6665111630979782e-001
      -3.1755465783077025e-001 -5.7482807043169581e-001
      -5.2614649924956836e-001 1.2881154579501067e-001
      2.6163731689374120e-001 3.0604121269675485e-002
      2.8806511102432497e-001 2.8125522695140331e-001
      1.5994166783824348e-001 2.3939976076055320e-002
      1.4615800171975107e-001 -9.6567290733274347e-001
      1.9080560445689715e-001 -7.1369847427928040e-002
      4.5576976501579691e-001 4.0629455676703188e-002
      1.7798179553788235e-001 -2.1132441543337707e-001
      -7.5059141624227244e-001 4.9965770747388019e-002
      -1.2253290585391143e-001 -3.3586813355826706e-001
      -1.5180990567828952e-002 -4.3082960474146248e-001
      7.6971093625637449e-002 2.1275197336954677e-001
      -4.4932975941765091e-001 -2.3462557130243464e-001
      2.3608562180179671e-001 -8.4664848834027218e-001
      -4.2949503334870609e-001 -4.0028983326348089e-001
      -3.8331444732977243e-001 1.3979788286983037e+000
      6.2488303671328727e-001 -3.1454546014669560e-001
      -1.6271136206168155e-001 -6.1467702197284334e-002
      8.0084306789520776e-002 -9.0371268887464229e-001
      -2.9030710194021964e-001 -2.8571078974422831e-001
      2.2272197021927821e-003 -1.9943890414660639e-001
      4.1025579617934205e-001 3.1367378536864787e-001
      2.3642730565451503e-001 3.6969111017807182e-001
      -2.1643834123697100e-001 -1.0485280427343515e+000
      -2.4292685638292479e-002 2.7102460264855504e-002
      -1.2709569676782634e-001 -1.5559556791718171e-001
      2.6395055957748886e-001 -5.2623942937543189e-002
      3.3254356815794656e-001 2.5417101987946503e-002
      -7.1688476324352557e-001 -3.7694554503637157e-001
      7.0107300139509476e-001 7.4981260926781834e-001
      -3.8251588922687718e-001 -1.6714459658423544e-001
      -1.5211227224326682e-001 2.3342406644120195e-001
      1.8347462314691230e-002 -2.3028843755551348e-001
      5.6418123225018602e-001 -5.7260579507677067e-001
      1.7743561998482410e-001 -4.0302685151136591e-001
      -2.5636332684159091e-001 1.2193077077321292e-001
      7.7614710130339701e-002 -2.7569488855017599e-001
      5.3476190342489738e-001 -2.8921959089096651e-002
      3.5517914593205435e-001 8.9191421611699806e-001
      2.4189134006494614e-001 1.4001361461286410e-001
      -4.9615766497312186e-001 4.1259273081937076e-001
      -1.8248781397503336e-001 3.2165952593057205e-002
      -2.9396536888286812e-001 -6.9728328639104054e-002
      4.5168980086674987e-001 -1.8092209060757111e-001
      -4.3386880057437838e-001 -1.2126408990910434e-001
      2.6612478038505827e-001 -2.9342263295794474e-001
      7.6758712474663163e-002 -7.7723810208991551e-002
      1.1322836550909780e-001 -7.7196176679781714e-001
      -5.7565116826658469e-001 4.3713742628783153e-001
      -2.2112550162377734e-001 2.3520277937846942e-002
      -5.2992646733307391e-001 -3.1034500774657581e-001
      3.8527686742832623e-001 1.1391608582459901e-001
      1.2184268361193962e-001 -1.2509348825389000e-001
      -3.4187639279600490e-001 -3.3839849350920187e-001
      6.1638282597753702e-001 -3.4437843458629963e-001
      1.3025588061903584e+000 2.1614324983240099e-001
      -1.8280127356558040e-001 -6.4441066596646307e-002
      4.7079379719970928e-002 -4.6960702382504299e-001
      -9.1795628846841859e-001 -1.1329202859438321e+000
      4.8534359101926015e-002 2.1743366940555317e-001
      1.8198464448073728e-002 1.3834380588814729e-001
      8.2242659653191802e-002 -2.6644700896702378e-001
      -1.1619696991821475e-001 -4.0619122348247805e-001
      2.5590493161697064e-001 -2.4422008208118753e-001
      -4.2452791368255349e-001 -5.3067685612700810e-001
      1.6990796617641404e-001 2.2528439050434107e-001
      -1.0124633587175624e-001 2.3445072286774657e-001
      -1.1858787963470119e-001 4.9509666633771704e-001
      6.9010268549410869e-001 -2.0621674669169160e-001
      -5.2954554340530102e-001 -5.1739101422166078e-001
      1.2785950474248001e-001 4.4243643892474455e-001
      2.5320926616500905e-001 3.2347834396546404e-001
      2.3153729401994011e-001 1.9441593421525941e-001
      3.3326378918090017e-002 6.9623783372446471e-002
      -9.3876100789873118e-001 1.9244965592007801e-001
      -1.4211825580208010e-001 5.4895736586184307e-001
      1.1687057022657539e-001 1.5094180891332784e-001
      -3.1099454653996661e-001 -7.3870472976074286e-001
      1.6164809576428524e-001 -6.7280470864315267e-002
      -3.1544025412616494e-001 -1.7663034952976105e-002
      -5.1122508954379831e-001 4.0788265061977934e-002
      3.0470884602301623e-001 -2.4054755771163744e-001
      -2.4181568292883787e-001 5.5114971651113742e-001
      -6.4127155252613088e-001 -4.9570603662092377e-001
      -4.0414287509877550e-001 -2.9919409987353446e-001
      7.8726731798838090e-001 5.9248047883573929e-001
      -1.7334325989796959e-001 -9.4522072825391074e-002
      -1.9999418220073042e-001 1.5331036158974429e-001
      -8.8404751266215986e-001 -3.4447976934086871e-001
      -2.6195521915793141e-001 -7.6870548797434754e-002
      -1.0498627102877700e-001 3.4949412075522857e-001
      4.2441336373097560e-001 1.4286581001776630e-001
      3.6603170929473550e-001 -1.9230543355575158e-001
      -1.1384999164647289e+000 2.7512614492361545e-002
      -2.4485991298041954e-001 -2.7265210824066666e-001
      -2.1823229668374680e-001 2.0204544620512171e-001
      -5.0687407884617557e-002 4.1936747467818064e-001
      -3.3409034355203052e-002 -6.1249515767320062e-001
      -5.0199922481480086e-001 7.0547920901437644e-001
      7.3842887976652372e-001 -9.9731039288668250e-002
      -2.6082603121602199e-001 -2.0572058628156811e-001
      2.0108898524466731e-001 -9.0407137639102922e-002
      -1.4575317752360226e-001 7.7757984164081451e-001
      -6.6689269149625885e-001 9.4077275695313156e-002
      -3.7296871983040036e-001 -3.7305763761449874e-002
      1.6230497898685006e-001 6.6159532932924828e-002
      -5.2555584035625824e-001 5.1503166810580692e-001
      3.7888422231879909e-002 7.7767240939274146e-002
      8.2592809605012163e-001 6.2628956270719032e-003
      1.2017352654162482e-001 -5.1690484210484799e-001
      4.4161221162075648e-001 -1.7377979422309206e-001
      1.6611529145646226e-001 -7.0203712310503499e-002
      -1.0301698610674072e-001 4.3758495159204780e-001
      -4.1577088009736740e-001 -1.1500994693574457e-001
      -2.8110846920127835e-001 2.6647774119084999e-001
      -1.4602219960440696e-001 8.3814575820007238e-004
      -2.7029409102279786e-002 2.9288240518494785e-001
      -8.0887652824636891e-001 -5.9674665394588311e-001
      5.9080434473744359e-001 -4.7927502738269251e-001
      -8.4708987162381802e-002 -4.5779737348086563e-001
      -4.3202927420609122e-001 4.5059051683047691e-001
      1.6102371496239490e-001 -7.0477479141517890e-002
      -5.9564530631987168e-002 -5.2074486919288321e-001
      -2.1088334663382313e-001 5.2039324199702419e-001
      -4.5385330291553277e-001 1.2158573811772049e+000
      3.8670852154970203e-001 -1.7064597998453146e-001
      -1.7978008859477868e-001 1.6404442697280461e-001
      -4.3231209214833605e-001 -8.9764703830445680e-001
      -1.0502065785232584e+000 1.9982674783885671e-001
      2.7533965843689057e-001 -3.4734161499861936e-002
      2.2750639807407430e-001 9.0432481984454582e-002
      -6.5105319313141133e-002 -5.7312095948069117e-002
      -4.3604447676948171e-001 3.9600462260103508e-001
      -2.3374000047556398e-001 -5.0019838326923272e-001
      -7.6257420339599280e-001 2.0797492344116089e-001
      2.6804258230722350e-001 4.9636028282292466e-002
      2.1673818385156121e-001 -3.4007831269615296e-001
      2.4393226999595277e-001 6.8160052355618328e-001
      -3.3529393739692170e-001 -4.0409801225315672e-001
      -4.8617577844388959e-001 6.9050150475303052e-002
      4.9426936922988340e-001 2.7260133271673997e-001
      4.3592545305781066e-001 3.4773603855288610e-001
      2.7719144243072252e-001 9.5663922299497925e-002
      8.7904066055328883e-002 -9.9568115549707159e-001
      1.3394869946684992e-001 -3.7561968331544909e-001
      5.7537662202781770e-001 3.1199191913347751e-001
      1.0320831347870560e-001 -4.0978565087077640e-001
      -7.8110264585284994e-001 3.2597350133982655e-001
      -2.2951690828304228e-002 -4.2700748033829450e-001
      -1.0407586991097210e-001 -5.3949144468399757e-001
      1.6757427294583993e-001 2.6051230289048322e-001
      -6.3066078066397455e-002 -3.2575292343978113e-001
      6.6480662849711947e-001 -5.7813902587607746e-001
      -5.7026741561892413e-001 -4.1528552936914015e-001
      -1.5430282567314149e-001 1.3312607543561970e+000
      -1.2675990714806878e-002 -3.7775030821467481e-001
      -2.5626612743050026e-001 -3.2381860764609477e-001
      2.3917816175034395e-001 -1.0226984045947971e+000
      -2.5047671410515782e-001 -2.3523721537509928e-001
      -8.5593806904935024e-002 -1.4207314945692998e-001
      3.1641800967187383e-001 2.7792416030256106e-001
      3.7504529608659931e-001 2.6566238829806221e-001
      1.6966467674138785e-002 -8.6464332098497410e-001
      -8.8074432375868667e-003 -5.8765510384030950e-001
      -2.0277360522121712e-001 -2.7960584505301578e-001
      2.0881632443304712e-001 3.2312439023076639e-003
      2.4803659440964421e-001 -1.0636340682976956e-002
      -5.3166750540147589e-001 -4.1185888487338507e-001
      7.1206543874179140e-001 4.8039875766224610e-001
      -1.0631469964236924e-001 -2.4071697825185218e-001
      -4.7791944980113682e-001 4.8091606619845195e-001
      2.0171880910077242e-002 -7.0113831810013377e-002
      6.7987838638634701e-001 -8.6262570104861347e-001
      3.4649493638109868e-001 -7.7967538009663481e-002
      4.6882983421323889e-002 -1.5857671550911865e-002
      1.9589137161336698e-003 -5.4175552326217857e-001
      4.7666342761796926e-001 -1.7441288606076112e-002
      1.9524475003610875e-001 5.5803564645330439e-001
      -7.1512569703130927e-002 -4.9496623439709973e-002
      -3.7175292843759383e-001 3.9727880935806714e-001
      -1.4262160200492330e-001 3.2308169979556595e-001
      -1.1391734834850545e-001 3.4750234919114636e-002
      3.7286040034539625e-001 -4.1262032040562979e-001
      5.0193504738180877e-002 -1.0414357482957981e-001
      7.7283513711854046e-002 -3.2520218305356657e-001
      8.6580462754947449e-002 -1.9491818042727604e-001
      2.5382152678163333e-001 -8.2907047997967620e-001
      -5.5938487089846800e-001 3.7341457271947842e-001
      -5.5640015038872304e-001 2.6750432399211752e-002
      -3.0533130229637856e-001 -4.5241834645475243e-001
      2.8326839088454153e-001 4.2779949359735686e-001
      -2.6509634217359479e-001 1.7861734280012606e-001
      -4.2160978969187551e-001 8.4604766964101394e-003
      4.0822221329764663e-001 -5.4937888721271977e-001
      1.1912048800665642e+000 2.0366219555651516e-001
      -8.3393063390125255e-002 -2.4136836506807563e-001
      -1.6429407693427663e-002 -4.5707628011390228e-001
      -9.0301483290470430e-001 -6.7594629262347961e-001
      1.5846412552713454e-001 2.9911907426584927e-001
      1.1716742144585967e-003 1.1056075273092522e-001
      1.8595339907752506e-001 1.6392121418489336e-001
      -3.0379369239614653e-003 -4.2072132714850491e-001
      2.6408834692192168e-001 -2.5734256007216022e-001
      -3.4418217412802232e-001 -4.6825631369268883e-001
      1.3017314333846311e-001 3.6992884883934221e-002
      2.0661795253760112e-001 2.3176816871836359e-001
      -4.1854158916960926e-001 1.5923711453337738e-001
      5.7042624768720152e-001 -3.2519175644245557e-001
      -1.0720793831710804e-001 -4.2817010494602620e-001
      3.0978042855604265e-001 3.9126049812437985e-001
      7.9891302148943646e-002 2.9247784105607721e-001
      1.5695543070314300e-001 2.8597015428130168e-001
      9.4179100739697208e-002 9.9362768270389840e-002
      -8.3311507377337635e-001 4.1417020191868076e-002
      -2.0440424403656166e-001 4.4410615054809249e-001
      1.9537307766945905e-001 1.1364715730072106e-002
      -2.3538275129267278e-001 -5.2991803032834528e-001
      2.4104736531595261e-001 3.1087036832344356e-001
      -5.2361824656914169e-001 1.4608785174047167e-001
      -4.7501985244445832e-001 2.1185881749123012e-001
      1.2914710866312420e-001 7.1127937925652543e-002
      -2.9428572625819188e-001 6.5598821215098602e-001
      -3.8603783277200282e-001 -4.8264319026894009e-001
      -8.5498149062855716e-002 -4.1675909449232211e-002
      -1.8788745805979876e-001 9.1291806312248410e-004
      -6.9762709322537853e-001 -2.8851841574286130e-001
      -7.2600193196250912e-002 1.6252824972930693e-001
      -1.0188333301232153e+000 -2.3883224857408089e-001
      -2.3574675717547766e-001 -2.2719323926400528e-001
      1.2287679921935805e-001 2.5650763075421351e-001
      -3.3259128685522055e-002 4.0568772409824000e-001
      1.8719331276448936e-001 -4.8500426240397604e-002
      -7.4097719264414097e-001 -2.2704982372177707e-002
      -6.8079445005281947e-001 -5.8666460741581361e-001
      -7.5305152545160881e-001 3.2887386802767038e-001
      -1.7199913808232631e-001 1.7630445665298206e-001
      -1.9487803362080079e-002 -3.4352784307326478e-001
      -3.2417134883779175e-001 6.3303813552690968e-001
      2.9543349498409532e-001 2.1855909303090702e-002
      -2.6169462286307110e-001 -2.4523642041008595e-001
      4.7808629042395429e-001 4.9353961180629721e-002
      -2.2031302496655497e-001 4.8857880352234817e-001
      -6.2874289184660004e-001 4.1317233747419296e-001
      2.3669597599768336e-001 -8.8428573458542173e-002
      3.2246340680145180e-001 -2.6369624214461357e-001
      -4.2946630592845869e-001 -4.7679866581243215e-002
      -1.6056698582127535e-001 4.6901227398927509e-001
      4.5409810861657546e-001 -2.2796458859555804e-001
      -2.5445466462968402e-001 -4.3485006940628618e-001
      8.3084795984189252e-001 2.2172134815627773e-001
      1.1023297641515380e-001 -1.0208167795126945e-001
      3.7319925784118102e-001 6.0037542090449747e-001
      -3.5477841849252267e-001 2.2038728034144500e-001
      -9.1760039077590311e-002 -2.6584156123857239e-001
      -2.7607032045627911e-001 8.8121688553346289e-002
      1.1361103587512393e-001 -1.5064875399979116e-001
      -7.0619633163840922e-001 -4.6767071867818255e-001
      9.1577544700172708e-002 -4.8769236611353428e-001
      1.0530793733145558e-001 7.5934902654716660e-003
      -2.2672708174477132e-001 1.1613090099904055e-001
      9.8894491348979138e-002 -5.4605957491362644e-001
      4.0976762407780803e-001 -2.2699858576222909e-001
      8.8642116503735630e-002 4.0460010353848835e-001
      -2.7999985497778435e-001 1.0063763885095320e+000
      2.1045961819452469e-001 -2.5593526352808293e-001
      -1.3663328102815658e-001 -1.2619784505061121e-001
      -6.1459220967866190e-001 -6.5109495321616506e-001
      -1.5089471192875559e-001 -6.1166008858549607e-002
      2.6809300227660643e-001 1.2391169104154390e-001
      -1.6063534953940764e-001 4.5426865605107131e-001
      3.0909289455682953e-001 -1.6928378952655612e-001
      -1.1071221000102757e-001 3.0496839820258426e-001
      8.8219224706969385e-002 -2.1785402049981842e-001
      -3.1299234260869913e-001 2.2220571098539399e-001
      -1.5200912257972310e-001 6.9195710508335492e-002
      2.4898016522758185e-001 -5.4589626154513060e-001
      1.8265961156980731e-002 3.6645084696930724e-001
      -9.0220397552107146e-002 -1.2187095054468913e-001
      -2.9348138495649118e-001 6.3551523274146338e-001
      2.5907641694147943e-001 -1.5222000766252461e-001
      2.5242817252201788e-001 -1.7492143443384327e-002
      1.1200948039699930e-001 -6.2925442773113058e-002
      -2.0504097933912077e-001 -5.4603270224034040e-001
      1.7459552577241610e-001 3.8680730322085667e-002
      2.8520721624401063e-001 8.6002954541947829e-001
      -2.8521311180341780e-001 -4.6985061903584430e-001
      -3.0221974939604768e-001 1.7878673113466453e-001
      3.5368390908371894e-001 -4.8437289932557692e-001
      1.6640320521484453e-001 -2.2957576073127628e-001
      2.1143130138310257e-001 2.0131191681329277e-001
      5.5756627145872054e-002 -2.1710919715224042e-002
      7.2713478212643190e-001 -1.5900578361013601e-001
      -4.6158566497880782e-001 3.3173458532879002e-001
      -2.9293013473643298e-001 -2.2001902573457537e+000
      -1.7506696478869252e-001 -9.0270259762655813e-001
      -5.4129216591486184e-001 -4.8973183994497865e-001
      -1.5830844024639704e-001 -7.7337319396629900e-001
      -1.4700729634079332e-001 -5.2241665450076891e-001
      9.9794740940391077e-002 -2.8858555912460233e-002
      3.1928048760968059e-001 -4.2656773231318301e-001
      -3.5411040487013656e-001 5.1699127712590734e-002
      -1.5610764567628435e-001 -4.3107157935503054e-001
      -1.7694812645493424e-001 -9.4740066051941074e-001
      -6.4059656400483478e-001 -5.2184500031107672e-001
      1.0726754758583391e-001 -3.1696398547560273e-001
      -2.7818993088464244e-001 4.3142582255114476e-001
      -1.3356675332869902e-001 -4.7960963735551720e-001
      1.2909414374495254e-001 3.0854576999307504e-001
      4.6855410581416020e-002 -3.3373286428189264e-001
      1.1097179039273885e-002 4.6198160955105588e-001
      5.0266268183709724e-002 -2.5521586058890167e-001
      -9.4431851321519072e-003 -4.8073138230438900e-001
      5.4515709036370008e-001 1.0977332250095721e-001
      -3.8168696893485710e-001 5.9247173672724729e-001
      -5.8504901715644375e-001 -4.8864658379992637e-001
      -6.0400055521049145e-001 1.1641813660295927e-001
      3.9655947229773797e-001 2.8868626528462088e-001
      1.1098605527535137e-001 -1.9486921824395848e-001
      -8.9121626475160853e-001 9.0114015068045217e-001
      -4.0109792377278963e-001 -5.7517377828762296e-002
      -1.5717862141535865e-001 9.8495106668249788e-002
      2.4932412961761330e-001 2.3752812430316028e-001
      2.0945387082176287e-001 -1.8211444780552546e-002
      -2.1008401586359146e-001 -3.8026813243569696e-001
      -1.3582886564235211e-001 5.5868603852646392e-001
      -2.3755331688606177e-001 -5.8281778998995915e-001
      -3.4670522122330338e-001 -4.4750582384674586e-001
      -5.0942395353188130e-001 1.9750805367450577e-001
      6.9710839372212452e-001 -2.3426249274251162e-001
      2.1974890596376984e-001 -8.7892826105624072e-002
      -7.0013577310031427e-001 2.5987369743142755e-002
      -1.5851874985122286e-001 4.3281891575514730e-001
      3.0841345584524033e-001 4.2763285126775669e-001
      6.4766867242865711e-001 8.3107786329845265e-002
      -1.0234007903634508e-001 -1.5083271230802844e-001
      1.0549386705546561e-001 -3.8995093389113933e-001
      -4.4974363271320222e-001 -1.6653033946617127e-001
      -5.4785920852555814e-001 4.4626109531883912e-001
      2.2182510748165774e-001 -1.7573536526904909e-001
      3.5855492793757771e-001 1.2395714857772548e-001
      -2.4886746935278287e-001 -1.0927539237947320e-001
      1.5314139565077017e-001 -1.3654413547842520e-001
      -3.6104881086146323e-001 -3.3754902807314768e-001
      3.4114163667336266e-002 -3.1191342506348224e-001
      1.5880960913747294e-001 4.3809611914991181e-001
      -6.4765943739630594e-001 -1.0937861088311092e-001
      -1.2296923642012650e-001 2.5745198907834099e-001
      -1.0786940322569560e-001 -2.3087761793733877e-001
      5.1224485033763512e-001 1.8562924952316651e-001
      -1.6198785019240650e-001 3.1080318480606287e-002
      -5.7539654765302088e-002 3.0084918719482517e-003
      1.9381311159302445e-002 -4.3814783727356721e-001
      -1.3086731949852215e-001 5.4903108064366006e-003
      -1.0668339547956168e-001 2.7849129048557636e-001
      7.2868785103217126e-001 -3.9944887737568530e-001
      -2.8454987108017471e-002 -3.4635262587918475e-001
      3.3347615960760085e-001 1.2239053693387109e-001
      -4.0337290260349629e-001 1.2085506902322049e-001
      -5.5806823895877100e-001 4.5712770403088526e-001
      -1.0452893316827794e-001 -8.6967002999411860e-002
      5.9180795464320712e-001 1.0907209153524662e+000
      -7.0164001685379396e-002 -5.8275753827331456e-001
      5.7662435689815805e-001 -2.0747668107443357e-002
      -2.9951041864942396e+000 -4.6923965162083420e-001
      -7.0659363931907915e-001 -2.3650446109586640e-001
      -6.6270691918098235e-001 -4.5939027172566610e-001
      -6.3438604694318235e-001 -2.9783293800175153e-001
      -2.7185071594623411e-001 2.6157651837733031e-001
      7.0247444727761246e-002 1.5602449504452087e-001
      -3.5466289398104578e-001 -3.6185277702758090e-001
      -3.5575172565863983e-002 -2.0664795028610500e-001
      -1.0805442580491344e-001 -2.3397479087759521e-001
      -9.1306487049178298e-001 -4.1216494074240417e-001
      -2.2960345023476017e-001 8.0226855447973519e-002
      1.8984447868986939e-001 -3.5640689569738371e-001
      1.0370859645279198e+000 -9.9576622311303556e-002
      -2.9536212718493693e-001 8.4555614700605228e-002
      2.8781625179829484e-001 8.4159457310447432e-003
      -1.4266600728457347e-002 -5.9512627166361874e-002
      -3.3290365604406617e-002 3.2978502992363673e-001
      -1.2832793018272426e-002 -2.6616046220226969e-001
      -3.9097439921387939e-001 3.6422010865134496e-001
      -1.6470289813388278e-001 -6.4459652784330446e-001
      1.4203340346677991e+000 -8.8360570038283548e-001
      -2.9209308851378679e-001 -7.3710054274906378e-001
      1.5881605186465322e-001 4.2425598419792654e-001
      -1.9124088077994278e-001 1.6805880581596888e-001
      -2.8624977621802977e-001 -6.3748918861207926e-001
      3.6723254593643523e-001 -2.9413564321157049e-001
      1.5399061277885664e-001 7.1058735977146152e-003
      -2.1277608549725078e-002 1.8432907152871325e-001
      1.8990738376829391e-001 7.2064174380356938e-001
      -5.1737647940700231e-002 -4.5211756700547151e-001
      -2.3962620483131297e-003 1.0351439671354405e-001
      1.9248631124928806e-001 -6.6774441515728455e-001
      -1.5002824207268403e-001 -1.3382346284420168e-001
      -7.9182246327687089e-001 -2.2849847187708613e-001
      1.7114772233435571e-001 9.2185220148786085e-001
      -3.4796324314827398e-001 9.2840335477118285e-002
      -1.8638328007304092e-001 -6.7922623187768327e-001
      1.9510859940368735e-001 1.7290473841763104e-001
      6.1318087381758801e-001 4.7485049173617283e-001
      9.7345763489093728e-001 5.7841723038015203e-001
      -1.2611060455434717e-001 -1.9668060132044307e-001
      2.4610233714717957e-003 -6.9053617546169246e-002
      -2.7122752847643627e-001 -3.4660172631123687e-001
      1.9264808855593699e-001 -7.7420226187935093e-001
      9.1349267690413494e-001 4.0310976921423997e-001
      -2.2899943722926314e-001 4.8529723667389457e-001
      -7.0185191124548019e-002 -2.9609452454551177e-001
      -1.2259993986963610e-001 2.8236385131528940e-001
      -4.2695793217464761e-001 -2.9065735859490893e-001
      -1.4923384206483800e-001 -2.8731843445860805e-001
      -1.1937215417138559e-001 -6.6796672767046775e-002
      1.0070540986751573e+000 -6.2110360334014747e-001
      -3.0757045373361092e-001 -5.2764490136788300e-001
      3.7974513272653498e-001 -6.3311445720659887e-002
      8.9248300882402959e-002 8.7907776761193845e-001
      -2.5582601828270436e-003 -1.5718248030546572e-001
      3.3555051258301410e-001 -1.7636656732082037e-001
      5.1398412973116214e-001 4.4121046603818714e-002
      -5.5242638916713127e-001 2.7867006234498987e-001
      -1.8283718696049062e-001 -9.5437462710395757e-002
      1.0803500013069695e-001 8.5549652467357606e-001
      -1.2630290085037116e-001 -3.6159566357956968e-001
      -1.8338163291287674e-001 5.3254532171777591e-001
      1.1146245225016480e-001 -3.0880215517573634e-001
      1.1479269773929050e-001 -6.9290647101515501e-001
      5.5553035630762371e-001 2.1792332786790880e-001
      1.5274261693863300e-001 9.4938596088750771e-001
      1.0658001379256787e+000 -2.8851630174607362e-001
      -3.9931385193000390e-001 4.5369479858367195e-001
      -3.0385079436840587e-002 -1.9023862005977625e+000
      -1.0142747709270775e-003 -1.4628939238962416e-001
      -8.3883089662599733e-002 -7.3250499724596119e-001
      -6.4127918218802205e-001 -1.0017813209534959e-001
      -1.7273316937516450e-001 -3.4911366895699986e-001
      7.1961928824814086e-002 2.9134668513741918e-001
      2.5774849488780233e-001 -2.9250839004165108e-001
      -4.2900935134011442e-001 9.7766763092520678e-002
      6.9758899480199935e-002 -2.1246251041785208e-001
      -2.1011928579098216e-002 -3.1451914723224594e-001
      -1.1193670701016978e-001 -6.3630390163504391e-001
      -1.7629036620761721e-002 -4.7250449236981122e-002
      -2.4811775276017931e-001 4.9081393181015559e-001
      -2.1685605577340916e-001 -1.9148346804069361e-001
      3.0236156366278183e-001 4.1978277605392306e-001
      2.0873539347778036e-001 2.3432476001455843e-001
      -4.6118691869035423e-002 4.2726982363592549e-002
      3.1152492425433420e-001 -4.0544320465917341e-002
      -2.3906715123231789e-001 -4.1442747549584374e-001
      -1.3024289363820318e-001 -5.4280056997743231e-001
      -3.1997922122750933e-001 1.0551977792048475e+000
      -6.4762796540181045e-001 1.2349586191327198e-001
      -1.0954403424233117e+000 3.1605278860666225e-001
      2.4592568126603231e-001 2.5226629708368586e-001
      2.0524707756042448e-001 -2.3041919336465061e-001
      -6.7686865561632559e-001 -1.2966287761373088e-001
      -1.3412097032929338e-001 1.9571840266367035e-001
      4.2592588038252382e-001 -2.9048858891011071e-002
      1.4817222517743323e-001 -9.0960924603840032e-002
      5.0258761061287804e-001 -1.5762922838816046e-001
      -6.6090893001619944e-001 2.1503078612301313e-001
      -7.1445647262258605e-002 -1.4428292878073098e-001
      -5.4612472079459007e-001 3.3468998410611579e-002
      -2.7105948599309721e-002 -6.1498400359415861e-001
      -3.9195500266739730e-001 -5.9255361700716831e-002
      6.4255526500877946e-001 -6.2740547146163206e-001
      2.2910025743826021e-001 1.1230755336408100e-002
      -7.6778490371899766e-001 3.1816435643528790e-001
      2.8255334149125549e-001 6.6272601320694302e-001
      2.5411287980723990e-001 1.2361789706703288e+000
      6.8966344347432351e-001 -6.7967392678080107e-002
      -2.2100205660985420e-001 -1.7592367217323227e-003
      -1.5413910905644129e-002 -5.4424085329712590e-001
      -2.8857995201748848e-001 -3.3279271102295277e-001
      -3.3900295251972573e-001 7.4311752078507287e-001
      3.8342022108984558e-001 -3.5298617289639861e-001
      3.7481361523443940e-001 1.9973984025700336e-001
      -9.1976344663096218e-002 -2.3331298708374282e-001
      1.5904134624732916e-001 -2.1924926824490271e-001
      -1.1906867081711661e-001 -4.9006487511908753e-002
      1.0512216603733082e-001 1.6065882160948625e-001
      -9.1251486853713426e-002 8.3459518437917202e-001
      -4.7696118711340268e-001 -3.5001801440863428e-001
      -2.8472592682654513e-001 6.3064888999589175e-002
      1.5412572699471886e-002 1.1946214724361409e-001
      2.3144506428785117e-001 4.8396748586320787e-002
      2.0622822978419988e-001 4.2097986904285195e-001
      -8.2763819031550098e-002 6.1885994045317438e-001
      2.4480010308693753e-001 -4.9951931241411472e-002
      3.2518351181286248e-001 -1.8843976626725789e-001
      -6.2979755265447149e-002 2.2543272280030172e-001
      9.0932375415514410e-001 2.3504584407695436e-001
      -3.8414419998240956e-001 -6.5480108276084331e-002
      3.3238331147583128e-001 9.7138358898300525e-002
      -2.3359806581458509e-001 9.6985138218372194e-002
      -9.4653269047910060e-001 6.0191902016897991e-001
      3.0745658770077444e-001 -9.6622525598347664e-002
      9.3775004346464386e-001 9.9163812290875064e-001
      -3.7092375756129820e-001 -3.0289523113998490e-001
      1.5464390471992304e-002 -3.0858259360940449e-001
      -5.6635999203748566e-001 -6.3350180159606320e-002
      -6.6109404392275986e-002 5.5637986640051179e-002
      -7.0411302188478375e-001 -2.6146983015984615e-001
      -1.1396627762107203e-001 -2.9186470306936657e-001
      -2.9230146127398243e-002 2.0042419152739463e-001
      4.3480445882416308e-001 -6.3697620171745420e-002
      2.3760556772775596e-001 -1.0314565113212175e-001
      7.9339562141227064e-003 -2.7059896959410391e-002
      -1.2567416361849773e-001 8.5110112833156615e-002
      -1.1343962155716175e-001 -2.6154465447878256e-001
      -3.6491126416298453e-001 8.0888008780768669e-002
      -2.6796960924623039e-002 9.6678299452945329e-002
      1.1963902420476473e-001 -1.0113312635799870e-001
      -7.9071359655316698e-002 2.0424308741764555e-001
      4.1387372225296648e-001 1.8434769070172555e-001
      3.9306955686893302e-001 -2.3598502964621745e-001
      1.0578410456842395e-001 3.6455432371495916e-001
      -1.2476359095454334e-001 -1.3187078151277276e-001
      -4.2812167070305890e-001 -3.0908179896279731e-001
      -1.0832766411244694e+000 -2.2615750406754417e-001
      7.6800549043075572e-001 -2.6260047381650714e-001
      1.7474260714206488e-001 -8.6106777807464785e-001
      3.3623785057931699e-001 -9.3319829673979948e-002
      8.8001614031471623e-003 -3.1742187568888310e-002
      -1.1045573835236230e-001 -5.1082333669537305e-001
      -5.3607172054206209e-001 -2.2621801393417340e-001
      -1.9014547691625813e-001 5.7950003123528859e-001
      -1.5561823078381889e-001 -1.4236280482100602e-001
      -5.2288626828388529e-001 4.1985628565372363e-001
      -2.1161419879358567e-001 -7.7355401197048645e-001
      2.2100452977189033e-001 1.6105237455944960e-002
      -5.6427917799879557e-001 -3.8919825478802977e-001
      1.4482303106362962e-001 -1.5044255027487463e-001
      -1.6489544729209740e-001 -4.6683972172744823e-002
      -5.3794916015360260e-002 4.9163196529520975e-001
      -9.0087706322148309e-001 3.3489933647572756e-001
      4.8580905095501156e-002 -4.5273988974556945e-001
      3.5371664951838921e-001 1.3455151428701362e-001
      5.1103145406390615e-001 3.8647608901931041e-001
      7.3575797866546067e-001 6.6101464673167465e-001
      -2.1237202658227938e-001 -3.3521743048043695e-001
      -2.7454118445128538e-002 8.3478937753737825e-002
      -8.4938081724158898e-001 -2.6085599266601939e-001
      -3.2616151039438745e-001 -7.7784455870572630e-002
      6.7662039538191776e-001 3.0922998941734403e-001
      -1.7373771383040312e-001 2.8789643841630731e-002
      3.0857638570776313e-001 -2.0658570210461896e-002
      -2.8473659424785353e-001 -7.7857977805684082e-003
      -3.5584000563996848e-001 -6.6916188450218295e-002
      -3.7613320615554030e-002 -1.2719217803567415e-001
      3.3041266220748466e-001 -9.1875867409454401e-002
      5.8164311710764349e-001 -3.1739797420693977e-001
      -3.4297219330895736e-003 9.7490357571674124e-002
      -3.4918188947763174e-001 2.5021165359889283e-002
      4.3888114436565423e-001 1.1623155931725271e-001
      2.4059948372022424e-001 4.3641561612211444e-001
      4.7182554853795394e-001 1.3411051952684447e-001
      9.0874743277291525e-001 4.5524934909096448e-001
      1.8580639493304918e-001 5.1525671194185874e-001
      -2.6529713424793716e-001 -1.1206232541949646e-001
      1.2534457820386921e-001 5.0763564608515366e-001
      4.5219244260608427e-001 -3.7051616068392040e-001
      9.7790202043924995e-002 -1.9424565197033065e-002
      1.6558743638124726e-001 -2.6539748083992032e-001
      3.6658379367886607e-001 -9.5127076926805199e-001
      5.1010632725012106e-001 2.9587160522162897e-001
      -1.0190317102819475e-001 5.4001273026680974e-001
      7.0941894799721972e-001 -3.0926500661481759e-001
      -1.8962639908663906e-001 -2.7748487055361309e-001
      -4.2542422293580423e-001 8.6190190772275010e-001
      2.2593755281364591e-001 -4.0838787070749244e-001
      1.1788042322381424e-001 -7.2210010610689879e-001
      -5.7675364914650570e-002 -4.7398175273564047e-001
      -1.0759834322366302e-001 -6.2233767543948895e-002
      -2.8209145024884302e-001 4.7184639537361628e-001
      2.2987182510152804e-001 4.8550252640389302e-001
      1.1362546833928341e-002 -2.2009544263075151e-001
      -2.4171585297084297e-001 -3.5303889546893741e-001
      3.0442280824863199e-001 -6.2215364245954008e-001
      -2.4308988045479762e-001 -2.6296410595670888e-001
      2.8290293087633517e-001 4.7979016508525978e-002
      4.0431920540234606e-001 -1.9889804836614833e-001
      -2.5275014104805321e-001 -2.9281020481516112e-001
      2.4355776509762916e-001 5.2344797430320256e-001
      1.9635090224917484e-001 1.4447444169578205e-001
      -3.3043575875479830e-001 2.1731636924554679e-001
      9.5647897347940047e-002 -1.3944707625335032e-001
      3.6356278470389740e-002 -4.3123397916591089e-001
      -2.9137916651924875e-002 -8.2924683366579977e-001
      1.9483662924986495e-001 5.2490194465597539e-001
      -1.1996842354928419e-001 -4.9299732255421502e-002
      -3.0837598794109605e-001 1.6085909360451461e-001
      -9.6858960239365369e-002 7.8934994849517118e-002
      -3.8832075573242558e-001 -1.8143293036418831e-003
      -6.2441610090375210e-001 -4.8833987493589809e-001
      7.2898171612634968e-002 -2.1821741439160988e-001
