<?xml version="1.0"?>
<opencv_storage>
<my_nn type_id="opencv-ml-ann-mlp">
  <layer_sizes type_id="opencv-matrix">
    <rows>1</rows>
    <cols>3</cols>
    <dt>i</dt>
    <data>
      560 132 31</data></layer_sizes>
  <activation_function>SIGMOID_SYM</activation_function>
  <f_param1>6.6666666666666663e-001</f_param1>
  <f_param2>1.7159000000000000e+000</f_param2>
  <min_val>-9.4999999999999996e-001</min_val>
  <max_val>9.4999999999999996e-001</max_val>
  <min_val1>-9.7999999999999998e-001</min_val1>
  <max_val1>9.7999999999999998e-001</max_val1>
  <training_params>
    <train_method>BACKPROP</train_method>
    <dw_scale>7.0000000000000007e-002</dw_scale>
    <moment_scale>7.0000000000000007e-002</moment_scale>
    <term_criteria><epsilon>1.0000000474974513e-003</epsilon>
      <iterations>10000</iterations></term_criteria></training_params>
  <input_scale>
    3.7253074863308631e+000 -6.4376087765665968e-001
    3.0595868122718888e+000 -1.3164378204303440e+000
    3.4285559367897021e+000 -1.9407680197053809e+000
    3.3860069789338780e+000 -1.9824325680031922e+000
    3.3599890397730956e+000 -1.8985175540264774e+000
    3.5624966449715614e+000 -2.2360910161172964e+000
    3.6581174168439170e+000 -2.2864223831959216e+000
    3.7033565288542238e+000 -2.1765226653128482e+000
    3.8704190275610189e+000 -2.6148818519430663e+000
    3.7289828975125818e+000 -2.3693418305745082e+000
    3.8147349622978890e+000 -2.2576922911725053e+000
    4.1306377313031852e+000 -2.4405531911510590e+000
    4.1285708201217020e+000 -2.2795473325741966e+000
    4.2828255832458755e+000 -2.1905896569282919e+000
    3.7711632736762026e+000 -1.5724441672607568e+000
    4.2167296478578171e+000 -7.1125789512727255e-001
    1.9222193193606175e-002 -2.1329395962110284e-001
    1.9972176583864295e-002 -2.0456857019790708e-001
    1.7817890271042268e-002 -2.3193078089210248e-001
    1.5512193606155565e-002 -2.7143093581984340e-001
    1.3677322113106757e-002 -3.1520790878239335e-001
    1.2680621228319332e-002 -3.4635604760865524e-001
    1.1939562578888990e-002 -3.7452259687837136e-001
    1.1802907454381064e-002 -3.8031041969116558e-001
    1.2082361797209729e-002 -3.6868897316757554e-001
    1.2270173056721007e-002 -3.6132835972051230e-001
    1.1608583294255371e-002 -3.8891182609666425e-001
    1.0889599907661163e-002 -4.2524115455314493e-001
    1.0083117253358942e-002 -4.7766131189343075e-001
    1.0031147090015465e-002 -4.8162097430095174e-001
    9.9307767308076857e-003 -4.8951665550479223e-001
    9.8193621455370944e-003 -4.9869212436204707e-001
    1.0303860308408658e-002 -4.6173365649814530e-001
    1.0136330409141600e-002 -4.7369319807406918e-001
    1.0227896733179490e-002 -4.6705968596619640e-001
    1.0303860308408658e-002 -4.6173365649814530e-001
    9.9637178425065753e-003 -4.8688812001102216e-001
    9.7582871030284235e-003 -5.0391957918651376e-001
    1.0065657780689930e-002 -4.7898211690287268e-001
    1.0209288041874653e-002 -4.6838846602157141e-001
    1.0362488935149027e-002 -4.5772717861241963e-001
    1.0701488394033587e-002 -4.3616401023548612e-001
    1.1455658453559251e-002 -3.9601108846571775e-001
    1.2680621228319332e-002 -3.4635604760865524e-001
    1.5876465973615680e-002 -2.6425347967800494e-001
    1.8715177672115522e-002 -2.1964884255348968e-001
    2.7953980408551515e-002 -1.4316180761534331e-001
    2.9172078824642813e-002 -1.3695009389644031e-001
    1.4035166142331940e-002 -3.0548508063770186e-001
    1.4427572392335778e-002 -2.9555395160199149e-001
    1.2082361797209729e-002 -3.6868897316757554e-001
    1.0422593837623149e-002 -4.5370990078088380e-001
    9.0640725139353277e-003 -5.7638399191125145e-001
    8.6028550557274413e-003 -6.4618599983438918e-001
    8.2139532816901256e-003 -7.3616267486946652e-001
    8.1876591611468787e-003 -7.4428904993756106e-001
    8.3636814075224095e-003 -6.9604026441682310e-001
    8.2799212540003945e-003 -7.1733911918549020e-001
    8.2898906239348147e-003 -7.1466488039980303e-001
    8.4448482810945778e-003 -6.7756657170824108e-001
    8.2050598338313588e-003 -7.3886735457622810e-001
    8.0561813181704630e-003 -7.9250576975525422e-001
    7.9782585618455096e-003 -8.3080710915151068e-001
    7.9732453147296281e-003 -8.3368786784557913e-001
    8.0076726893638824e-003 -8.1507386407596305e-001
    7.9452807714078481e-003 -8.5110911426604074e-001
    7.8951934242036965e-003 -8.9123189703594785e-001
    7.8836554450494468e-003 -9.0338774758815565e-001
    7.8434695599812285e-003 -1.0092477798246977e+000
    7.8433597023889242e-003 -1.0075599564131579e+000
    7.8433597023889259e-003 -9.9249676769601791e-001
    7.8465034526113506e-003 -9.7112791685457633e-001
    7.8691041546978240e-003 -9.2187049049114800e-001
    8.0162438853541192e-003 -8.1081455934958357e-001
    8.4091242713180987e-003 -6.8546677428376235e-001
    9.4784267313418741e-003 -5.2991940579159047e-001
    1.2231743508219027e-002 -3.6280681895299033e-001
    1.5174441865293972e-002 -2.7847323021413961e-001
    2.0823979367111771e-002 -1.9551886903681512e-001
    2.0823979367111771e-002 -1.9551886903681512e-001
    1.2952331421726013e-002 -3.3719416780744454e-001
    1.3096284725900863e-002 -3.3255795816523992e-001
    1.1608583294255371e-002 -3.8891182609666425e-001
    9.8983368301568172e-003 -4.9214199394457514e-001
    8.9099434286684844e-003 -5.9700348981881635e-001
    8.2898906239348147e-003 -7.1466488039980303e-001
    7.9782585618455096e-003 -8.3080710915151068e-001
    7.8771930842576679e-003 -9.1105176248975084e-001
    7.8570173480921133e-003 -9.4225033987872864e-001
    7.8477576099707826e-003 -9.6625926020339004e-001
    7.8554938551488474e-003 -9.4542018932845795e-001
    7.8487041267403350e-003 -9.6302614442117296e-001
    7.8562444510510959e-003 -9.4383408754405906e-001
    7.8436013951854993e-003 -9.8917987302211763e-001
    7.8457776362766685e-003 -1.0262868043636715e+000
    7.8630537841250878e-003 -1.0738496883424387e+000
    7.8540594909899206e-003 -1.0541856669935803e+000
    7.8892392298599637e-003 -1.1144623216674983e+000
    7.8823170999739282e-003 -1.1050744730913240e+000
    7.9048247104170979e-003 -1.1335320187255848e+000
    8.2367593041518423e-003 -1.3709551678625953e+000
    8.2006615976337027e-003 -1.3509474829373813e+000
    8.1503507733773350e-003 -1.3217891045025336e+000
    8.0220908654623450e-003 -1.2376508639422303e+000
    7.9635230493358463e-003 -1.1912297595682253e+000
    7.8439310122823628e-003 -9.8587382292029246e-001
    7.9246920097424539e-003 -8.6581404919830529e-001
    8.3311843061371661e-003 -7.0400250312446111e-001
    1.0590511717313131e-002 -4.4294039801783291e-001
    1.3145553274130695e-002 -3.3100393139631185e-001
    2.0174735603082226e-002 -2.0233824786856944e-001
    2.0174735603082226e-002 -2.0233824786856944e-001
    1.2270173056721007e-002 -3.6132835972051230e-001
    1.2469230294120783e-002 -3.5388614679925218e-001
    1.0793856886000401e-002 -4.3071553607441765e-001
    9.8505940029602994e-003 -4.9607426535410115e-001
    8.7229122624530708e-003 -6.2542185995563104e-001
    8.3748125405499925e-003 -6.9339242908955334e-001
    8.0048684404679018e-003 -8.1649658092772603e-001
    7.8850167949706292e-003 -9.0186116781304237e-001
    7.8747682338553612e-003 -9.1413209154846498e-001
    7.8433597023889259e-003 -9.9249676769601791e-001
    7.8497390834303959e-003 -9.5980303445642867e-001
    7.8433597023889259e-003 -9.9249676769601791e-001
    7.8436013951855010e-003 -1.0109384827501848e+000
    7.8540594909899206e-003 -1.0541856669935803e+000
    7.8669971302257752e-003 -1.0811031537453362e+000
    7.8921698745220391e-003 -1.1182445214678423e+000
    7.9306133331239950e-003 -1.1609223350321176e+000
    7.9588129647922730e-003 -1.1871285497149779e+000
    7.9266416317695584e-003 -1.1569580195926747e+000
    7.9431119786585597e-003 -1.1729217905891962e+000
    8.0796155141679583e-003 -1.2775596229954866e+000
    8.0250544576114784e-003 -1.2398205472504025e+000
    7.9519351977626641e-003 -1.1810120994970024e+000
    7.9065121241874790e-003 -1.1354611532991081e+000
    7.9246920097424556e-003 -1.1549824132860207e+000
    7.8454477863386888e-003 -1.0245695242979211e+000
    7.8533756862862753e-003 -9.5019273941564941e-001
    8.1155184849238862e-003 -7.6890293126617770e-001
    1.0484229134206512e-002 -4.4968130901569436e-001
    1.2119072039614261e-002 -3.6722309502462963e-001
    1.9401246097905171e-002 -2.1114075774331106e-001
    1.9585739746535082e-002 -2.0896918976428644e-001
    1.1282045897589266e-002 -4.0445426464663109e-001
    1.1118347142382573e-002 -4.1282097297699982e-001
    9.7136595953105209e-003 -5.0783337507700821e-001
    9.3287322511760654e-003 -5.4543809404993449e-001
    8.4509428504124049e-003 -6.7625222600057422e-001
    8.3206456680250881e-003 -7.0666303669277508e-001
    8.0660561684833473e-003 -7.8831355641604195e-001
    7.9966130394657862e-003 -8.2077370071604683e-001
    7.9564954575695665e-003 -8.4382129859002430e-001
    7.8771930842576679e-003 -9.1105176248975084e-001
    7.9227664706326695e-003 -8.6729430615549175e-001
    7.8784397503274973e-003 -9.0951477469157316e-001
    7.8441288024880835e-003 -9.8422483066532485e-001
    7.8439310122823611e-003 -1.0143285852117099e+000
    7.8701915977620138e-003 -1.0865803855705154e+000
    7.8649804088830183e-003 -1.0774694081491540e+000
    7.8747682338553594e-003 -1.0939338080846517e+000
    7.8586301248246802e-003 -1.0648608225625409e+000
    7.8468994373431279e-003 -1.0314568733203837e+000
    7.8432718196385816e-003 -1.0058749980909714e+000
    7.8784397503274973e-003 -1.0994873616419387e+000
    7.8878086511392047e-003 -1.1125770604123588e+000
    7.8878086511392047e-003 -1.1125770604123588e+000
    7.8640058469685858e-003 -1.0756578039466529e+000
    7.8747682338553594e-003 -1.0939338080846517e+000
    7.8439310122823611e-003 -1.0143285852117099e+000
    7.8823170999739282e-003 -9.0491638740202784e-001
    8.1192692086753636e-003 -7.6752572900252092e-001
    1.0246656540045076e-002 -4.6572983261301115e-001
    1.1367556995766654e-002 -4.0024264485094724e-001
    1.6169183204198301e-002 -2.5877458475338283e-001
    1.6480546104018740e-002 -2.5320738616718330e-001
    1.1226421177760803e-002 -4.0725134565349858e-001
    1.1144978253014259e-002 -4.1143156119809543e-001
    9.4020046309470934e-003 -5.3768451588194510e-001
    8.8738966864445150e-003 -6.0216257933371187e-001
    8.1192692086753636e-003 -7.6752572900252092e-001
    7.9588129647922730e-003 -8.4236875630705155e-001
    7.8457776362766667e-003 -9.7438649288687884e-001
    7.8497390834303959e-003 -9.5980303445642867e-001
    7.8439310122823611e-003 -1.0143285852117099e+000
    7.8432059095144228e-003 -9.9582461641931030e-001
    7.8554938551488474e-003 -9.4542018932845795e-001
    7.8586301248246820e-003 -9.3908985926775279e-001
    7.8436013951855010e-003 -1.0109384827501848e+000
    7.8649804088830183e-003 -1.0774694081491540e+000
    7.9474741992037034e-003 -1.1769577481448363e+000
    8.0497369523152337e-003 -1.2573756481331895e+000
    7.9246920097424556e-003 -1.1549824132860207e+000
    7.9388480649751798e-003 -1.1689040309894416e+000
    7.9266416317695584e-003 -1.1569580195926747e+000
    7.9153041288895897e-003 -1.1451689797855407e+000
    8.1919613994368874e-003 -1.3460180927024543e+000
    8.1384693051595181e-003 -1.3146522362522741e+000
    8.1155184849238862e-003 -1.3005542823894132e+000
    8.0371781503249858e-003 -1.2485537672186864e+000
    8.0310622673748326e-003 -1.2441761987942284e+000
    7.9306133331239950e-003 -1.1609223350321176e+000
    7.8487041267403350e-003 -9.6302614442117296e-001
    7.9808034535933173e-003 -8.2936910199538594e-001
    9.7733852041623267e-003 -5.0261371357472451e-001
    1.1144978253014259e-002 -4.1143156119809543e-001
    1.5876465973615680e-002 -2.6425347967800494e-001
    1.6699460605769784e-002 -2.4944382578492943e-001
    1.2469230294120783e-002 -3.5388614679925218e-001
    1.2594509107919569e-002 -3.4937906019040477e-001
    1.0770455357113712e-002 -4.3208002495400111e-001
    9.7582871030284235e-003 -5.0391957918651376e-001
    8.3692280757321977e-003 -6.9471596566715932e-001
    8.0133603316454843e-003 -8.1223286206741363e-001
    7.8448541612736126e-003 -1.0211439872687116e+000
    7.8691041546978240e-003 -1.0847510689567970e+000
    7.9246920097424556e-003 -1.1549824132860207e+000
    7.9757392053804738e-003 -1.2015668026315036e+000
    7.8508625848393594e-003 -1.0453801292884006e+000
    7.8547655412987138e-003 -1.0559565558239652e+000
    7.8999036386263738e-003 -1.1277690888966245e+000
    7.9208649631893075e-003 -1.1510441884373550e+000
    8.0191540358205832e-003 -1.2354865686484748e+000
    8.0191540358205832e-003 -1.2354865686484748e+000
    7.8906929583784213e-003 -1.1163514686261489e+000
    7.8878086511392047e-003 -1.1125770604123588e+000
    7.8594700455813706e-003 -1.0666517589894449e+000
    7.8967401366143060e-003 -1.1239473189422964e+000
    8.1384693051595181e-003 -1.3146522362522741e+000
    8.1008094551127587e-003 -1.2912825849850660e+000
    8.0627366513343485e-003 -1.2662882131568456e+000
    7.9885920475733733e-003 -1.2120265114521260e+000
    7.9757392053804738e-003 -1.2015668026315036e+000
    7.8640058469685858e-003 -1.0756578039466529e+000
    7.8431400010518446e-003 -1.0008371705107915e+000
    8.0105032931849680e-003 -8.1365262738643629e-001
    1.0048334889246330e-002 -4.8030199905753174e-001
    1.1338771239165537e-002 -4.0164869167688466e-001
    1.9585739746535082e-002 -2.0896918976428644e-001
    1.9775950940182981e-002 -2.0677866694358690e-001
    1.3455643902580543e-002 -3.2158425929514672e-001
    1.3509883200627400e-002 -3.1999769371862641e-001
    1.0988903393212946e-002 -4.1973932668050623e-001
    1.0048334889246330e-002 -4.8030199905753174e-001
    8.8045879613967044e-003 -6.1248987215975570e-001
    8.4570781764951638e-003 -6.7493853196012021e-001
    7.9659157551809703e-003 -8.3802100348332687e-001
    7.8878086511392047e-003 -8.9881414562813855e-001
    7.8436013951854993e-003 -9.8917987302211763e-001
    7.8520747448149325e-003 -1.0488926288826841e+000
    7.8451399639281796e-003 -1.0228552569705689e+000
    7.8497390834303959e-003 -1.0418804318183224e+000
    7.9134982496308712e-003 -1.1432190546652934e+000
    7.9474741992037034e-003 -1.1769577481448363e+000
    8.1543722207481142e-003 -1.3241813399977198e+000
    8.1876591611468787e-003 -1.3435640361548931e+000
    8.1155184849238862e-003 -1.3005542823894132e+000
    8.1384693051595181e-003 -1.3146522362522741e+000
    7.9683336570698180e-003 -1.1953500694850383e+000
    8.0020904676705168e-003 -1.2226122824998185e+000
    8.0191540358205832e-003 -1.2354865686484748e+000
    7.9912397916501211e-003 -1.2141334699347246e+000
    7.8554938551488457e-003 -1.0577307437344978e+000
    7.8492105437571354e-003 -1.0401353436457415e+000
    7.8547655412987138e-003 -9.4700865720720695e-001
    7.9065121241874790e-003 -8.8069943836869902e-001
    7.9966130394657862e-003 -8.2077370071604683e-001
    8.3102514514473615e-003 -7.0932690213190863e-001
    1.1144978253014259e-002 -4.1143156119809543e-001
    1.2388191437035062e-002 -3.5687321357316487e-001
    2.3931377135263332e-002 -1.6852095279769116e-001
    2.4291977954893625e-002 -1.6587660260412718e-001
    1.3620704255376754e-002 -3.1680960232485095e-001
    1.3509883200627400e-002 -3.1999769371862641e-001
    1.0770455357113712e-002 -4.3208002495400111e-001
    9.6414380760627364e-003 -5.1434449987363973e-001
    8.5207244531873456e-003 -6.6183568514213342e-001
    8.2184487781299023e-003 -7.3481184912074426e-001
    7.8514575750364881e-003 -9.5498691090506571e-001
    7.8443485869326233e-003 -1.0177303806845472e+000
    7.9326355185097008e-003 -1.1629110906360853e+000
    8.0133603316454860e-003 -1.2311740225021852e+000
    8.0694037148827877e-003 -1.2707791507144701e+000
    8.1919613994368874e-003 -1.3460180927024543e+000
    8.2949278144565444e-003 -1.4018775074540950e+000
    8.4694720140225787e-003 -1.4874022964207938e+000
    8.7878220543332105e-003 -1.6258206183115129e+000
    9.0438964224473090e-003 -1.7272328544042150e+000
    8.8301528486903220e-003 -1.6430734622885188e+000
    8.5076559143662158e-003 -1.5050007715627165e+000
    8.4268068669673749e-003 -1.4673221530364613e+000
    8.4820316476771351e-003 -1.4932279563850019e+000
    8.7549422386538501e-003 -1.6122647395392129e+000
    8.8215752325509610e-003 -1.6395949514859676e+000
    8.2508413380707520e-003 -1.3785809504317128e+000
    8.1155184849238862e-003 -1.3005542823894132e+000
    7.9065121241874790e-003 -1.1354611532991081e+000
    7.8441288024880835e-003 -9.8422483066532485e-001
    7.8983101944010165e-003 -8.8821289997872854e-001
    8.1749422607650581e-003 -7.4836636704300719e-001
    1.0938794407181197e-002 -4.2249377059702770e-001
    1.2309052029489538e-002 -3.5984663820101842e-001
    2.3257589884220820e-002 -1.7370208344491284e-001
    2.3257589884220820e-002 -1.7370208344491284e-001
    1.4359545287500655e-002 -2.9722456291742988e-001
    1.4427572392335778e-002 -2.9555395160199149e-001
    1.0547451828040306e-002 -4.4564087263410462e-001
    9.8193621455370944e-003 -4.9869212436204707e-001
    8.6171836389417819e-003 -6.4358463579544278e-001
    8.2949278144565444e-003 -7.1332908523232363e-001
    7.8669971302257769e-003 -9.2498111446223663e-001
    7.8434695599812285e-003 -9.9083695797051574e-001
    7.8906929583784213e-003 -1.1163514686261489e+000
    7.9635230493358463e-003 -1.1912297595682253e+000
    7.9808034535933173e-003 -1.2057357786709100e+000
    7.9885920475733733e-003 -1.2120265114521260e+000
    7.9859701249239776e-003 -1.2099245950773945e+000
    8.0594450665262864e-003 -1.2640514574005768e+000
    8.1268596047752526e-003 -1.3075743064519982e+000
    8.1543722207481142e-003 -1.3241813399977198e+000
    7.9099578017319053e-003 -1.1393317879691247e+000
    7.9326355185097008e-003 -1.1629110906360853e+000
    7.8771930842576679e-003 -1.0976324739959544e+000
    7.8921698745220391e-003 -1.1182445214678423e+000
    8.3581723402383953e-003 -1.4339686135528669e+000
    8.4327805117431626e-003 -1.4701617806811815e+000
    8.3051080557890369e-003 -1.4071424502557375e+000
    8.2050598338313570e-003 -1.3534229030507681e+000
    7.9885920475733733e-003 -1.2120265114521260e+000
    7.8527141098248890e-003 -1.0506537200412991e+000
    7.9266416317695602e-003 -8.6433559650856284e-001
    8.2461137720956524e-003 -7.2672759155502387e-001
    1.1118347142382573e-002 -4.1282097297699982e-001
    1.2388191437035062e-002 -3.5687321357316487e-001
    2.2942183890785155e-002 -1.7624204863381399e-001
    2.3586970097141103e-002 -1.7112889601858858e-001
    1.4161872016323955e-002 -3.0219894260774965e-001
    1.4161872016323955e-002 -3.0219894260774965e-001
    1.0342784621950662e-002 -4.5906384631653818e-001
    9.6990023617724592e-003 -5.0913675159329408e-001
    8.5887131051523603e-003 -6.4878923180092352e-001
    8.1791497258332912e-003 -7.4700619337024710e-001
    7.8603323496100330e-003 -9.3593865274143229e-001
    7.8468994373431279e-003 -9.6950248320211385e-001
    7.8759692559534078e-003 -1.0957812958115596e+000
    7.9065121241874790e-003 -1.1354611532991081e+000
    7.8621241960168779e-003 -1.0720450436150377e+000
    7.8680393412892922e-003 -1.0829253310950262e+000
    7.8713016983932033e-003 -1.0884132992824209e+000
    7.8983101944010165e-003 -1.1258561995935308e+000
    7.8983101944010165e-003 -1.1258561995935308e+000
    7.9082231396105894e-003 -1.1373944025145373e+000
    7.8492105437571371e-003 -9.6141334501232811e-001
    7.8514575750364881e-003 -9.5498691090506571e-001
    7.8735899870176138e-003 -9.1567545476633705e-001
    7.8659774947953745e-003 -9.2653974239949533e-001
    8.0250544576114784e-003 -1.2398205472504025e+000
    8.1081054195304755e-003 -1.2959059369064629e+000
    8.0660561684833456e-003 -1.2685307665472114e+000
    8.0133603316454860e-003 -1.2311740225021852e+000
    7.8850167949706292e-003 -1.1088181149044680e+000
    7.8441288024880835e-003 -1.0160280139691362e+000
    7.9306133331239950e-003 -8.6138406491450126e-001
    8.2050598338313588e-003 -7.3886735457622810e-001
    1.1091968169720103e-002 -4.1420843478975705e-001
    1.2348388670291473e-002 -3.5836160592946303e-001
    2.5924672643017708e-002 -1.5489720725618950e-001
    2.5484695607674565e-002 -1.5770654729602795e-001
    1.3677322113106757e-002 -3.1520790878239335e-001
    1.3734769909130563e-002 -3.1360100164906057e-001
    1.0031147090015465e-002 -4.8162097430095174e-001
    9.3772388117550152e-003 -5.4027020266889769e-001
    8.2848884931590178e-003 -7.1600155575815694e-001
    8.1503507733773333e-003 -7.5655034270868671e-001
    7.8520747448149325e-003 -9.5338643104512355e-001
    7.8431400010518446e-003 -1.0008371705107915e+000
    7.8621241960168779e-003 -1.0720450436150377e+000
    7.8747682338553594e-003 -1.0939338080846517e+000
    7.8433597023889242e-003 -1.0075599564131579e+000
    7.8437552113261779e-003 -1.0126320796881558e+000
    7.8586301248246802e-003 -1.0648608225625409e+000
    7.8603323496100330e-003 -1.0684460964091262e+000
    7.8659774947953762e-003 -1.0792845187733255e+000
    7.8797092863379797e-003 -1.1013459778666117e+000
    7.8659774947953745e-003 -9.2653974239949533e-001
    7.8439310122823628e-003 -9.8587382292029246e-001
    7.8477576099707826e-003 -9.6625926020339004e-001
    7.8431619703547544e-003 -1.0025136193822903e+000
    8.1155184849238862e-003 -1.3005542823894132e+000
    8.2050598338313570e-003 -1.3534229030507681e+000
    8.0465561480685469e-003 -1.2551617563018556e+000
    8.0133603316454860e-003 -1.2311740225021852e+000
    7.8659774947953762e-003 -1.0792845187733255e+000
    7.8434695599812285e-003 -9.9083695797051574e-001
    7.9099578017319070e-003 -8.7770745147251117e-001
    8.1791497258332912e-003 -7.4700619337024710e-001
    1.1091968169720103e-002 -4.1420843478975705e-001
    1.2469230294120783e-002 -3.5388614679925218e-001
    2.3257589884220820e-002 -1.7370208344491284e-001
    2.3931377135263332e-002 -1.6852095279769116e-001
    1.3455643902580543e-002 -3.2158425929514672e-001
    1.3349421694881009e-002 -3.2474283570727275e-001
    1.0048334889246330e-002 -4.8030199905753174e-001
    9.5178732820162346e-003 -5.2603174971611899e-001
    8.4570781764951638e-003 -6.7493853196012021e-001
    8.3051080557890369e-003 -7.1066010397046686e-001
    7.9496923213142369e-003 -8.4818892967997084e-001
    7.9496923213142369e-003 -8.4818892967997084e-001
    7.8967401366143043e-003 -8.8972141589435150e-001
    7.8951934242036965e-003 -8.9123189703594785e-001
    7.8878086511392047e-003 -8.9881414562813855e-001
    7.8936700167595297e-003 -8.9274435377828487e-001
    7.8443485869326233e-003 -1.0177303806845472e+000
    7.8533756862862771e-003 -1.0524180605873510e+000
    7.8659774947953762e-003 -1.0792845187733255e+000
    7.8810017250822584e-003 -1.1032083419010545e+000
    7.8554938551488474e-003 -9.4542018932845795e-001
    7.8468994373431279e-003 -9.6950248320211385e-001
    7.8797092863379780e-003 -9.0797989014957281e-001
    7.8747682338553612e-003 -9.1413209154846498e-001
    7.9782585618455113e-003 -1.2036488241190946e+000
    7.9993386930265493e-003 -1.2204848763230676e+000
    7.9707768212402153e-003 -1.1974174518402037e+000
    7.8735899870176138e-003 -1.0920899919231544e+000
    7.8439310122823628e-003 -9.8587382292029246e-001
    7.8492105437571371e-003 -9.6141334501232811e-001
    7.9588129647922730e-003 -8.4236875630705155e-001
    8.2006615976337027e-003 -7.4022122445921279e-001
    1.1485621952810700e-002 -3.9459599102313248e-001
    1.2637299182861692e-002 -3.4786941976588737e-001
    2.2349573871580448e-002 -1.8122792536871510e-001
    2.3257589884220820e-002 -1.7370208344491284e-001
    1.1671998044257410e-002 -3.8605499807470639e-001
    1.1939562578888990e-002 -3.7452259687837136e-001
    1.0265569213201575e-002 -4.6439888842316079e-001
    9.4654637026203529e-003 -5.3121449641525853e-001
    8.4820316476771351e-003 -6.6969011377266752e-001
    8.3860956527633621e-003 -6.9074761096359638e-001
    8.1666211757782312e-003 -7.5108995843004733e-001
    8.2229769818353317e-003 -7.3346202217056733e-001
    8.1625072958293257e-003 -7.5245339222473517e-001
    8.1008094551127587e-003 -7.7442382606868754e-001
    7.9707768212402153e-003 -8.3513063757605110e-001
    7.9659157551809703e-003 -8.3802100348332687e-001
    7.8487041267403350e-003 -9.6302614442117296e-001
    7.8527141098248873e-003 -9.5178837796404747e-001
    7.8603323496100330e-003 -9.3593865274143229e-001
    7.8747682338553612e-003 -9.1413209154846498e-001
    8.0162438853541192e-003 -8.1081455934958357e-001
    7.9885920475733733e-003 -8.2506446067908423e-001
    7.9757392053804721e-003 -8.3224669474051716e-001
    7.8603323496100330e-003 -9.3593865274143229e-001
    7.8640058469685858e-003 -1.0756578039466529e+000
    7.8759692559534078e-003 -1.0957812958115596e+000
    7.8594700455813706e-003 -1.0666517589894449e+000
    7.8514575750364881e-003 -1.0471347707292387e+000
    7.8492105437571354e-003 -1.0401353436457415e+000
    7.8439310122823611e-003 -1.0143285852117099e+000
    7.9588129647922730e-003 -8.4236875630705155e-001
    8.2275380388264936e-003 -7.3211318607415499e-001
    1.1282045897589266e-002 -4.0445426464663109e-001
    1.2388191437035062e-002 -3.5687321357316487e-001
    1.8879392814969812e-002 -2.1754748038672328e-001
    1.9222193193606175e-002 -2.1329395962110284e-001
    1.2082361797209729e-002 -3.6868897316757554e-001
    1.2469230294120783e-002 -3.5388614679925218e-001
    1.0889599907661163e-002 -4.2524115455314493e-001
    1.0323242380920280e-002 -4.6039933279593831e-001
    9.8823015597777758e-003 -4.9345350131543086e-001
    9.5446442077924687e-003 -5.2343787293529664e-001
    9.2243779276015535e-003 -5.5705207794591305e-001
    9.1910000120832593e-003 -5.6092019320605202e-001
    8.6688376077897252e-003 -6.3449362457349656e-001
    8.5747555000320712e-003 -6.5139439689783385e-001
    8.2799212540003945e-003 -7.1733911918549020e-001
    8.0936297173889345e-003 -7.7719164022625964e-001
    8.0727793884713822e-003 -7.8552534501376758e-001
    8.0561813181704630e-003 -7.9250576975525422e-001
    8.0402768374936099e-003 -7.9951974610825582e-001
    8.0900831652313526e-003 -7.7857741792253699e-001
    8.2050598338313588e-003 -7.3886735457622810e-001
    8.1423994379131275e-003 -7.5928726473962282e-001
    8.0310622673748326e-003 -8.0374467938635408e-001
    7.9635230493358480e-003 -8.3946861801241579e-001
    7.9117161562721854e-003 -8.7621428845342464e-001
    7.9388480649751816e-003 -8.5550222557922928e-001
    8.0594450665262864e-003 -7.9110703456362630e-001
    7.9732453147296281e-003 -8.3368786784557913e-001
    7.9306133331239950e-003 -8.6138406491450126e-001
    7.9326355185097008e-003 -8.5991096658388833e-001
    8.0529453113907089e-003 -7.9390584697484468e-001
    8.5207244531873456e-003 -6.6183568514213342e-001
    1.1282045897589266e-002 -4.0445426464663109e-001
    1.2768903348721284e-002 -3.4331787832168609e-001
    1.7548267123094315e-002 -2.3591038605230977e-001
    1.7681411237557402e-002 -2.3392729009688912e-001
    1.5972079400267371e-002 -2.6243663516673627e-001
    1.6928220622461833e-002 -2.4563627246317002e-001
    1.6169183204198301e-002 -2.5877458475338283e-001
    1.6480546104018740e-002 -2.5320738616718330e-001
    1.5174441865293972e-002 -2.7847323021413961e-001
    1.4785039597357360e-002 -2.8710196138634103e-001
    1.3349421694881009e-002 -3.2474283570727275e-001
    1.3145553274130695e-002 -3.3100393139631185e-001
    1.2309052029489538e-002 -3.5984663820101842e-001
    1.1226421177760803e-002 -4.0725134565349858e-001
    1.0701488394033587e-002 -4.3616401023548612e-001
    1.0656515220639925e-002 -4.3887899295714966e-001
    1.0442966138925862e-002 -4.5236831981715248e-001
    1.0678903056532012e-002 -4.3752225409858347e-001
    1.0865337865098895e-002 -4.2661226161543109e-001
    1.1065837769014288e-002 -4.1559397411996757e-001
    1.1039952445282816e-002 -4.1697761809024259e-001
    1.0841295291757959e-002 -4.2798167814952448e-001
    1.0724273803180941e-002 -4.3480423913315197e-001
    1.0303860308408658e-002 -4.6173365649814530e-001
    9.9803797029305551e-003 -4.8557261583965061e-001
    1.0678903056532012e-002 -4.3752225409858347e-001
    1.1144978253014259e-002 -4.1143156119809543e-001
    1.0656515220639925e-002 -4.3887899295714966e-001
    1.0612322006296407e-002 -4.4158804331639234e-001
    1.0793856886000401e-002 -4.3071553607441765e-001
    1.0442966138925862e-002 -4.5236831981715248e-001
    1.1091968169720103e-002 -4.1420843478975705e-001
    1.2348388670291473e-002 -3.5836160592946303e-001
    1.3564897397372377e-002 -3.1840616903455660e-001
    1.6588816183812111e-002 -2.5133097657566383e-001
    1.7167568388393228e-002 -2.4178257403904441e-001 1. 0. 1. 0. 1. 0.
    1. 0. 1. 0. 1. 0. 1. 0. 1. 0. 1. 0. 1. 0. 1. 0. 1. 0. 1. 0. 1. 0. 1.
    0. 1. 0. 1. 0. 1. 0. 1. 0. 1. 0. 1. 0. 1. 0. 1. 0. 1. 0. 1. 0. 1. 0.
    1. 0. 1. 0. 1. 0. 1. 0. 1. 0. 1. 0.</input_scale>
  <output_scale>
    4.2105261824632950e-001 4.9999998882412910e-001
    4.2105261824632950e-001 4.9999998882412910e-001
    4.2105261824632950e-001 4.9999998882412910e-001
    4.2105261824632950e-001 4.9999998882412910e-001
    4.2105261824632950e-001 4.9999998882412910e-001
    4.2105261824632950e-001 4.9999998882412910e-001
    4.2105261824632950e-001 4.9999998882412910e-001
    4.2105261824632950e-001 4.9999998882412910e-001
    4.2105261824632950e-001 4.9999998882412910e-001
    4.2105261824632950e-001 4.9999998882412910e-001
    4.2105261824632950e-001 4.9999998882412910e-001
    4.2105261824632950e-001 4.9999998882412910e-001
    4.2105261824632950e-001 4.9999998882412910e-001
    4.2105261824632950e-001 4.9999998882412910e-001
    4.2105261824632950e-001 4.9999998882412910e-001
    4.2105261824632950e-001 4.9999998882412910e-001
    4.2105261824632950e-001 4.9999998882412910e-001
    4.2105261824632950e-001 4.9999998882412910e-001
    4.2105261824632950e-001 4.9999998882412910e-001
    4.2105261824632950e-001 4.9999998882412910e-001
    4.2105261824632950e-001 4.9999998882412910e-001
    4.2105261824632950e-001 4.9999998882412910e-001
    4.2105261824632950e-001 4.9999998882412910e-001
    4.2105261824632950e-001 4.9999998882412910e-001
    4.2105261824632950e-001 4.9999998882412910e-001
    4.2105261824632950e-001 4.9999998882412910e-001
    4.2105261824632950e-001 4.9999998882412910e-001
    4.2105261824632950e-001 4.9999998882412910e-001
    4.2105261824632950e-001 4.9999998882412910e-001
    4.2105261824632950e-001 4.9999998882412910e-001
    4.2105261824632950e-001 4.9999998882412910e-001</output_scale>
  <inv_output_scale>
    2.3750000752043001e+000 -1.1875000110594558e+000
    2.3750000752043001e+000 -1.1875000110594558e+000
    2.3750000752043001e+000 -1.1875000110594558e+000
    2.3750000752043001e+000 -1.1875000110594558e+000
    2.3750000752043001e+000 -1.1875000110594558e+000
    2.3750000752043001e+000 -1.1875000110594558e+000
    2.3750000752043001e+000 -1.1875000110594558e+000
    2.3750000752043001e+000 -1.1875000110594558e+000
    2.3750000752043001e+000 -1.1875000110594558e+000
    2.3750000752043001e+000 -1.1875000110594558e+000
    2.3750000752043001e+000 -1.1875000110594558e+000
    2.3750000752043001e+000 -1.1875000110594558e+000
    2.3750000752043001e+000 -1.1875000110594558e+000
    2.3750000752043001e+000 -1.1875000110594558e+000
    2.3750000752043001e+000 -1.1875000110594558e+000
    2.3750000752043001e+000 -1.1875000110594558e+000
    2.3750000752043001e+000 -1.1875000110594558e+000
    2.3750000752043001e+000 -1.1875000110594558e+000
    2.3750000752043001e+000 -1.1875000110594558e+000
    2.3750000752043001e+000 -1.1875000110594558e+000
    2.3750000752043001e+000 -1.1875000110594558e+000
    2.3750000752043001e+000 -1.1875000110594558e+000
    2.3750000752043001e+000 -1.1875000110594558e+000
    2.3750000752043001e+000 -1.1875000110594558e+000
    2.3750000752043001e+000 -1.1875000110594558e+000
    2.3750000752043001e+000 -1.1875000110594558e+000
    2.3750000752043001e+000 -1.1875000110594558e+000
    2.3750000752043001e+000 -1.1875000110594558e+000
    2.3750000752043001e+000 -1.1875000110594558e+000
    2.3750000752043001e+000 -1.1875000110594558e+000
    2.3750000752043001e+000 -1.1875000110594558e+000</inv_output_scale>
  <weights>
    <_>
      1.7610261399973691e+001 3.5791412043545551e-002
      -8.2753401198065013e-001 4.1660503826299516e-001
      -1.5739345842519825e-001 -1.9649635401989041e-002
      7.8362995633144125e-002 3.2455319983460573e-001
      -4.2370314226988670e-001 2.8460419700362838e-002
      -2.3093358113796630e-001 5.4023754363969445e-001
      2.2365847259745886e-002 -8.2949682248548462e-001
      5.5991048707993130e-001 2.1076169363483485e-001
      2.4439937212172325e-001 5.5382861953896201e-001
      -4.9405949145667533e-001 4.6408872957643073e-002
      -1.2391773625806568e-001 1.6429871836623929e-002
      -5.2815578978682587e-001 -4.3924248694656776e-002
      -6.3517593686552187e-001 -7.1106689757248938e-003
      8.9685123148512758e-001 -1.2117012029152654e-002
      1.3208553351301988e-001 4.6722378458116914e-001
      -6.4455988983441737e-001 -5.4014831021073362e-001
      8.6633987451210315e-002 4.0214163510737372e-001
      1.5443281022889765e-001 2.0160087124890499e-001
      -8.2115547804509637e-001 1.1980138690765585e-001
      -3.6572931203515485e-002 1.7056082667989761e-001
      9.1430808251170581e-001 -2.3625786082547501e-001
      -9.5149683723308856e-002 -4.3600317087314933e-001
      -9.5495230528399713e-002 6.2460198725142591e-001
      1.9113300664816449e-001 3.9108382762025556e-001
      7.1710403197774275e-001 -4.3478579691922697e-001
      -3.8879312398854027e-001 -4.8822564689221365e-001
      -2.4598337705830936e-001 1.1383646409361388e-001
      -1.4945012111235062e-001 -8.4223874816484212e-001
      9.1568008202003282e-002 -8.2176701983867040e-001
      1.5045588979100227e-001 3.3262280287285978e-001
      -5.0642564159456693e-001 1.8326463098063578e-001
      3.2687179483285356e-001 1.9574949529515173e-002
      4.7741960895467372e-001 -1.6286479268680523e-001
      9.1493662145345833e-001 3.1954370356003586e-001
      3.0700097666536513e-002 1.7046767544575003e-001
      7.2525846990967124e-001 6.2083301935031809e-001
      -6.3240643753944525e-001 1.2009965231730870e+000
      -2.3418856197828625e-001 -8.1492543877282497e-002
      -1.0661316489042923e-001 1.0983630727838709e-001
      -5.9541875029559532e-001 3.2554578145677099e-001
      1.0034619760812807e-001 2.3021181053827330e-001
      4.6481482555646318e-002 -1.4113275346826662e-001
      5.8106486013764336e-001 -6.1492007667950666e-001
      1.7672661051156893e-001 5.3069752715798901e-001
      -1.1325522245558522e-001 -1.9605702883238194e-001
      3.2049254233063325e-002 5.0815828584027800e-001
      8.1221473548102024e-002 2.3836188306789763e-001
      -1.2376070355863614e-001 1.4577720322303733e-001
      -2.9261907095404494e-001 6.5790403738549119e-001
      5.9381267822759887e-001 -1.3816863810343047e-001
      -1.3264615415097886e-001 8.2479645678799163e-001
      -5.3586343147104976e-002 6.9003705041070784e-001
      3.0911292184197453e-001 1.0515741402991967e+000
      3.7062669723126235e-001 3.2502175009783374e-001
      1.1242607478389956e-001 -2.5531609156638502e-001
      2.2542676386347819e-002 4.8036850388110541e-001
      -3.1867148290187164e-001 3.2779321009351958e-001
      -2.2164035988889788e-001 -3.9213748173558644e-001
      -2.3173596476943070e-001 2.1433310523515389e-001
      -3.4035713734847722e-001 4.3431239127256388e-001
      -8.7632725580625320e-002 -6.8586306499691618e-001
      5.3533818446013526e-001 4.2858060798660907e-001
      -1.3824997242339479e-001 3.1051469292283601e-001
      -5.2845451638578134e-001 2.3555956692001959e-001
      -2.0068468819454782e-001 -4.9905936750788193e-001
      7.7173963075108973e-002 7.8732206423559514e-001
      1.1961858175322842e+001 -2.0890641783284179e-002
      -3.1056191797986693e-001 3.3483405810330530e-001
      3.8060203112866821e-002 -4.1281497932467165e-001
      -3.5312112204519092e-001 -5.2479054476477449e-001
      -4.4522659452600671e-001 -4.5224246174858380e-002
      -1.7481926791889124e-001 -1.6947082145046526e-002
      -5.3789248335181927e-001 -5.0601162638147394e-002
      -3.6966180855993713e-001 4.2629632398601536e-001
      6.8425587623866957e-001 -2.0335558038645712e-002
      -4.7882290318693142e-003 9.2793718572380257e-001
      -9.4105754643831502e-002 1.4728042852946710e-001
      -1.1538281112214064e+000 6.8413178559096318e-003
      -4.6039429837887208e-001 5.9182901204511661e-002
      5.7265695565956946e-002 -2.5340661409193395e-002
      -2.8184660596534250e-001 1.7746360284937861e-002
      1.4164992795266612e-001 -2.8529039004826184e-001
      7.0457514230432672e-001 -7.7258624270424417e-002
      8.5564165814798102e-002 -1.7833902911108590e-001
      1.0127675040703493e-001 -6.0871781486181642e-001
      4.9936868364064063e-001 -4.7157406184730785e-002
      4.1151035978137779e-001 6.8267165693678333e-001
      -5.2869373829175448e-001 -4.4090137367334470e-001
      3.6273613702447877e-001 3.2792441994131305e-001
      -8.1137296940812315e-002 -4.2864060051590225e-001
      4.2747581287272596e-001 -9.1144035040600890e-001
      2.6059076175067203e-001 1.3470400345399830e-001
      1.1061634505120924e-001 -4.7774445449397585e-001
      -2.7355726393341157e-001 -1.4485294980407068e-001
      -1.1461826464622461e-001 7.1405445858413052e-001
      4.4935047040191262e-001 1.7715438079933105e-001
      -4.1373371288709671e-001 6.3091167955521310e-001
      -4.7308272646023558e-001 -9.8451072630071246e-001
      -4.3681238475327583e-001 -6.0358698645126163e-001
      5.3888585502165409e-001 8.1193899295061267e-001
      -3.8932853833081577e-001 -1.0902125731752301e-002
      -7.4123978801682394e-002 5.1171179114871856e-001
      -3.6628723650169996e-002 -3.0130291032275958e-001
      -4.8634770132316246e-001 7.3654184644841625e-001
      -4.8166284317207281e-001 -8.6365678707002591e-001
      -6.6261229028169433e-001 2.6291243954701382e-001
      4.8376841053861014e-001 -1.0005481947041027e-001
      6.8321377669806316e-001 -3.5768472449001366e-002
      -6.2386364203248570e-002 -1.3558511877438012e-001
      6.1858066844595982e-001 -2.3575467787479459e-001
      -1.1301286173961382e-001 -4.6892768245608990e-001
      -3.0532749440775769e-001 4.5355893729024038e-001
      2.7427636682086618e-002 -5.2776607967124071e-002
      5.1814140178173584e-001 -4.5709979850721294e-001
      -4.8804910416311237e-001 6.0304321324163446e-001
      -2.5135890462418056e-002 3.9770206845195277e-001
      2.8025086524868709e-001 1.1314444672211624e-001
      -1.2970058476711782e-001 3.4381825997165474e-003
      -5.0826994767287703e-001 6.0070340807980804e-001
      5.0889820448837697e-001 3.1619025087744318e-001
      2.2336709008779143e-001 5.7243351591326608e-001
      -4.1982940368993343e-001 6.8058587665838943e-001
      -4.4848004415658377e-001 -7.4625346196796963e-004
      4.3784109577548302e-001 -1.3258531101406950e+000
      -1.0005143017691590e-001 -2.2180148430744906e-001
      -6.0031894940951702e-001 -4.1230976872354452e-001
      4.6817234900658250e-001 5.3251732750016334e-001
      4.7544189315499502e-002 -4.2919411603186286e-001
      8.2699429037999317e-001 4.2411107036211393e-001
      -1.0184806764770014e+000 6.3595221192246076e-001
      2.1028542271278053e-001 8.7855679639968015e-002
      9.1407380640423641e-005 5.8718708183556145e-001
      -8.1049284021223811e-001 -8.5148577212614415e-002
      -1.3706867446194496e-001 5.4797846996838284e-001
      -2.8088296270920887e-001 -9.7666913427889246e-002
      -1.7223728020819523e-001 -9.4607698566988391e-002
      7.7966973013278806e-001 1.1079196394764059e+000
      -1.0868286000500953e-002 -3.6501314522181923e-002
      -5.8216448908497687e-001 -1.2770432263551923e-001
      3.9143790460774114e-001 -6.2895262816384773e-002
      -7.2003113245137640e-003 4.5694185538864990e-001
      5.7768794827378112e-001 1.4730384319530505e+000
      -1.1984032445522389e-003 3.4425551511670766e-001
      2.3856703571524776e-001 1.4057331342190778e-002
      7.5195494565195309e-001 3.1882104321120064e-001
      -7.3834912283081788e-001 4.3158475257756335e-001
      -3.0634448513422685e-001 4.2711187738180084e-002
      2.3596285158291549e-001 2.7713138589179148e-001
      3.8294487236478419e-001 1.0548180599915090e-001
      1.7545380820230945e-002 -6.8423953661375914e-001
      -1.0926023463958278e-004 -2.7908591007751443e-001
      -2.2726941541200238e-001 -3.1498750460269875e-001
      8.2949748131240564e-001 -8.8334940012598118e-001
      4.5854752107702784e-001 -3.9295059371592067e-001
      -3.4823108404453390e-001 -4.5848235399121234e-001
      5.4226834139054525e-001 -1.3630036362112483e-001
      1.1229433730599739e-001 1.6112490225837932e-002
      6.5704904050366630e-001 -1.5162385698649064e-001
      1.7853798778136076e-001 3.3056801226643395e-002
      6.4086042370859864e-001 9.9949091187874536e-003
      7.3377974823323311e-002 -3.7001577794562690e-001
      -6.9386007354192980e-001 3.8823035541676848e-001
      5.4595484915037584e-001 3.3041284970426277e-001
      -1.9573692462086145e-001 -2.3463120975816074e-001
      -5.2987212391606275e-001 -4.9516415340284392e-002
      -3.5208901932147130e-001 -1.4089047081223302e-001
      2.1771568052652732e-001 -6.2268693284905219e-001
      -7.4024557677088210e-001 4.0766982015395165e-001
      5.7683977241661921e-001 -5.0192370192148905e-001
      -3.0801229579101130e-001 -8.0970479417084684e-002
      -1.1912130782224923e+000 3.9494940864505723e-001
      1.9490796749733821e-001 2.8864300043326296e-001
      2.3882130398476581e-001 4.5165511822370841e-001
      6.0109341078037681e-001 6.5299764587702047e-001
      4.5432823744227768e-001 1.0486073298529883e+000
      -4.8296202100644403e-001 -9.5500019406389469e-002
      -4.3020564807697242e-001 4.6523175128737154e-001
      -3.7720701860526806e-001 -4.1389308418953309e-002
      9.8084558891696552e-002 1.6957028038805005e-001
      -7.0565049721264206e-001 1.5103615032040138e-003
      9.3473089143012236e-002 -3.1076131849236666e-001
      6.1169448534150639e-001 3.3171464884413143e-001
      -6.4249842400147805e-001 -1.2896161773877543e-001
      -1.7859703575990599e-001 -8.5103868690384255e-001
      -7.5507882858167963e-001 -4.0243870923227687e-001
      4.0229507816223731e-001 -1.3476103026733084e-002
      2.6780971826182254e-001 2.8389682911417735e-001
      -2.2461951526696172e-001 6.8470130247344729e-001
      -4.1665819966393869e-001 -7.5164244585332451e-001
      2.8442366652689621e-001 -5.5383521036333105e-001
      3.1636075029657451e-001 -9.9227763740651787e-002
      -3.6743713452369536e-001 6.6958577112564546e-002
      6.6483879071443736e-002 7.7802957056765965e-001
      4.5981428647418537e-001 1.9260063292670804e-001
      -3.4120032927596511e-001 1.0875608977028692e+000
      4.5043482645212546e-001 8.9793160632536020e-002
      6.2010019501252589e-001 -3.8029352610146089e-001
      6.3952894440022090e-001 1.7467664904084218e-002
      -8.1298149355081755e+000 1.3856722400229463e-001
      -3.1987034345416543e-001 4.6515371489177904e-001
      -5.6073383459966630e-001 -8.3053454106177249e-001
      -2.2442045241692027e-001 8.2045898255188221e-001
      7.3837470674059558e-001 -2.4926258506989797e-002
      1.9009183901151605e-001 -9.9588482474914053e-001
      -2.0430108053401527e-001 6.6432795582483728e-001
      1.0846276144797502e+000 -3.9893457077672623e-001
      -4.4357162578800385e-001 -6.2920142137230262e-001
      2.3397301842199000e-001 6.4689165475037458e-001
      4.5984972821946923e-001 2.5881120725619128e-002
      -1.8519176457656827e-001 -4.7516987521012993e-002
      8.2604494491000291e-001 1.0158991668418631e+000
      4.8543920414953770e-002 -9.8813282196860545e-004
      -7.6245287409141660e-001 -5.6020652451025679e-002
      -1.0741938969921422e-001 7.1589199779520454e-002
      1.7046852516035113e-001 -1.0274499551405167e+000
      -4.0818540849680263e-001 -5.5394960601910270e-001
      -4.3687460064697675e-001 5.5126932759444347e-001
      -8.8516678374341506e-001 -5.1269130851017719e-001
      6.8016364833349585e-001 6.4680235079664616e-001
      -4.0609428431004468e-001 -5.1095737517340467e-001
      -7.2670111004143695e-002 -3.1995793420949858e-001
      3.3740524041385000e-001 -5.6838622121000582e-001
      6.6861961798077885e-001 1.2116172547661713e-001
      2.4186648182539291e-001 -6.2762894168764871e-001
      1.2148230013030277e-001 -4.2841903097614077e-002
      2.8429956863857186e-001 -2.5943405381698498e-001
      2.1049225458749760e-001 -2.6416851132146163e-001
      -4.0373227307184301e-001 1.8809755188813136e-002
      -3.0401348111572485e-001 6.3193505424890417e-001
      2.3311039927577237e-001 -2.5556638920322389e-001
      1.1254765693207247e+000 5.5965017688236293e-002
      -5.4243242345013465e-001 8.3617958959718214e-002
      -1.1895596745599673e+000 -5.3141781058791115e-001
      -6.5829763771708086e-002 6.8331880274836831e-001
      -6.3754396197592977e-001 -2.3878096844271550e-002
      2.6114829258435959e-002 -4.8299356980514990e-001
      -1.7534070052788520e-001 1.8237545628491894e-001
      -1.5817914391838980e-001 -3.6237487754065623e-001
      -4.7271578111946672e-001 1.4911342617674586e-001
      -2.6285418111308589e-002 -3.2019129717841005e-001
      -1.2699864554270519e+000 6.8200242735560745e-001
      1.1005553782367397e+000 5.7396091699911123e-001
      -6.1093011191818295e-003 3.7987618274893520e-001
      5.3294246728000738e-001 -1.5585785871546295e-001
      6.1680240451603885e-001 -5.6209176030751395e-001
      -6.7636235799169764e-001 -7.5639585341199687e-003
      6.2546166781935431e-001 -4.3339579980653725e-001
      -6.4967743774816233e-001 2.8685248477620395e-001
      2.5362286223821828e-001 9.8978281238681076e-002
      1.4073811387307150e-001 3.0353579440639888e-002
      1.7840693266758434e-001 -2.5926905614366136e-001
      1.2968403498777948e-002 3.1740645649615026e-002
      -1.0961951001430348e+000 -4.2794041622554174e-001
      1.2649447359863393e+000 2.7288645307391191e-001
      -3.0040784669689169e-001 1.2280145714044760e-001
      1.1422611786177798e-001 7.4389987863239804e-001
      7.9620981565625748e-001 7.6432793901653029e-001
      3.0280081755104477e-001 -1.5213469469768548e-001
      -5.6695381877406115e-001 -1.8965423173054072e-001
      4.3229920186832255e-001 -2.9020842335990232e-001
      -6.1210160299911087e-001 4.5500969051606638e-002
      2.2240076540004497e-001 1.6156574740885965e-001
      2.1317476486123552e-001 -9.1165651779235257e-001
      1.6678191381746124e-001 -2.3538086462431068e-001
      -1.5559103845598747e+000 3.3481076763826390e-001
      6.0342214290360824e-002 -7.2046764928631463e-002
      -8.5949850631263292e-001 -1.2672587982513636e-001
      -1.3376089283658925e-002 6.9284516421254572e-001
      -1.1530416121825438e-001 2.7898059039775408e-001
      6.6560819825544293e-002 -2.8718984484778659e-001
      2.9408970844461241e-001 -1.6430689340407567e-001
      3.9061348861617301e-001 3.0375390434082394e-001
      1.4292707402123631e-002 -5.3234586474763923e-001
      1.2868741426252279e+000 4.4656485092144649e-001
      4.1834355271320117e-001 -6.5782594969707439e-002
      -1.7494365764496353e-001 4.1724246733910736e-001
      4.8351516345962631e-001 8.1928441313704869e-001
      -5.9540722276945279e-001 -1.6923095036728827e-001
      6.6448222545269520e-001 -3.8720444772203200e-001
      2.2162612908612458e-001 -7.1112794020284731e-001
      3.8229344342677707e-001 1.5042072534159087e-001
      1.6182595363027977e-001 -6.2012108907030283e-001
      -9.6929268284969039e-001 -8.2926087010723992e-001
      -4.8585875983766769e-001 -3.2703509307304590e-001
      1.0451059628134907e+000 1.0499384079353904e-001
      7.6087850291139170e-001 -2.0613247541288821e-001
      2.0286445002202158e-001 8.0228284467224109e-001
      5.5041555115973773e-001 3.0344236174645040e-001
      5.8885687621516869e-001 -4.3018422432862186e-001
      1.5157375581253929e-001 -1.2917540819079187e-001
      -1.1980983703222275e-001 1.1699637949231942e+000
      3.5563760243091364e-001 -8.7311414626062817e-002
      -3.8877476667331834e-001 -3.3227849877301019e-001
      -5.4120884462649554e-001 -4.9882707674671461e-001
      -1.8607692839494006e-001 8.5576945324573384e-001
      -4.0367152287658042e-001 -1.9955239463631211e-001
      7.0620805800609393e-002 -8.5831296238822838e-002
      -4.2207073787988886e-001 1.8833945897138049e-001
      -1.2700835228889542e+000 1.8105491866921583e-001
      -2.7303416738632547e-001 1.0654819641130169e+000
      -1.6379143660136911e-001 -5.7514769011975768e-002
      4.3710954218144193e-001 2.8572659404384637e-001
      2.1502288040399303e-001 1.5052866605752657e-001
      -5.9155007107491442e-001 -2.6415380329416166e-001
      -8.3290341648140831e-001 1.4385809602278818e-001
      -2.3092711959638590e-001 -4.8579719812231559e-001
      -1.0060771106159354e+000 5.5221853333993687e-001
      6.5800827323773625e-002 5.5415772695818144e-001
      2.3373871839034585e-001 -2.5949387226493429e-002
      2.1588354728936728e-002 3.9296370417901894e-001
      4.2230889192112808e-001 -4.1175996441702517e-001
      -2.1504766025107688e-001 8.8432919221683770e-001
      5.6363816365867114e-001 6.5073403505625516e-001
      2.0566493769820002e-001 -1.8842598982733394e-001
      -2.8164072883476121e-001 1.1493150952843402e-001
      1.3297191042294657e-001 1.0465420418335698e-001
      -1.6926399259975899e-001 -9.1504789951447743e-002
      -1.5389155636586338e+000 -6.2806500953684063e-001
      -1.1818757163311504e+000 -1.7003396921072320e-001
      2.1992753533864115e-001 2.5471751159861206e-001
      -1.0330632065846157e+000 -2.0992375414331726e-001
      4.9412729229475968e-002 -3.0849003971911537e-002
      1.0739095519359541e+000 -3.6116146039386626e-001
      -2.9440002389430026e-001 -2.1305841856535798e-001
      -3.4140423711679857e-001 -4.2695362969331579e-001
      -1.3810873273139326e-001 -1.0245641859257851e-001
      -3.2255713906033656e-001 2.6630655683304677e-001
      -1.5045409254456962e-001 4.2656261487677577e-001
      -5.6663200290959359e-001 -1.5589907090981675e-002
      -9.6873156069674768e-002 -1.1098948757076983e+000
      -4.8972901475963964e+000 5.9685140562618244e-001
      6.9815035846904169e-002 1.3373527677888333e-001
      -6.6126657099583852e-001 -1.0513233951747141e+000
      1.0821329430607907e-001 1.8733921567841050e-001
      -1.6754008823749969e-001 -2.6920283534877676e-001
      5.8462211699224298e-001 -3.5643803884386133e-001
      3.3563023879968325e-002 -5.0607939158338611e-001
      3.8896099637044496e-001 -6.3028766795489841e-002
      1.0319262580968537e-001 -2.8235728122129217e-001
      8.0361334638184967e-001 7.6722920639768832e-001
      -8.5562479182612328e-001 -8.8052863310295393e-001
      -2.3282082456996610e-002 -4.2197245100032960e-001
      -2.5221926420481156e-001 -1.1961532113030457e+000
      6.1757264499185494e-001 -3.3032266202029226e-001
      3.7247739066871122e-001 -6.9943943927373997e-001
      -3.2651377964188599e-001 -2.3546238504532244e-001
      7.9564303774232858e-001 -2.3555361051265636e-001
      2.2634813632423961e-001 -7.8421659701464796e-001
      -4.9857789284011628e-001 -1.9938245409190153e-001
      9.1748913306766133e-001 -5.6140512410026566e-001
      4.8532740188280526e-001 5.5564360899121190e-001
      6.0194399637142015e-001 2.1630449001698052e-001
      2.4039394843199888e-001 7.5210778533895561e-001
      1.2530473997472369e+000 -8.8920235003894815e-002
      9.6931655739502617e-002 -4.2090747962607361e-001
      2.6305848374967361e-001 -1.8186150880641083e-002
      -5.3895492356745088e-002 2.7423601637528727e-001
      1.0596147275074974e-001 -9.3613944870899257e-001
      -1.0933148549840161e+000 -2.1183857985401222e-001
      -4.4892195096817272e-001 -9.9758211947996478e-001
      3.8620895441856212e-001 -1.8775944067244035e-001
      -8.2031912537502039e-001 -2.3319814175452727e-001
      -1.3416761562825949e-001 -2.8138610094251831e-001
      -1.0561723981261140e+000 3.0309864667669406e-001
      -1.1368421705590452e-001 5.1281696799444065e-001
      2.2527074813076356e-001 6.4959156782801619e-001
      2.8199254380312649e-001 -2.8676735499683886e-001
      -6.8735101994883818e-001 -7.3945902953347603e-002
      1.6759105026035109e-001 3.8288560198421112e-001
      5.8362523008380474e-001 -5.1535907647303418e-002
      -7.6994161154428276e-001 -1.9657301173040015e-001
      -2.2913316443816756e-001 3.7661462781479593e-001
      -1.1149677101637803e+000 4.2688441266167293e-001
      -4.2789242845522013e-001 4.1553405196701154e-001
      5.0740199546172837e-001 -1.5330084448786221e-001
      -1.2831513035035658e-001 3.7386022479347880e-001
      8.4630405475360504e-001 -2.9158924039279227e-001
      -4.7278993440644712e-003 -6.3902319739684160e-002
      2.7686302509393890e-001 -1.3541693566699187e-001
      -4.4292965478098006e-001 2.4079076519113135e-001
      -1.9451724708556647e-001 2.8366483309194673e-001
      -1.0809051982659498e-001 9.4712336986049764e-002
      1.1873717025356199e+000 7.2341683012704605e-001
      -8.4250208852851194e-001 2.1572999188276845e-001
      -2.4708475279060230e-001 -3.3306870778679742e-001
      -3.6378319257039976e-001 3.0461197600845491e-001
      -1.6391817881713340e+000 4.5409800473954931e-002
      -1.1912044985107182e+000 3.0819650631113843e-001
      -3.6871831477146226e-002 -6.8459853442953689e-001
      -4.4121472037051662e-001 -4.3680115497411975e-001
      4.6532153921591390e-001 -2.2372111491519273e-001
      -3.7784586183620000e-001 4.5971285989971028e-001
      -5.3510667478589446e-001 -2.6559797504892751e-001
      1.1845066485922609e-001 -2.3066196082755905e-001
      -1.3305101778107674e-002 -4.1476606154137924e-001
      -3.5804278303075587e-001 -3.7017567637859228e-001
      -7.9135355779281280e+000 2.6222868506537789e-001
      1.3908224832478375e-001 7.1544417617167744e-001
      6.9181079791720140e-002 -3.7749057392544161e-001
      -2.4489590953711007e-001 -5.3270238574829309e-001
      3.9078060453248403e-001 2.3064106295979675e-001
      4.1279211675263994e-001 -1.0796826066122385e+000
      -1.8588603141745610e-002 2.2868957540534027e-001
      -5.9065137325878236e-001 -7.3885821558107939e-002
      -6.6936516046369843e-001 -4.1166586967238933e-001
      1.7108551633507768e-001 5.0278968848909633e-001
      1.5223611447335064e-001 -6.0944733096460924e-001
      -6.1187670641043426e-002 -3.6279892887385951e-001
      3.1911883641907413e-001 -8.2054526952966264e-002
      -9.3044137118635465e-003 -8.8402908167735705e-001
      -5.5726566336748562e-001 -7.9465724465515897e-001
      -5.5449359171981882e-001 7.4375230787539964e-002
      4.3138632992779535e-001 -1.8561376839331212e-001
      -7.9763094702113735e-002 -1.1353961509411152e+000
      4.4408105236530257e-002 -4.2707164545435439e-001
      -5.2511101501219948e-001 3.0963415906690173e-001
      -1.0148888254690579e-002 1.3556239949824471e+000
      8.3257129428578547e-001 -9.6140063565214917e-001
      -3.0600284113917986e-001 -8.7344083719477039e-001
      -1.9680106940854525e-001 -3.9176262529479461e-001
      1.1367045656914272e+000 -7.0021092298286902e-001
      6.9711331495090789e-001 -3.5639855638028684e-001
      2.4289080801240229e-001 -6.3174227720977472e-002
      5.2930047235124733e-001 3.9145444333456553e-001
      -1.8192570751484241e-001 1.1661616539800042e+000
      1.4113312775580761e-001 -2.5924869166364795e-001
      3.0206020134343559e-001 4.2845678717999264e-001
      -2.3460300814295268e-001 2.3615199158002570e-001
      -2.4094964385784193e-001 -6.3226286480773899e-002
      -3.7664237159992994e-002 5.7161204250548114e-001
      -3.4770824190309463e-001 4.7817656123769026e-001
      -1.5378423709834282e-001 -1.5816562353764044e-001
      3.8582302490881365e-001 4.4130098666701659e-002
      -9.1650670469586815e-001 -2.5428030743718588e-001
      -4.3004878012017256e-001 -6.1761381499885012e-002
      2.2375742064284609e-001 1.9916802917286536e-001
      2.7720311843930860e-002 -4.0788606749043310e-001
      -1.9789289640178045e-001 -3.2658971153697974e-001
      5.7942911506624473e-001 4.0498354437022471e-001
      7.2029541949870624e-001 1.2372206899716376e-001
      5.1056695101522920e-001 -2.4333836577364090e-001
      7.1045506974387843e-002 2.5430813133077113e-001
      -1.3510693199451848e-001 1.9338702206608760e-001
      4.3129283594422287e-002 1.7846230108717145e-001
      2.3608797945123397e-001 1.3531179981895805e-001
      4.8700577082950329e-002 4.9557410577858663e-001
      3.7396614651523957e-001 -4.8309251998172278e-002
      -1.5732412921512917e-001 -7.2687068103744290e-001
      -7.3184512123084966e-002 6.2244419681738650e-001
      -2.0928205262034727e-001 2.2865720850537791e-001
      5.7791859480393581e-001 -1.5509494992531530e-002
      9.4615505556927204e-001 4.2528912157768861e-001
      -1.1204667640097590e+000 3.5730297425859009e-002
      2.9732345003918609e-001 3.8290808768452556e-001
      1.8753793209430500e-001 3.0937194969315951e-001
      -1.4177393865837626e-001 -2.7654213397357675e-002
      5.7419446986447253e-001 7.5522320761678385e-001
      -2.3022250891277285e-001 -2.4022315016732063e-001
      -5.3807421937210564e-001 5.5676344380735820e-001
      -5.4780514780926792e-001 7.6741418275550555e-001
      -1.9845643331702831e-001 9.0375626981338830e-001
      -7.1117382038769306e-001 -4.6802561834799528e-001
      -6.9571400641851540e+000 4.4910674546842394e-001
      -2.7444388707151463e-001 -2.4900378739875628e-001
      5.6142192327137774e-001 -6.6032738700782201e-001
      9.9162984224723227e-001 1.1049195420305527e-001
      7.9513130934783538e-001 -3.2916837640380564e-001
      9.4835132307490666e-001 -5.4097306043898452e-001
      8.1648824244392015e-001 5.1749331945425903e-001
      -2.1854324495473976e-001 -6.0941234150835422e-001
      -9.0842769683956504e-001 -3.8721972293408857e-001
      -1.9337757245031084e-001 3.6625996010021272e-001
      3.9318542081299301e-001 7.9794393535311114e-001
      -2.6627919831160168e-001 -8.2191374211780210e-001
      6.0232766673187832e-001 -3.2874343531880755e-002
      -2.3103957160493144e-001 -5.6655845417631379e-001
      -2.9801571728520493e-001 -9.2320152836699448e-002
      5.7836284847744701e-001 -3.5736115830825593e-001
      -4.4521494992781557e-001 1.7682635364171484e-001
      -6.9886411307486407e-002 -8.5170809697114280e-001
      -3.7140008929771978e-001 -6.5688188334067721e-001
      1.2458856118091381e-001 3.0015391325429364e-001
      1.7309727979502573e-001 -4.9395110685343663e-001
      8.1558071513127273e-001 -2.8508855554541651e-001
      -1.9445672472641870e-001 2.8061576282762635e-001
      -5.8943275906675952e-001 -5.9282298761079308e-002
      -1.0569276631580604e-001 7.3622739730056908e-001
      7.4497740935036150e-001 3.2313871678658557e-001
      2.7371308594524940e-001 7.8667937125186516e-001
      8.4082402790535660e-001 -1.0690165193410578e-001
      1.9516554825984136e-001 1.5159836505482510e-001
      -1.9991508581584078e-001 3.0718671881187282e-001
      1.1305467851197666e-001 4.7040031236763152e-001
      -3.8278676834789899e-001 7.5459304324252754e-002
      -5.1903650068729723e-001 -1.2561256397721504e-001
      -5.4107971001577415e-001 2.3062468282193674e-001
      -7.5767971633736442e-001 3.0976972317383494e-001
      -1.3736026437053939e-001 1.5599116284284370e-001
      -1.8306532006270276e-001 -2.7152460837465286e-001
      -3.3845325412296173e-001 -1.1009485400518855e+000
      -4.8553815831504638e-001 2.8527631900271194e-001
      1.3357190179418504e-001 -7.8221114929388713e-002
      1.3842234533566761e-001 -2.0551432674472422e-001
      7.9531162632986807e-001 -3.2179784505273812e-001
      1.6321767215148203e-001 3.2721925926257411e-001
      -1.3327431474429180e-001 4.1451946710484633e-001
      -1.8294372967913826e-003 1.9265971378210436e-001
      6.3729617875534761e-001 2.4375879563060207e-001
      -2.0601273860078334e-001 -5.1084344599313414e-001
      -3.9092306577894470e-001 5.8437167915160493e-001
      9.6002343110708932e-002 -7.3380887477239275e-003
      -3.9362894942496007e-001 1.3759787849323817e-002
      -4.0940776771497545e-001 -6.0826873922466065e-002
      2.1312790426585942e-001 -2.4519152565042682e-001
      3.4570166115172468e-001 -1.0727197158946908e+000
      -4.2536887632737518e-003 -4.4871478664741254e-001
      2.3057198661998723e-001 4.9335323586645947e-002
      -3.5860468072593715e-001 -4.3817435415025202e-001
      -8.7893301389572642e-001 8.4240882688849672e-001
      -3.2093360465423976e-001 3.7523366091847588e-001
      7.1027186304248846e-001 6.2594847185441116e-002
      3.2738813344335710e-001 4.0234396012393131e-001
      -2.1416646491572437e-002 -3.0449820171336911e-001
      6.7170808989831876e-001 -5.3864316895783504e-001
      -1.0536940657181137e+000 -6.0396310771408646e-001
      1.4172758135950629e+000 3.8640520427632546e-001
      2.0198175735516316e-001 1.7827793194729891e-001
      -1.3315482330805228e-001 -4.3586627999312971e-001
      -8.4083042925984781e+000 8.3445958566931999e-001
      1.2762167378315881e-001 -4.5373712120652027e-001
      -5.4214205110619673e-001 -5.1377630092733895e-001
      3.7724141677004136e-001 1.8878463314429533e-001
      1.0588617847277040e+000 -2.4928705731787815e-001
      1.0044111841056202e+000 -5.5272646876690479e-001
      -6.1940717277684454e-001 2.6853641291025371e-001
      1.3825784872945121e-001 -5.2125816930968250e-001
      7.9510612948946202e-001 -1.0644776361303740e+000
      1.6319310312043886e-001 -8.2020042400249488e-002
      -3.0875363001539158e-001 6.4341535955730955e-001
      -2.5688195623540783e-001 -6.1917712923583454e-003
      -4.8868715653698180e-001 -6.7115710182932531e-001
      -6.0520232080154002e-001 -2.0935570866139769e-001
      -3.0484418389613821e-001 4.5125826407965330e-001
      1.3687422662519294e-001 -2.4740130862060239e-001
      9.0314029561483944e-001 -3.9882996545612920e-001
      -5.4852297928193461e-001 -3.3988200254988821e-001
      -9.6180323508461818e-001 -7.4359799778873470e-001
      -9.2868061256803094e-002 1.6875398221384053e-001
      -5.5945312448648465e-001 -2.9235862070261959e-001
      -1.4809751326470164e-001 -4.2472495006935751e-001
      -3.2940065679176969e-002 2.5252085452840028e-001
      1.6931230246361451e-001 7.5319524745469407e-002
      5.2450573824074853e-001 -5.8805975777410135e-001
      2.1666417260920748e-001 4.9846011985323485e-001
      3.5111526942681454e-001 7.1378249143599448e-001
      4.1753147972382693e-001 -5.1325819806647033e-001
      9.9307015058708134e-002 2.5594098905693469e-001
      2.2289730692563950e-001 -2.8127223262736506e-001
      1.2061157739545506e-001 9.1730047650402791e-001
      -2.0561797028258372e-001 -8.5170624787640392e-001
      -9.0955094673166814e-002 -3.3802674049914483e-001
      -6.3250156476791297e-001 -1.8889980857092592e-001
      -9.4848030165392938e-001 2.3856631947254698e-002
      -3.8269486745647041e-001 1.6803793803878678e-001
      -1.5106530706619570e-001 -3.0505364052908640e-001
      2.2687088738957106e-001 -8.0509659906484066e-001
      1.8488807327501608e-001 -3.9949587830010330e-001
      -2.8337844512535043e-001 -1.1657952933831942e-001
      -3.5005177904540574e-001 -1.8003710530198902e-001
      -5.0631524057135791e-001 -6.1194402708477469e-001
      -7.3734761863815477e-003 -2.6086116835129791e-001
      -8.2044418757842331e-003 4.7472927961292094e-001
      1.2932598299822426e-001 1.0730711548385354e-001
      6.2868093832684380e-001 4.2699872532638350e-001
      6.4570612159133978e-001 -5.9604107584818000e-001
      -3.0092921406221280e-002 -1.7041139778148909e-001
      6.5140083844873198e-001 2.1049500040083050e-001
      -7.9807886021931285e-001 -6.8928428602320749e-002
      -8.5365851712049823e-001 1.0601351092813374e+000
      1.3592595258586893e-001 -1.7202833772016418e-001
      9.3009322538078121e-001 -3.4308556495410436e-001
      -8.0753296473871938e-001 -3.5538837873887785e-001
      4.7341174461528063e-001 -1.3029311240346361e-001
      -8.9118300937052386e-001 1.5838970630934962e-001
      -8.7783357294979669e-001 6.7599257569503324e-001
      1.5447453518581591e-001 5.2740169004956028e-001
      8.8270203125666913e-001 -5.4243803766072296e-001
      -7.1628026354137297e-001 9.0769176740328228e-001
      -1.1746472087785546e-001 -2.0366195328500505e-001
      -1.1130167367872215e+000 -2.5390259750788108e-001
      -8.0004349829404353e-001 -9.8951725865906157e-002
      6.5553574766836620e-001 -6.6028882770486227e-002
      -1.3317246192717425e-001 -4.3590815419390572e-001
      2.8814981067348455e-001 -2.4722612839829933e-001
      -7.0536299145324097e+000 3.9395989565936690e-001
      4.1785251725162575e-001 -2.2934269674785418e-001
      -5.6505003394718989e-001 -3.8206353778831414e-001
      -5.9423679581897559e-001 -4.0029488335543145e-001
      9.2859454393093921e-001 -8.4998001540611312e-001
      3.9480454339537946e-001 -1.5267329585065131e-001
      1.0130751417315900e+000 2.2444116315475510e-001
      3.2502734128600835e-001 7.0738594928248494e-002
      -3.4276402524182114e-003 -8.4917822867544912e-001
      4.7490414697014394e-001 8.9587448426291416e-001
      1.9748283337151998e-001 -1.7358390130938856e-001
      -1.9789424089213706e-001 -1.3723227537325744e+000
      9.7540487742237125e-001 9.0226970351780167e-001
      3.5643838277797442e-002 -3.5797493815934089e-001
      -2.8374621159026454e-002 -5.8091717522476793e-001
      -6.3439534756097524e-002 -1.7869631745825776e-001
      -5.4609140505586955e-002 -3.0291789746977810e-001
      -5.1769565672751139e-001 -1.7950199548170506e-001
      3.3039487137872720e-001 -7.8965168148350262e-001
      -9.8199217425326735e-001 2.1684133000732736e-001
      5.9874036595218105e-001 1.3328275836839714e+000
      5.9772802437261652e-001 -2.6551646570963594e-001
      -6.4244346265227714e-001 8.9752738111717112e-001
      -1.6186415002296517e-001 -4.5863217909234727e-001
      4.2643434482542697e-001 -3.5928649995163814e-001
      5.0552136555895655e-001 5.3676919118652189e-001
      1.9772018139832775e-001 3.2231027372919357e-001
      7.0769739725726243e-003 3.5212959980888764e-001
      -7.1569316315285458e-002 2.9995669628579563e-001
      -1.6553573096388086e-001 1.6472864763166054e-001
      5.7868742914164784e-001 1.6662692537083639e+000
      -6.7887926638269758e-002 6.4880303785743818e-002
      -3.8506746523062428e-002 -4.3716649351426834e-001
      -9.2437389827238536e-001 2.8969503556314302e-001
      2.3252091499860972e-001 -4.2986986960124307e-001
      -5.3654234423080849e-001 -3.0011233332381970e-001
      -4.9363233204492052e-001 2.7319913642225870e-003
      -1.0330386352204791e-001 -1.8483676519262471e-001
      -1.1558605121545774e-001 -5.2291426128812324e-001
      2.4782544549609667e-002 -5.5086206348935740e-001
      -3.3093811691464031e-001 4.5719255036393636e-001
      -1.8142654099219735e-001 -5.0994335797176849e-001
      -8.4558096310194397e-001 -1.9063679195805533e-001
      6.5515417066347648e-001 1.7015543422012847e-001
      -7.6234801940862640e-001 -8.5776978103151691e-001
      7.1819112754649972e-001 -7.4521011685219818e-001
      -1.1022172306914346e-001 -4.8264016403793802e-001
      -7.1594141628679342e-001 5.3312946646098935e-001
      6.2443621569978769e-001 -9.8796151812698452e-001
      -4.4003228332198108e-001 -2.9155601983386445e-002
      -6.9853863688889073e-001 1.7757860658191715e-001
      2.2393188971065217e-001 -1.2056248714116131e+000
      9.7009667609126848e-001 -6.5422415087281083e-001
      -3.9266753976836444e-001 -1.4160746485086564e-001
      -7.8280785045836376e-001 -4.6833966249871734e-001
      -1.0674350035816911e-002 -1.6855341168632179e-001
      -3.0026489914687801e-002 -2.1146729455731806e-002
      -1.7252216573179954e-001 7.6310632995932870e-001
      3.5682878342776347e-001 -4.7896081942409485e-001
      -3.6163989378452510e-001 -4.5095066990872867e-001
      7.1648055206748690e-002 -1.4046499529875843e-002
      -3.2226188630459568e-001 8.4745361488060900e-001
      -9.4491585796187005e-001 -5.3560155748399374e-001
      7.3037535161560052e-001 -4.4569951774937894e-001
      -5.5942406155849966e-001 -4.6982689030365776e-001
      -5.3040648778777943e-001 -7.8214040395818651e-001
      -1.1452674525612398e+001 -2.1864459191287458e-001
      1.6296255661787976e-001 -7.2771638538285843e-001
      -2.0993911734527998e-001 1.5829782427304605e-002
      -6.3921609528609769e-001 -3.6766704347190615e-001
      5.7603770636475737e-001 -3.8804557683848923e-001
      6.3609133972456222e-001 -6.2231310495106595e-001
      -9.6801068419843997e-002 8.0330561255992319e-002
      2.9334142874613112e-001 -6.8458861055654061e-002
      6.6610928582570916e-001 -3.7342180149322657e-001
      6.5266420745673259e-001 2.6044211915227711e-001
      -1.7181551643826617e-001 2.7949178735124475e-001
      -5.2452274992339384e-002 -3.2711381165057268e-001
      5.8137145588314232e-001 2.3345881161005727e-001
      -2.3559999502206058e-001 -2.7901277589787488e-001
      -5.6701981267580004e-001 4.9136396379361386e-001
      2.6581707977175129e-001 -1.9751080591422968e-001
      -3.4810270854337855e-001 -1.2774197034350840e+000
      -5.4983023303253803e-002 5.8324891773351498e-002
      -1.3770374299636683e+000 6.4483135748057731e-003
      6.0779215218851956e-001 1.2905038890567530e-001
      6.8996081938196688e-002 4.5652621257134061e-002
      4.0397637263227970e-001 -5.1990843739488690e-001
      2.2254356344309567e-001 5.8407148760440863e-001
      5.3461158507877427e-001 3.2283742567510360e-001
      -1.9244390693076038e-001 -8.1503622448940960e-001
      5.2427134926399910e-001 3.4747557299507598e-001
      1.4655934784322697e-001 6.5280286848823421e-001
      4.2226796168739994e-001 -7.8545422026670822e-002
      -3.6546379996928924e-001 -2.3622537904211305e-001
      -1.1578615630531448e+000 -1.4309239022645351e-001
      7.1562159421906391e-001 1.1189749770634272e+000
      1.9548291467635220e-001 -6.5296669599347035e-001
      -3.3490458847156060e-003 -2.9346313155212572e-001
      -2.8261945359387186e-001 4.3014168117625667e-001
      5.3986132417626113e-002 1.9408994645848351e-001
      -8.2476612426534826e-002 5.0651667979992332e-001
      -2.4875782261485163e-001 -2.8198355413223114e-001
      2.2598388705136319e-001 5.2461876680987084e-002
      -2.6191876675926473e-001 1.4366073780662106e-001
      5.0021217870645496e-001 -1.0249293053271291e+000
      -3.4895912229415227e-001 7.2582741275612053e-002
      -1.9241342077396656e-001 8.4634049169869038e-002
      1.3524925492151099e-001 -1.6214270095795075e-001
      4.7173102597764394e-001 -2.1628075947094602e-001
      -2.2542674855652471e-002 -1.7727468326265597e-001
      -7.3620796127721211e-001 -3.2790731906682954e-002
      -7.1981079987930352e-001 2.2525651335735533e-001
      -5.5443861483914492e-001 -9.9832793689640587e-001
      2.7464128056560666e-001 -7.1694787529143322e-001
      -2.3388255032349287e-001 -4.0296475724541497e-001
      -5.2543059293759568e-002 2.4429009416160133e-001
      -2.2479315128557834e-001 -9.4864038173035059e-001
      1.3341701659340115e+000 8.7909670250133527e-003
      -9.9680292448950680e-001 5.1234676919212574e-001
      6.9224615453830685e-002 -7.6267181254351823e-001
      8.0577283533795237e-003 -1.8235800994386669e-001
      4.5533321655326398e-001 8.9599236858557330e-001
      -2.0670866427283527e-001 7.8688925186106373e-002
      1.6760519018802716e-001 -2.0393951274341432e-001
      -2.0409606161313590e-001 -4.5501189548640070e-001
      -3.5743764953713258e-001 -8.5038018811451288e-001
      -3.4618066383880147e-001 1.6041595784709362e-001
      -6.0338059528055143e-001 4.5637541677519735e-003
      4.1559021777806393e-001 -4.6536876382387737e-001
      3.2368438233446373e-001 1.3380673992385550e-002
      5.5837950179291683e-002 -3.6709658959338515e-001
      -1.1983087973330026e+001 -1.9628680104931717e-001
      5.8636193528046210e-001 9.6034966262178459e-002
      1.5695152983683888e-001 -5.8691736964840302e-001
      2.3361680901084564e-001 -1.4524513096078908e+000
      5.1834236001911060e-001 -6.3122550483825501e-001
      9.8488942511452560e-001 -4.7863707003913075e-001
      4.4753397682486828e-001 -2.0300332994708439e-001
      8.8790009929282299e-001 7.0390988263929241e-002
      -2.0376212613581457e-001 -4.2365892158240359e-001
      -2.3009813502340035e-001 1.1815273999014351e+000
      -5.4828611299867297e-002 5.9687331655727571e-001
      2.5409248394719786e-001 -1.1244908575111721e+000
      9.2119449814428023e-001 7.6820101201984459e-001
      -5.7951161577383181e-001 -4.8619181636371550e-001
      -9.6532765827853373e-001 -9.3282839887460423e-001
      1.0524482206508844e-003 -4.3849696353331896e-001
      -2.2869579695652270e-001 -1.9373021671995339e+000
      -8.5309687699594006e-001 -5.4340431471764561e-001
      -3.0348414683148406e-001 -8.7687154615611385e-001
      8.8838187999835491e-002 -4.6892236464746148e-002
      -4.9431759939813968e-001 6.5781021694819575e-001
      6.0327063936546299e-001 -4.2126488232070747e-001
      9.6343886115603503e-002 4.9681972943463582e-001
      4.6198121955509075e-001 -4.8913735428511990e-001
      6.1816257552265685e-001 -6.2777687025651940e-001
      7.0815396940437769e-001 7.1911150888419983e-001
      3.9171311830911820e-001 6.5024698143237403e-001
      -1.8696647011150352e-002 -1.1612631044195187e-001
      -4.4613783535776835e-001 -3.7807815429456854e-001
      -2.5473893802691905e-001 7.0024377922454784e-001
      4.6155317696446690e-001 5.4973191211179040e-001
      -2.7960998238797463e-001 3.0557463424519982e-001
      1.3433782354899328e-003 -2.7799208628741423e-001
      -7.8777207819789341e-001 1.3140439131767945e-001
      2.0581553603456504e-001 -6.4017573404860595e-001
      -5.4859828016594570e-001 2.5059733614561619e-001
      -7.2763475885742979e-001 -4.9489980835722930e-001
      2.0483221789500888e-001 -7.9626867053476513e-001
      -5.3619216420557525e-001 1.5844628056340457e-001
      4.1943115733723063e-001 -3.7479744040171298e-001
      -9.9065231219660721e-001 2.4531017047433704e-001
      -5.4791284146933732e-002 9.7331512034971840e-002
      -2.7725632979938569e-001 -3.9649606469041621e-001
      8.0209425533583067e-002 -3.7363842929208729e-001
      -1.3995935361032777e-001 -2.0790997429442659e-001
      3.7902861904766283e-001 -7.2173778337415395e-001
      -5.4901550976731028e-001 8.7769914602688168e-002
      2.6250260575355061e-001 -5.1978097903594804e-002
      -8.0990805376099498e-002 -4.5896582980742479e-001
      -6.9797587982793874e-001 -1.3586746093775282e-001
      -4.6784809209081318e-001 4.5267265873463580e-001
      5.0077100866888802e-001 -1.5362006782922668e+000
      2.9996115046723509e-001 -1.3092915981436878e-001
      -1.0524023552719781e+000 9.8945231331782968e-001
      -2.1240234445779441e-001 -1.1088935312226704e+000
      9.7772964010070865e-002 1.8816395166346880e-001
      -5.9713544594552859e-001 1.0942781233940391e+000
      4.7311058987038018e-001 3.9823011907330158e-001
      -1.0191758502528439e-001 -4.7485674575218829e-002
      6.3975629787679775e-002 -1.2057964956627004e-001
      -2.4803336856142066e-002 -6.1998701521124633e-001
      -5.2011051843724521e-001 4.2005017928693145e-001
      -7.0002432104293677e-001 -1.0793218835324454e-001
      -1.2753559951314325e-001 2.8693256160660102e-001
      -2.5828555961261418e-001 -2.6957681676447942e-001
      -4.5324087823225008e-002 -4.0420602223559920e-001
      -3.4661441288309227e+000 7.8969110679895701e-003
      5.8673414040525751e-001 -2.3494767740073577e-001
      1.5996130691350713e-001 -1.2807935417532060e-001
      8.2386527297590784e-001 -3.2657544188146814e-001
      4.7230096859236870e-001 -5.5896156697760613e-001
      3.4793924733051790e-001 2.9436066111767473e-001
      1.2841084109141834e+000 4.4991374688363062e-002
      6.7362542160690475e-001 -1.8992479869197645e-001
      -5.0291176314124519e-001 -2.4684484077281363e-001
      3.2572200544787255e-001 2.1676326290446052e-001
      -6.4792444500071944e-001 -2.6761558881017727e-001
      -1.2205829043196017e+000 -2.4492549607191819e-001
      8.3519393600435210e-001 5.8612198933441273e-001
      -1.6538285306869815e-001 -7.8438751675156204e-001
      -2.0676589371898957e-001 -3.0758703818657862e-001
      3.2667307472912610e-001 6.6136645030597552e-001
      -4.6161009865057584e-001 -6.8346944721009406e-001
      -4.8775434400251744e-001 3.0663383254554238e-001
      -6.2474867146079938e-001 -7.0307603272656816e-001
      -3.1928996105914674e-002 1.6707874128521788e-001
      1.2367726424352661e+000 8.7468796017071276e-002
      1.1132322672497139e+000 1.4738501951613775e-002
      4.7089436481542263e-002 -1.2295710609303977e-001
      2.3961822194782592e-001 -2.7340122547893631e-001
      -3.6870787290075602e-001 -4.8584515081010865e-001
      6.2337259388754762e-001 -8.0393133534826355e-001
      1.2137862992494719e-001 3.1062170350264057e-001
      5.9297353768343157e-002 -5.7127109492527195e-002
      -1.0692012539946587e+000 -3.6106310244607415e-001
      -7.5081919426856703e-001 -6.3257462904409556e-001
      5.6050082073963292e-001 -4.4664482193986621e-001
      -5.7260922598716901e-001 -7.9948698442333238e-002
      -7.5720309602627167e-001 -2.7895673399674463e-002
      -2.2788207095671295e-001 4.3763850521073289e-002
      8.5771337941686832e-001 -4.1629515221793721e-002
      2.0853864202973884e-002 2.2006671359050595e-001
      -3.0893120301254867e-001 1.9684884922823551e-001
      -6.0158437592214575e-001 5.3286087574448693e-002
      -6.6391848541959164e-001 -2.5701355975793289e-001
      4.5709622653869370e-001 -6.4618316619583738e-001
      -5.3827456906950366e-001 -2.1013566533830805e-001
      -2.7370198851961541e-001 -3.2310179200826783e-001
      -8.7587195604004442e-001 -3.5908071792531061e-002
      2.6714987229161671e-002 4.2675799665762619e-002
      1.0589101846154612e-002 -1.0174602180404624e+000
      -2.6522204149020723e-001 8.1412355834191957e-002
      7.4750874195686234e-001 -5.5771580972322821e-001
      -3.8946781320370671e-001 8.4372857245695113e-002
      4.5266772506656339e-001 -5.0754653943237993e-001
      4.8432765165490321e-001 2.4188879936270216e-001
      -1.3100915238860542e+000 5.5082822180496704e-002
      -3.4483747095697723e-002 -1.0497323892271693e+000
      6.1977877183432395e-001 -4.7990958053658672e-001
      2.3969527029903853e-001 1.0165967132047779e-001
      1.4889054972602914e-001 -1.4596804563610943e-001
      -9.1824587779959355e-001 2.0219733396741460e-001
      -1.2450900185826785e-001 -1.9997780721284852e-001
      -2.1554391946820356e-001 1.4299243328373729e-001
      -1.6487623245601413e-001 -8.6964166581098135e-001
      -1.5148998520671877e-002 1.5570638808345075e-001
      4.5580997939440637e-001 -3.6897377295140518e-002
      -4.9614019342233306e-001 3.3758022667607568e-001
      -6.5816670615445694e-001 -8.1932002958257233e-001
      7.4008839845536500e-001 -1.1299120306318542e+000
      -2.1611541296619363e-001 -6.1736882073409649e-001
      -2.6927824274998236e-003 -3.2791468061287987e-001
      -6.0581749966844300e-001 1.9452668384673316e-001
      5.5724156218197163e-001 8.0586594172996873e-001
      1.0543297185454910e+000 9.4442909318623436e-001
      2.7477731698644020e-001 4.2834368970372810e-001
      4.8647023971648447e-002 -3.9544254966519987e-001
      3.1609114033487240e-001 -7.3154307908996005e-002
      8.4072578315996283e-001 -2.9795927665027105e-001
      -4.7449832659712382e-001 -8.8386332672929654e-002
      4.7795858228407401e-001 -4.0435438844567556e-001
      3.1875135324453652e-001 -2.9358786524819372e-003
      3.9641131834346727e-001 -1.9275558339705798e-001
      3.3270232264658861e-001 1.4453255434909482e-001
      1.3567166953329246e+000 -1.7494879890416240e-001
      6.8215238392517766e-002 -1.3324218069406042e+000
      -5.7124726981222810e-003 -5.9349929245769477e-002
      -2.5281681095685721e-001 6.7652790818265574e-001
      2.4242362721694449e-001 -1.0075431360674445e+000
      1.6929619764032497e-001 -6.0166015412444207e-002
      -3.5904038362889218e-001 -2.9121145799435466e-001
      8.9836943895379329e-001 -2.2445580505142657e-002
      3.2431242492294854e-001 1.8974412250329883e-001
      4.3451951700118824e-001 -6.4587831129059814e-001
      6.9170343706425441e-001 -2.0395809140156917e-001
      6.7821044804327812e-001 -1.7445593095992004e-001
      -4.5273276861535749e-001 -2.5425014050623151e-001
      7.5014231160575373e-001 -6.6278243070885323e-001
      -4.6893267730072706e-002 -2.2295924960741700e-001
      1.3706196179848948e-001 -3.0673447415749924e-002
      -3.0795859486238747e-001 7.1812980881853505e-002
      -7.3121807875403566e-001 -2.9118049500473797e-001
      -9.7768197780969832e-002 5.9001568820856713e-002
      -1.8017143803079316e-001 -8.6508997249949915e-001
      8.0251040289783149e-001 2.6758638431408172e-001
      -2.8575898503533886e-001 -2.4489301927462992e-001
      3.2074884447950369e-001 -4.1672721128703039e-001
      -2.1706441041431879e-001 -4.4090291195431380e-001
      -7.2287279584315051e-002 -2.5125708745513453e-001
      -2.2795486942069693e-001 3.5412667801486540e-003
      -2.9329246961329036e-001 -5.1245724657676750e-001
      8.1297644388213142e-001 -4.6140682162051139e-001
      -6.2244728663847393e-001 -1.0926193754091576e-001
      2.5978231382222855e-002 -1.1857924378159827e-001
      -1.0302537660711155e+000 6.9986898228811623e-001
      2.1725652475173807e-001 -8.0321865799138437e-001
      -1.7729228990620058e-001 -3.0989419412473940e-001
      1.3373443980632720e+000 -3.8838673689409103e-001
      6.1041725164954608e-001 -2.2545498085466920e-001
      3.5645133439253351e-001 9.7527337383467716e-001
      5.2821325835657584e-001 -2.9012303076444457e-001
      4.0964133881198683e-001 8.5153681442876838e-001
      4.8947847291984986e-001 -5.9566050896682710e-001
      -1.2326958640769538e-001 -7.9742717109671812e-001
      3.2327137808045897e-001 -2.2040832195766494e-001
      1.8867101497680637e-002 4.5827886968041872e-003
      7.7588808496687367e-002 -3.3935987143919094e-001
      1.3012937575075703e-001 -3.2879737901710221e-001
      -2.0561567844209712e-002 2.0436584215391931e-001
      1.2059991091467241e+000 8.1832053631429660e-002
      -2.6658103866594945e-001 -1.4050513484767665e-001
      -1.2858856282741735e-001 -9.2723656110560071e-001
      1.0975431024834426e+000 -1.7245494019533000e-001
      4.7671250238503417e-002 -1.2972816989158756e-001
      -2.3796949159210770e-001 -2.4234835524092238e-001
      -8.1986803827908750e-001 -2.6543576390290624e-001
      2.5309369939458388e-002 -4.1094087504165100e-001
      -4.0064529427051482e-001 -6.3001605906068250e-002
      9.2352378082171462e+000 -3.7092596878344986e-001
      7.3876729916640838e-001 3.9598922587767810e-001
      -4.0806580907432760e-001 -2.1422420046432042e-001
      -4.1888294508362828e-001 2.7485105134760235e-001
      -3.2751749267756924e-001 -4.3264415295440772e-001
      -6.1631175394610764e-002 -1.1355762795656768e-001
      -1.5801343731598944e-001 -2.2538713701443538e-001
      5.6952688929583432e-002 -6.5581110407712279e-002
      3.1177583229394346e-001 2.5255469739508762e-002
      5.6164577793882231e-001 3.6452585719669151e-001
      2.1227117646590299e-001 -1.9639469111382665e-001
      -6.5966186864181298e-001 -1.7048904715162455e-001
      3.9068452902295131e-001 9.9714521435877368e-001
      5.8571479169260449e-002 -1.2135217607601644e-001
      -5.7132759000626365e-001 6.0206139461464692e-001
      -9.4167484848926442e-001 3.3168049758680207e-001
      3.8502540894906340e-001 -4.0036443058222171e-001
      6.3383732699081130e-001 5.3030693758505110e-001
      -1.2438154163198508e-002 1.7725304405006956e-001
      -4.3105042218894163e-001 7.6585178168974949e-002
      -4.9233007760147623e-001 8.1139539947050654e-001
      2.4083221417586159e-001 8.0394081152716082e-002
      5.4507893565908994e-001 -1.0081078838014057e+000
      8.7373646325190657e-001 -2.1212939820706633e-001
      -1.5150977583524619e-001 -4.2867573828190630e-001
      3.0055279827504716e-001 -8.9062953865516284e-002
      1.0775451807877251e-001 1.9430759541215062e-001
      6.0307218082268721e-001 -3.8899926217695741e-001
      -1.9130111454819645e-001 -5.8151130920760830e-001
      -3.8701288704288367e-001 -5.2064716704515311e-002
      -3.7570185218014857e-001 -1.6975391674997002e-002
      -4.8680295640493326e-001 -1.4505203953312102e+000
      6.7660508328369984e-001 9.6020200968962618e-002
      -3.1504145315650589e-001 -6.8517564786594973e-002
      -3.9947605994371790e-002 -4.5038493182961742e-001
      2.5541086605653190e-001 -6.8830310389149019e-001
      2.7972041022058486e-001 -3.0812842255310341e-001
      4.8103177402469881e-002 -2.0273614578812879e-001
      3.8648392538122101e-001 -5.9094924466489895e-001
      7.4952400013436393e-001 -8.7323490117453301e-002
      -1.5750758313319382e-001 -4.6175985636177412e-002
      1.3067417481402027e-001 5.0108915317635250e-001
      -6.3928837201726063e-001 -1.2175308772206948e-001
      3.1525425207284330e-001 -3.7777426131433833e-001
      1.0737762460009046e+000 1.1851138230664952e-001
      1.1521612288608334e-001 5.9463879128160912e-001
      5.8232438885708192e-002 2.6836508999656650e-001
      1.1842024859425624e+000 4.6780751649639002e-001
      1.1814278180446126e-001 -7.1949952071881138e-002
      -3.5217055786658463e-001 4.5933244002338258e-001
      -2.8208651864411993e-001 -2.5965166962706621e-001
      -5.9741002825551115e-001 -2.4331765230134697e-001
      -5.5944329966061068e-001 -5.7531945219183499e-002
      1.2388077108186644e+000 9.9370961216395637e-001
      -7.3255065849562248e-002 -9.0449300011725173e-002
      -1.0948580827239808e-001 2.0850568910305084e-001
      2.6331319101887929e-001 -5.2590454350073346e-001
      5.8364090578440753e-001 3.5047862918659323e-001
      1.1584753798359652e-001 -4.3502838250412729e-001
      4.5715505139389584e-001 3.9815550259509580e-001
      6.4958906321000454e-001 3.7660932776220368e-001
      2.8343141534986561e-002 -8.1444675280310019e-001
      4.0875422477007867e-001 -1.2978797709267226e-001
      -2.9249006201902822e-001 1.2728422949486831e+000
      1.9196788910958534e-001 -2.2382417990427741e-001
      -3.9601103687348777e-001 4.1365938297254309e-002
      1.9516211749760071e+001 3.5256302701847447e-001
      6.4160716096771497e-001 2.8816157324129227e-001
      1.9424257679381021e-001 -2.2964817393292322e-001
      -5.7416804344743377e-001 8.1453870848077048e-001
      -5.2185708445501988e-001 -3.6248510494056535e-001
      -1.5797344793400725e-001 -3.0327001426189237e-001
      -1.7526657608624277e-001 7.0246970534196551e-001
      7.2253926901901222e-001 4.0606386981138531e-001
      1.3566992774418593e-001 3.7786396178917027e-002
      1.1212485251425226e+000 2.1358849600770777e-001
      4.5237270342052605e-001 1.9557414796333222e-001
      -7.9392787239397344e-001 3.1653422813336202e-001
      3.1223387963489868e-001 5.5529864724244038e-001
      1.9890076263435050e-001 2.7189275000778718e-001
      -1.8295614002258825e-001 -1.8250567570270071e-001
      -9.0787494440673078e-001 -1.2319925628566871e-002
      5.5094084729650794e-001 1.8925150289471226e-001
      2.4230887630609468e-001 1.4195050420914548e-001
      4.8997557863362057e-001 1.8993897416006114e-001
      -3.9448617239908479e-001 2.7230419766557484e-001
      4.6087044356766549e-001 3.1732181112264030e-001
      -9.9597596262863422e-002 1.4556149228087917e-001
      -3.4772786092070546e-001 -4.5286570367954349e-001
      1.4537226556878221e-002 -1.6535737983379573e-001
      4.4525754101492808e-002 -6.4336221795474338e-002
      5.4943685278824490e-002 -6.4733920749661777e-002
      -1.5816637085305055e-001 -2.7334774535805395e-001
      6.0047732388084751e-002 -6.4483998577968188e-002
      -2.5243830226740632e-001 -3.9972546364243389e-001
      1.8597208078109773e-001 -8.7546546118252189e-001
      -8.2908503225025187e-001 7.2397836794277134e-003
      -4.7887473117705509e-001 8.1937071426293739e-001
      2.2425493281136508e-002 3.4986330109752167e-001
      -3.5345141170886274e-001 3.7062857595245652e-001
      5.3157778127568889e-001 -8.6036923063385418e-001
      1.5519971809502059e-001 -1.5258094691544472e-001
      1.2929243969000809e-001 1.1498212301622659e+000
      -3.4779070874227952e-001 -3.8516235527892884e-001
      5.5626129592851514e-001 8.1801587706560916e-002
      2.8938676086042676e-002 5.2689844082930171e-001
      5.4380625295260443e-001 2.2990896533620565e-002
      2.8999114866992548e-001 1.6981967776682644e-001
      -2.7895003602539292e-001 -3.9430655329754000e-001
      5.6701107076866986e-001 -2.1605882317205255e-001
      1.3177076378039487e+000 -1.9491279334969544e-001
      -4.9471153656439631e-001 2.4335471876237247e-001
      -3.0078732803092945e-001 9.6052437327156376e-002
      3.4329327686994732e-001 5.6852574421267255e-001
      -1.5819460484260284e-001 2.5622823191654759e-001
      -2.3867337603831065e-001 2.3374330523101325e-001
      -4.3652003004515838e-001 5.9247811869116640e-001
      1.1098029745323493e-001 -2.3929965244525148e-002
      -2.0326998947564673e-001 -8.3140328819781484e-001
      2.5534092735071329e-001 5.8103753046029938e-001
      1.1024317007705779e-001 4.3999347260568716e-001
      4.8505974695288206e-001 3.9762408061561133e-001
      1.8475169110453402e-001 -2.7797562877130239e-001
      -9.4614411768933288e-002 -5.5588091269344420e-001
      3.6503673713417895e-001 2.0016323321868032e-001
      -5.8526499959461034e-002 -6.2119018708846985e-001
      -1.1611324410046220e-001 4.1721567663280418e-001
      1.4948582982355454e-001 -5.8113691854169325e-001
      -4.5749121255763103e-001 1.5825929206531952e-001
      4.9183149187834635e-001 -5.1221262399778489e-001
      -5.7672031941146207e-001 1.1005599756499005e+000
      -9.5594301683676872e-002 1.6961366801227398e-001
      1.0376327126606878e+001 -2.3955187794948454e-001
      5.1152930091690119e-001 6.3566681983342743e-001
      -2.8458039587268319e-001 3.9837266440380090e-002
      -4.4386302394856603e-001 -1.2246083452133953e+000
      9.6519804377540822e-003 4.9486651335277765e-001
      -2.8577456701106779e-001 6.0315183622243040e-001
      6.4617466586302283e-002 3.4889207429661462e-001
      -6.1170305269043057e-001 -4.4774843456221354e-002
      9.8468612133858824e-001 -6.4703178890164725e-001
      -1.0787103420767394e-001 -2.3667710421200455e-001
      -1.4760468652583439e-001 7.0579152776114717e-001
      -1.2017811759365632e-001 1.0062574075395112e+000
      4.4826397005517499e-001 -4.2507162562544554e-001
      4.9847825162405801e-001 6.8516339943693105e-001
      3.1574544436851010e-002 -2.2611123925159177e-001
      -4.7677984045977695e-001 3.5574070297495326e-002
      2.2040719341559278e-002 1.8555064232110630e-001
      -1.3893006541489870e+000 -5.5694474875180500e-001
      -4.7411354410320272e-001 6.0889168229416579e-001
      1.2569283577528437e-001 -3.6541916775644646e-002
      -1.9002971564889132e-001 5.2020210473976924e-001
      1.6143667392243924e-001 -1.0632013785569272e-002
      -8.4083793027806564e-001 4.8579358373007836e-001
      9.3970725807420907e-001 6.3070547932544274e-001
      -2.2887493100930889e-001 3.5848857949216428e-001
      2.4633647361194935e-001 -6.6579470796895815e-002
      -1.2956361071324354e+000 5.1098405524013768e-001
      1.3631196710609811e-001 8.2363264176818635e-002
      -3.3775570363858509e-001 -4.5503243254190756e-001
      1.7464094291240839e-001 4.8882226947681112e-001
      -4.5306067018196866e-001 -7.9140141684485243e-001
      3.7721597404145685e-001 -6.1789696836079466e-003
      -4.6941260513639055e-001 -7.3839413529403194e-002
      4.8539854164939839e-001 -2.8154755547356486e-001
      -1.5806941245468571e-002 4.8021025084799007e-001
      -5.4925888858642788e-002 5.9344879555706498e-001
      -6.1413933193680459e-001 4.2989813636156804e-001
      -8.0940336581926831e-001 -1.1829286429164825e+000
      -6.4576289887696037e-002 9.2515615844202281e-001
      9.0899449916787278e-003 4.3823885655761891e-001
      3.6494574981686650e-001 -4.4764836402757441e-001
      7.5806497735224632e-001 -8.4678493530285592e-001
      -3.7252316178363531e-003 1.0643074979170265e-002
      -4.5219324765499119e-001 1.1906281571317021e-001
      -6.4137891578943562e-001 1.2851575557461378e-001
      -7.4015875725187225e-002 6.6264060509315548e-001
      -7.2466867807343183e-001 8.3383649002584947e-001
      4.8341440610173275e-001 1.4312296344142122e-001
      3.2492381081644223e-001 5.7786224274272391e-001
      -6.3225591309517215e-001 3.5025162346594957e-001
      -6.8303979356123271e-002 -5.6290608492864935e-001
      -3.4538629208217508e-001 4.1368047489863291e-001
      -5.0841328769185692e-002 3.5602170419563323e-001
      3.4426370246510990e-002 5.7637414565079559e-001
      7.9721165500378788e-001 4.0525142899647643e-001
      5.2750204636253828e-001 1.0558257931218665e-001
      -6.7671258329771271e-003 -8.5504697496683013e-001
      -1.0075695333397345e+000 -3.0418732166831003e-001
      4.4980638118002361e-002 -2.7375666386216824e-001
      -3.6560677982405843e-001 -4.9258117593789047e-001
      1.1793078964177657e-001 -2.1620487335672056e-001
      3.5600520363354926e-001 3.2657658139920870e-001
      -3.1102984482541673e-001 -2.3105051115099348e-001
      -5.7402366628603507e-001 2.3670015809037351e-001
      -5.2022571405371165e-001 -5.2754763665145421e-001
      7.2962929292188261e-001 4.6310529991717031e-001
      1.0490822216291244e+001 -2.4750854551612370e-003
      7.3192604295316732e-001 6.7873686400469657e-001
      -3.4277134959923289e-001 3.4122364347721140e-001
      -4.1862183295543132e-001 -9.9073446221774575e-001
      1.0173612955335490e-001 6.3447174444239374e-001
      -3.3774921965318877e-001 3.8875676431823625e-001
      3.3165571107333452e-002 4.9207636158188978e-001
      -6.3750988584230039e-001 -3.8348065200921017e-002
      1.0011995486262195e+000 -6.3028822594807454e-001
      -1.0412533842627229e-001 -2.1974518604448523e-001
      4.2605938555824639e-002 8.1413849978128583e-001
      -6.1207986827944802e-002 1.1843343336783474e+000
      3.9630870044066485e-001 -1.5188853144937225e-001
      4.3486860541286892e-001 2.7653036977743983e-001
      1.6684176513965357e-001 -2.8760068214456841e-001
      -5.4548356943230414e-001 5.8757919072367222e-002
      1.1229411555406070e-002 3.7643379334957927e-001
      -1.4729984865857582e+000 -4.0424873128279615e-001
      -4.9938177359208208e-001 7.5056963816652067e-001
      2.5969372297597887e-001 -1.5115280815689499e-002
      -1.2799930446097188e-001 4.6998488917138026e-001
      7.8231010761478786e-002 -2.9005886843230671e-002
      -9.4054884416754836e-001 5.1529290375740233e-001
      9.0404621443139355e-001 8.7234962026996132e-001
      -2.1900621148439092e-001 4.2940469741260179e-001
      1.8462920708004646e-001 -1.2846378810280221e-001
      -1.0250563052213639e+000 5.3638811881583925e-001
      2.3502291318389212e-001 2.1613786621119707e-001
      -9.8063429519434295e-003 -5.8477481984057988e-001
      3.3424350669403291e-001 6.0119316220694741e-001
      -4.9174659980445035e-001 -6.6130971834045083e-001
      1.8530586602436966e-001 1.6339515802773458e-001
      -4.1256947310080250e-001 -1.4542189414994755e-001
      4.6992004936374693e-001 -3.0024584654581515e-001
      1.0780032601826735e-001 6.0237689396879501e-001
      -5.5923636759501176e-002 5.5059072979667889e-001
      -6.6409549494040443e-001 5.5081170359263842e-001
      -6.8732308738451742e-001 -1.2829022715241671e+000
      -6.2702355747105643e-002 7.0200658389165860e-001
      -2.5309384973373476e-002 4.2379859825241817e-001
      2.3391109794491785e-001 -4.7402713523677475e-001
      5.1498019957712082e-001 -4.7522232179652740e-001
      -1.5290280341446183e-001 1.4273674913031503e-001
      -7.1545333496882157e-001 2.0100885440913185e-001
      -7.0771609308458272e-001 1.0500504507688307e-001
      -3.7477857761809696e-001 6.2456385300111383e-001
      -9.5404011220574692e-001 9.0706424165028865e-001
      4.1263578550375851e-001 2.8091424201678733e-001
      2.8308741217502087e-001 6.4914464082614920e-001
      -7.8798939683740366e-001 4.7763036580581891e-001
      -1.1879096616773126e-001 -3.3132898265262511e-001
      -2.3648130942055340e-001 1.6214699184041512e-001
      -7.2495834942758030e-003 1.3294900174737517e-001
      1.1842755538910214e-001 4.9973115926936013e-001
      9.2280359510808285e-001 3.7888575332442281e-001
      4.5374470781464293e-001 -8.7183679864979907e-002
      -1.7842926701321424e-001 -8.1846736082136895e-001
      -1.0485492467389439e+000 -5.2105600402009411e-001
      -2.2951862963626658e-002 -2.3281174981551894e-001
      -4.3607350198252293e-001 -4.5472957513886464e-001
      1.6272388331461318e-001 -2.7040078973177234e-001
      2.9414241609227659e-001 5.2618814251953105e-001
      -3.1010237883050101e-001 -2.9545015199287694e-001
      -4.5961964421175089e-001 1.9399264778384420e-001
      -4.3307023601566896e-001 -6.6913143164659294e-001
      5.8883923517839309e-001 7.6511333986171015e-001
      1.2432011912789410e+001 3.3943370292117464e-001
      2.0087889598862707e-001 7.2687800793635529e-002
      -8.4294123759790474e-001 2.9918599366682197e-001
      1.4064285240454222e-001 -3.0901434243557380e-001
      3.1408421911985590e-002 6.5706725190963344e-001
      -5.9751704986673237e-001 4.7539483475042432e-001
      -5.5936113558543177e-001 3.8760715864732087e-001
      -9.8363042709002335e-001 6.3557331551166316e-002
      1.4051573567787246e-001 -1.4618915500571916e-001
      -8.4409700875670834e-001 -1.2079830887940912e-001
      -8.1076126983977898e-002 3.0340296145775736e-001
      -5.0672363101785786e-002 -3.1232789980275699e-001
      -2.5636292528788690e-001 6.5505394553483220e-001
      7.6972530601706923e-001 4.0029668929405715e-001
      -2.2805676162195915e-001 -9.1319334664781288e-003
      -5.0469734262729649e-001 -1.9161248347933682e-001
      6.0063422366007813e-001 8.1618666569664200e-001
      -1.5541868710768967e+000 -3.7974294045049800e-001
      -1.1807105979588783e-001 -2.2144189146964467e-002
      -4.6593379777655047e-001 2.1094581526477696e-001
      7.3886526401563613e-001 2.8714107599804412e-001
      2.9346161414765903e-001 -2.4255915905366532e-001
      -1.0106217075544552e+000 6.3843919542740846e-001
      1.7179702415881917e-001 6.9248690030874394e-001
      -1.2782962576631615e-001 2.7640027710251835e-001
      -2.9151582896471107e-001 -4.1852539621779167e-001
      -1.3081721677011828e+000 4.1461016814331808e-001
      3.3272700474258149e-001 -4.3197907873034475e-001
      -6.7193862200404886e-001 -5.2454915150371040e-001
      4.0365196566841560e-001 1.0056439317097476e+000
      1.7537569266229155e-001 6.2003768385686310e-002
      4.3984150168030883e-001 -6.4666544917347468e-001
      1.7947908420094941e-001 1.5823548117481970e-001
      6.0943569143106738e-002 -1.1400392991587374e-001
      -1.6275118099990368e-001 6.1318843074795626e-001
      5.4524282412080782e-001 7.5810468043456847e-001
      -9.3118955783730684e-001 4.7385494888336582e-001
      -7.9449368820928812e-001 -7.4401942361812967e-001
      1.1930307502885110e-001 2.5312369023573983e-001
